skill,0,1,2,3,4,5,6,7,8,9,10,11,12,13,14,15,16,17,18,19,20,21,22,23,24,25,26,27,28,29,30,31,32,33,34,35,36,37,38,39,40,41,42,43,44,45,46,47,48,49
adding-and-subtracting-in-scientific-notation,0.039816212,-0.25118917,-0.15378202,0.04876547,0.024812754,-0.013410848,0.097525075,0.10921035,0.04727335,0.35072485,0.08695115,0.025614573,-0.2948662,0.14449985,-0.28127357,-0.13450566,0.16135548,0.2143662,-0.09054966,0.15358981,0.039825533,0.24313435,-0.1756394,-0.02881203,0.24329706,0.23918733,-0.16500126,-0.055413138,-0.069961764,-0.03897414,-0.011003811,-0.090317294,-0.046933495,0.0079331,0.24856035,-0.0077044107,0.15087055,-0.033030353,0.07658648,0.11400361,0.061496045,-0.09035642,-0.07033076,-0.017913526,0.20167333,-0.12122215,-0.030750372,0.08484283,0.027112212,-0.05229593
adding-and-subtracting-polynomials-2,0.12874347,0.1176817,0.007591421,-0.1643414,-0.15803903,0.22919396,-0.041439272,0.10191877,-0.046649113,0.23901169,0.11320032,0.14073424,-0.1628505,-0.06713105,-0.04739984,-0.20198002,0.053062055,-0.23808067,-0.07550852,0.29124275,0.16430174,0.20571204,-0.11227575,-0.10653411,-0.06576432,0.051683556,0.11152191,-0.1933313,-0.17170268,-0.15113306,-0.0032840562,0.008596423,-0.010117811,-0.136371,-0.06859914,-0.08438112,-0.038974363,-0.19768366,-0.11755759,-0.12010233,0.02490628,-0.008645985,-0.09785938,0.03323366,0.3552562,0.1733111,-0.084718905,-0.05162698,0.16567479,-0.17355427
adding_and_subtracting_fractions,0.23134527,-0.03118244,-0.26324946,0.03226325,-0.08535636,-0.11563508,0.19186229,0.13105017,0.06768563,0.060462162,0.15334634,0.02892253,-0.105574064,0.077130444,-0.051180527,-0.14621177,0.19722399,-0.07780147,-0.17039073,0.084930904,0.104479566,-0.07521063,-0.068766214,-0.006448114,0.124715194,0.31668305,-0.22959669,0.053879466,0.03940619,-0.11360539,0.27118492,-0.20503558,0.11338527,-0.14888942,0.10742957,0.17526954,-0.01704082,-0.0071817767,0.079072565,0.13862465,-0.17668563,-0.024827912,-0.120575994,-0.031079829,0.18463752,0.11393881,0.20119023,-0.19571064,0.13267586,-0.17003587
adding_and_subtracting_polynomials,0.16281289,0.09630672,0.057248145,-0.05366299,-0.2894581,0.12934805,0.043450903,0.120736286,-0.021339731,0.17421736,0.11645665,0.17109641,-0.08712869,-0.025675826,0.07612083,-0.10389486,0.1575692,-0.21727057,-0.061039954,0.18292104,0.11487864,0.20738071,-0.059010923,-0.10977796,-0.24476814,0.1584985,0.119274974,-0.005450085,-0.057895444,-0.057598595,0.17161049,0.056433473,-0.113692276,-0.18026583,-0.18723258,0.12076878,0.013345119,-0.032008108,-0.0755208,-0.021285696,-0.06040536,0.09489147,-0.119845435,-0.10554825,0.3473007,0.06916046,-0.13504843,-0.25367752,0.112474345,-0.24864298
adding_and_subtracting_rational_numbers,-0.03605768,-0.016474187,-0.13585049,0.013492761,-0.031208292,0.07285292,0.023716923,0.08770925,0.05747863,0.3995836,0.12990618,-0.022011273,-0.09765333,-0.010825838,-0.18995607,-0.15410158,0.04212843,0.2739196,-0.036711823,0.14169182,0.12988111,-0.12707475,-0.036473714,-0.024873044,0.03004028,0.19778882,-0.2515474,-0.1371776,-0.06099051,-0.21451528,-0.14502822,-0.03630583,0.2627042,0.022301586,0.037701763,0.08785116,0.1534649,-0.11215631,-0.047895826,-0.029557314,-0.28268933,-0.13020945,0.0555184,-0.119042486,0.14604582,-0.1748632,0.09162065,0.1565144,0.22624573,-0.14136235
age_word_problems,0.057121355,0.00747515,0.08572814,0.08655136,0.20487961,0.040693764,0.15552963,0.19024086,0.1012679,-0.08440567,-0.013619244,0.31378245,0.028947456,0.1496582,-0.22456005,-0.08975563,-0.1273709,-0.11574873,-0.010358525,-0.13317068,-0.12382388,0.03633252,-0.16890517,0.1853152,0.18935461,0.3712081,0.10398992,-0.10913516,0.23642805,-0.11009102,-0.03980748,0.24005009,0.12028698,-0.074385405,0.1627781,-0.047802415,-0.052251436,-0.012677397,0.1325883,0.08421487,0.071531855,0.14148167,-0.007111735,-0.08440401,-0.12328241,-0.078936525,0.11403461,-0.25826097,0.1028705,-0.095537685
angle_addition_postulate,-0.037814572,0.092986465,-0.033746056,-0.2540662,-0.13298798,0.17523381,-0.07417729,-0.0846562,-0.077440545,-0.13417336,-0.109438404,0.17882647,0.05424427,-0.1128921,0.12696952,-0.062447842,0.20453604,-0.106235795,0.037408225,-0.18534912,0.08119297,-0.057059865,0.08716835,-0.045814592,-0.19145554,-0.06018338,0.12167007,0.049734686,-0.22703776,0.021123923,-0.13853833,-0.2885013,0.2020629,0.045586944,0.08266229,0.16833726,-0.21719542,-0.10500062,0.2662789,0.17758021,-0.06693456,-0.056717757,0.059000693,0.014436222,0.2804949,0.002630727,-0.2609477,-0.07657923,-0.19058107,0.007149588
angles_1,0.06937037,-0.1476815,0.11552287,-0.23396456,-0.019715978,0.15971512,0.019944198,-0.1584564,0.009597766,-0.11179996,-0.22121239,-0.07669747,0.076607674,-0.23594683,-0.14145544,-0.22843015,0.11833226,-0.08908415,0.10562476,-0.15884829,-0.0016882678,-0.08424777,-0.23338163,-0.04688196,0.046100657,-0.051749248,-0.08481594,0.13653064,-0.11454351,0.08932555,0.16737773,-0.26538402,-0.0933195,0.18861598,0.1401546,0.14166833,-0.17488807,-0.05341038,0.04433446,0.29138997,0.13411535,0.071882166,0.124418296,0.045687225,0.14622308,-0.11466826,0.049635645,0.15917456,0.04233011,0.26706448
angles_2,0.058539316,-0.115535736,0.101812415,-0.26636073,-0.003081528,0.04768582,0.087823346,-0.118516624,-0.02969247,-0.1210184,-0.30444375,0.03809237,0.14071037,-0.1690817,-0.08970945,-0.2607531,0.13595665,-0.1262556,0.16249804,-0.21323967,-0.038594753,-0.07264188,-0.23679763,0.01304713,0.027016023,-0.040438604,-0.05547489,0.11998129,-0.09452081,0.018874131,0.13643084,-0.29109168,-0.036566596,0.14511216,0.1518946,0.13451552,-0.17162839,-0.014411432,0.012546985,0.26122227,0.1566679,-0.0106673995,0.12684102,0.02740619,0.15462203,-0.15701868,0.047634766,0.15850961,0.019848207,0.2500394
angles_of_a_polygon,-0.12812634,0.17207927,0.19860193,-0.22268626,-0.031592194,0.052981436,-0.21162806,-0.04690161,-0.2613189,-0.15283576,-0.07114961,-0.07295586,0.0015337305,0.045699507,0.1812053,-0.012752664,0.25828135,-0.036628008,-0.22790028,-0.2817489,-0.3817117,0.005594548,0.089216545,0.12029791,-0.16325948,-0.1010057,-0.014570186,-0.06330712,-0.22901987,0.02975701,0.032351244,-0.058536217,-0.011736675,0.005014843,0.08797302,0.09824953,-0.11812924,-0.005217407,0.09510075,0.06578985,0.22405073,-0.066502504,0.25800776,-0.06120807,-0.16426885,-0.007218031,-0.07140974,-0.05979896,-0.068607494,0.018517619
approximating-with-orders-of-magnitude,0.08165503,-0.007933658,-0.0089956885,0.12332882,-0.03363042,-0.051139224,0.12510791,0.29622653,0.176294,0.22909772,-0.09121391,0.19107945,0.044525634,0.07714176,-0.1783509,0.18855982,-0.041201547,0.011272262,-0.08230845,0.065893084,-0.17624418,-0.0515488,-0.23771341,-0.053029686,0.17055476,0.30753985,0.007343244,-0.057095166,-0.026637502,-0.19013079,0.08463776,0.1459954,-0.048667595,-0.19511156,0.22817825,-0.11278733,0.12034224,0.15060177,0.051098,0.13138503,0.03892977,-0.17650054,-0.16504985,-0.19771637,-0.024711384,0.014781464,0.15447387,-0.22013262,0.1543745,-0.10292314
area-and-circumference-of-parts-of-circles,-0.15895332,0.051730916,-0.16846198,0.099863164,0.13012004,-0.18198982,-0.09480386,-0.11089772,-0.08562989,-0.122085884,-0.0834974,0.056053035,-0.2848682,-0.03923695,0.2693671,0.011834225,-0.14899786,-0.013330842,-0.06398315,0.029993348,0.1326733,-0.26492515,0.121544756,0.103802465,-0.03484193,0.09716552,0.3958074,-0.11596797,-0.26932278,-0.08740248,0.07605931,0.18632671,0.016482627,0.030840047,0.0020955286,-0.03250833,0.00037053897,-0.16021214,0.01933663,-0.13085558,0.08679725,0.18020211,-0.23083007,-0.012322911,0.024825072,-0.024968611,0.092617325,-0.2469832,-0.1320664,-0.07299183
area-of-quadrilaterals-and-polygons,-0.19778082,-0.1267323,0.1225408,0.050257046,0.1486981,-0.006325231,-0.19459909,-0.03542357,0.12092703,-0.16270015,-0.31728446,-0.051719096,0.07065055,0.106906995,0.0035102356,0.023613466,-0.09909856,0.018043835,0.40060657,0.035647795,0.024474632,0.040339015,0.016470246,-0.18967454,0.047393914,-0.27970603,0.15413246,0.120242715,0.021344207,-0.09191788,-0.09732437,0.070037134,-0.08053613,0.08420416,0.20107536,-0.12905784,-0.010672691,0.05135159,0.004873271,-0.013174586,0.20813665,0.14606942,-0.27133492,-0.101710446,0.16072622,-0.12334303,0.039009932,-0.0440721,-0.22574879,0.18577072
area-of-triangles-2,-0.24878152,-0.14404342,0.02128979,0.12918088,0.21280013,-0.036349535,-0.29301134,0.048187792,-0.05296551,-0.10614458,-0.30426314,-0.096986756,0.06751894,0.1995728,0.12816346,0.072736606,-0.05527644,0.13048866,0.26297408,0.01338968,-0.07023516,-0.0018799842,0.06686557,-0.21708372,-0.009648659,-0.20813432,0.048824172,0.029139318,-0.08414721,-0.072684236,-0.120154835,0.0081438385,-0.03688395,0.044064786,0.27918306,-0.12018229,-0.045743432,0.0828047,0.048064288,-0.029085435,0.13681324,-0.03332567,-0.23399061,-0.100432776,0.14906988,-0.045719877,0.1692744,-0.063759476,-0.30655915,0.14262563
area_of_a_circle,-0.26233009,-0.107985035,0.09169587,0.13693832,0.09509008,-0.014734376,-0.17171083,-0.24214429,-0.05255288,-0.10263146,-0.2793773,-0.19908306,-0.03725242,0.06593767,0.0291029,0.10638615,0.04643221,0.0520531,0.27821174,-0.16396439,-0.14378855,-0.17251855,0.14946115,-0.2877944,0.042228382,-0.08561097,-0.08613408,0.07200296,-0.090203375,-0.039497685,0.024576643,-0.07188038,0.056006934,0.05063607,0.0060635107,-0.020610452,0.23692323,0.06134032,0.18274856,0.048418242,0.19501217,0.06508469,-0.22382887,-0.047640316,0.1805018,0.13747735,0.14522515,0.05723296,-0.2542169,0.08520094
area_of_parallelograms,-0.19025114,-0.01359399,0.20584053,0.13735975,0.25382873,0.08716767,-0.22438721,-0.13763183,0.15977168,-0.24581622,-0.22418196,-0.19315535,-0.005912294,0.031268634,0.08625648,0.2256122,0.0034489757,0.0057742465,0.23391038,-0.052129544,-0.10419497,0.0024933028,-0.014051393,-0.23291105,-0.055320505,0.029767983,-0.008080919,0.19694822,-0.09678012,-0.22836803,0.016450204,0.07992978,-0.23122422,0.02259148,0.10674941,-0.05309591,0.03302772,0.13278827,0.025419328,0.02700852,0.23708074,0.12580651,-0.19386788,0.029658383,0.19455525,-0.0016395246,0.09594601,0.04812182,-0.19611852,0.088321514
area_of_triangles_1,-0.20833841,-0.14155656,-0.06327586,0.19186902,0.30110443,-0.023689164,-0.32177478,-0.040800594,0.0051273787,-0.20613687,-0.22530855,-0.10395134,0.01592342,0.2507887,0.032607187,0.15363027,-0.19652921,0.11322085,0.19241339,0.0320363,-0.024583384,-0.0058783526,0.105808996,-0.12419276,0.06496094,-0.16692437,0.05103184,-0.020045053,-0.08234824,-0.12245899,-0.11739621,0.015538917,0.06486067,-0.019296851,0.20819356,-0.11536745,-0.044507727,0.05547132,0.030355109,-0.030689819,0.0449018,-0.0058316696,-0.3015642,-0.026789652,0.07693663,0.0733888,0.12444551,-0.04828525,-0.31901208,0.16435233
areas_of_trapezoids_rhombi_and_kites,-0.17722024,-0.102490306,0.05861555,0.13737702,0.20745969,0.13231348,-0.35337424,-0.14087522,0.007925566,-0.11150103,0.002035772,-0.30495536,-0.09942554,0.104840465,0.048393067,0.0810443,-0.10358938,0.24623805,-0.00369338,-0.070499055,-0.17357999,0.025639087,0.019167194,-0.17996071,-0.086775824,-0.21211816,-0.16759925,0.19962327,-0.24312027,-0.019454835,0.0020887663,0.10599035,-0.05863415,0.05912488,0.11285974,-0.051813655,-0.012893204,0.1887853,0.05789909,0.13659692,-0.00926984,0.21784525,-0.25268438,0.043457743,0.13472553,-0.03754536,0.12656173,0.06938014,-0.15581885,0.07765395
calculating-the-mean,-0.18109688,0.18872714,0.018251982,-0.24285665,-0.17044164,-0.21774964,0.02652274,0.11682645,0.009481604,0.00042113103,0.30908003,-0.11203738,-0.22153756,0.009488836,-0.057958808,0.10641656,-0.011397329,-0.049255025,0.29146627,0.123258926,-0.00052950147,0.1794779,0.10411295,0.105231784,-0.010238059,0.16892938,0.090034485,0.18076845,-0.044699837,0.23910432,-0.16824207,-0.045293458,0.062391967,0.041468266,0.014451404,0.049394127,0.12591033,0.26658094,0.24471784,0.077553295,-0.05007058,-0.072361924,0.009399754,-0.14208569,0.017315026,0.03272078,-0.2509797,0.19235657,0.029418569,-0.04820348
calculating-the-mean-from-various-data-displays,-0.2290636,0.19046333,0.057054807,-0.115266874,-0.08182917,-0.2191421,0.042532872,0.15602532,0.021371461,-0.016615823,0.20988859,-0.091034256,-0.13169877,-0.086802,-0.02565099,0.14121094,-0.018807802,-0.051523946,0.30316943,0.15540199,-0.07061467,0.26141512,0.06950451,0.050484985,-0.010730808,0.2540662,0.07424519,0.072707355,0.019738384,0.25807098,-0.15237042,-0.007282786,-0.03404193,0.0480563,-0.06471162,0.004902269,0.25172377,0.28193718,0.05606384,0.042771265,-0.06424724,-0.072365396,0.07684383,-0.24329554,-0.01898434,0.06428684,-0.2686746,0.1862413,-0.02177907,-0.0893533
calculating-the-median,-0.080551594,0.15717743,0.02678466,-0.29762372,-0.07397582,-0.23523332,0.08109439,0.11205921,-0.02159038,0.13900016,0.2505538,-0.15514164,-0.15844214,-0.027569769,-0.09838182,-0.07827415,0.073111095,-0.07654858,0.30798656,0.106010385,0.008314021,0.18703997,0.05500734,0.11517571,0.008685462,0.2014369,-0.021168137,0.05211497,-0.016724324,0.21685296,-0.017253054,-0.14290106,-0.0470679,0.043607045,-0.028341783,0.09846764,0.14920625,0.27685666,0.07470749,-0.05180844,-0.07169471,-0.19574034,0.079603665,-0.2184089,0.06366159,-0.041595027,-0.1672173,0.32975268,0.042152815,0.08507313
calculating-the-median-from-data-displays,-0.15515636,0.2512574,-0.021087855,-0.18226708,-0.12942146,-0.2444899,0.054010544,0.15429866,0.009150117,0.052025303,0.21512462,-0.13903071,-0.13344534,-0.024736403,0.020085365,0.1936369,-0.038776763,-0.0447304,0.3303764,0.10627603,-0.029995484,0.16437905,0.10225382,0.04323887,-0.008636265,0.21616574,0.10483063,0.12960343,0.004774032,0.24793181,-0.12346654,-0.033762656,0.014200881,0.011500446,-0.04983388,0.0043733604,0.18973687,0.2964646,0.091422625,-0.026298407,-0.14625034,-0.14858325,0.021031754,-0.23245236,-0.02692052,0.107165195,-0.2344036,0.17684217,-0.0052619167,-0.04826214
combining-like-terms-0.5,0.16903548,0.11545469,0.14053875,0.09206586,-0.02290089,0.12766713,0.08378794,-0.012586967,-0.06704246,0.0018708782,0.09006607,0.26582468,0.10645243,-0.07564346,0.04115651,-0.24590471,-0.024696114,-0.27188396,0.24532324,0.21535839,0.032030787,0.15276851,-0.16024888,0.08875522,-0.11510566,0.15101917,-0.14577211,0.06344262,-0.08413822,-0.10283098,0.03045889,0.0643397,0.17275576,-0.06648378,-0.30255035,-0.055884786,0.05282165,0.08106461,-0.32210383,0.0443218,-0.064065404,0.1543422,0.073934354,0.11633403,0.116573945,-0.09096141,0.16495825,0.11518085,0.21519634,0.1439919
combining-like-terms-with-distribution,0.14377713,0.09680755,0.1254214,0.027913457,-0.12070088,0.16765472,0.120077364,0.08476967,0.03601338,0.14363126,-0.010227063,0.2909136,0.14388664,-0.06714753,0.07282618,-0.21639806,0.11594748,-0.25237772,0.18446156,0.18473953,0.007997302,0.22398326,-0.13205862,0.1258065,-0.17406948,0.07186588,-0.14087404,0.13635276,-0.04673701,-0.16770336,0.20085244,-0.056662016,0.083013654,-0.14760982,-0.2567148,-0.06375296,0.086848974,0.15456645,-0.16538863,0.073333286,-0.18318084,0.004755521,-0.0059885187,-0.01533272,0.27103314,-0.023273917,-0.0032723723,0.15001163,0.15131943,0.11194074
combining_like_terms_1,0.12019991,0.06350164,0.21442825,0.063790485,-0.02994716,0.029741812,0.17340966,-0.06288966,-0.045412358,-0.089458995,0.081867,0.24509647,0.15122186,-0.054399423,-0.049106903,-0.27687111,-0.07304475,-0.2647818,0.23152857,0.06169937,0.0045469096,0.1108234,-0.1708895,0.13541436,-0.048555933,0.13179529,-0.16317101,-0.07813503,-0.027357418,-0.0967871,-0.024649635,0.10606905,0.22455393,-0.030010968,-0.22394107,-0.0659018,-0.033719417,0.06112646,-0.42507157,0.018111955,0.040028613,0.116661005,0.0802775,0.22276087,-0.055488676,-0.11522661,0.18896571,0.0464428,0.14029211,0.099540435
combining_like_terms_2,0.26058084,-0.0689376,0.26310444,-0.052606877,-0.018221933,0.1823821,0.11724714,-0.13753134,0.032624923,-0.11176526,0.044393398,0.31436774,0.14263438,-0.0010166547,-0.055705667,-0.21086644,-0.18838917,-0.1588207,0.14277424,0.09167098,-0.031916376,0.004110492,-0.07868187,0.106078476,-0.0047217635,0.10922261,-0.12956159,-0.03428915,-0.07570992,-0.075146064,0.10097975,0.12792362,0.19036949,0.007877528,-0.35467297,-0.067268714,0.06534972,0.03547366,-0.45447323,0.054649577,-0.04382437,0.15535513,-0.020548766,0.044096872,0.02751773,0.04580689,0.056976642,0.08177157,0.085074745,0.029381372
comparing-features-of-functions-0-5,0.14622724,-0.120492704,0.14033169,-0.122752845,-0.032628324,-0.09045982,0.09633921,0.11358304,-0.026404995,0.02863317,-0.18444939,0.12665796,-0.067454904,-0.039670467,-0.26750067,-0.1000026,-0.23054218,-0.26288745,0.14328508,-0.12026542,0.051920775,-0.074849546,-0.2599852,-0.088749714,0.14095505,0.09042472,0.118209794,-0.15240216,0.038898524,0.10826701,0.16272618,0.17338833,-0.07573164,0.19157968,0.20568599,-0.17459552,-0.124410376,-0.25294968,-0.22698666,0.044590004,0.22771306,0.15724836,0.094482504,-0.016931787,0.027216509,0.13808073,0.046374664,0.14491963,0.07448057,0.01001009
comparing-features-of-functions-1,0.14005324,-0.14389135,0.22593765,-0.13212962,-0.035480488,-0.02001821,0.16830714,0.08720879,-0.017644238,0.1283671,-0.1785671,0.20678794,-0.006746664,0.03482263,-0.35241356,-0.18333967,-0.13396306,-0.28812167,0.24708286,-0.19467035,-0.040261213,-0.1105555,-0.17762798,-0.082488455,0.14699948,0.06478111,0.11702693,-0.20236921,0.08992675,0.05791593,0.08290426,0.12375345,-0.03568052,-0.00016189794,0.13118945,-0.0975707,-0.12940338,-0.092984825,-0.21378474,0.008472619,0.12250256,-0.028976025,-0.01725403,-0.17561148,0.13352364,0.118208244,-0.06967525,0.23010238,-0.004486175,-0.033326447
comparing-proportional-relationships,0.16013612,-0.14671095,0.019402493,0.06619489,0.06695074,0.18242206,0.12273506,-0.050165426,0.079198964,-0.120137215,-0.113123514,0.14824931,0.2413416,-0.2244387,-0.065918125,0.042278275,-0.2711723,-0.2543648,0.08068104,-0.1796007,0.11255752,-0.081589885,-0.18211913,-0.107892655,0.26343742,-0.022361197,0.16288194,-0.11082893,0.14362943,0.01892915,-0.05609208,0.28698575,-0.057014987,0.10389349,0.06489221,-0.10680929,0.041258566,-0.3377436,-0.13206522,0.00017659251,0.022574814,0.14768852,0.19526517,0.023570554,-0.0975327,0.13320112,-0.058061205,0.07453664,-0.03726159,0.06858805
comparing-rational-numbers,-0.04760757,0.060992084,0.12736171,-0.23220024,0.029471477,-0.12019364,0.10930559,0.06691117,0.02250747,0.1129509,0.09923958,-0.33238122,-0.07373654,0.08492972,-0.19195527,-0.044253964,0.028302468,-0.08948594,0.2646064,0.11026323,-0.1182131,0.038311183,0.028159186,0.17603762,0.28270677,0.09442342,-0.07290168,0.089699656,0.25601783,0.12132739,0.16628689,-0.19700934,-0.10759975,-0.11104637,0.11290228,-0.035020694,0.094815314,0.122668914,-0.0021543547,-0.0829458,0.0008958209,-0.17772636,0.045546897,-0.19959825,-0.19144845,0.08923855,0.110947095,0.22454995,0.21773776,0.15129337
complementary_and_supplementary_angles,0.10227269,-0.034764305,0.0040166504,-0.24021856,-0.14171775,0.009713728,0.038250133,-0.12149074,-0.07386164,-0.16295587,-0.23621756,0.2348398,0.07191944,-0.14417554,0.030830434,-0.043766625,0.15570976,-0.07759598,0.10684064,-0.28791973,-0.09008478,0.014904797,-0.010201192,0.012861694,-0.23412894,0.019362282,0.0885836,0.039254796,-0.2610426,0.0003809273,-0.04323837,-0.22883724,0.12068869,0.040241234,0.18940483,0.23883408,-0.19927604,-0.034828287,0.12061575,0.23013103,0.02793872,-0.22962932,0.14424536,0.01960725,0.2112821,-0.121968314,-0.029890444,0.07599573,-0.13129705,0.16316207
complex-fractions,0.1403666,-0.20175587,-0.01927094,0.014615169,-0.07184431,-0.03341104,0.23515864,0.12788078,0.34636995,0.0123601025,-0.06126059,0.08438872,-0.10440229,-0.06361286,-0.22445059,-0.08805715,-0.0027898278,0.11191849,0.13005109,0.2058004,0.037829377,-0.1242165,-0.055691104,-0.054219168,0.18582857,-0.018454878,-0.277835,0.22126241,0.045570105,-0.1741707,0.15407173,-0.24476856,0.03539097,-0.015557383,0.12363727,0.040236633,0.13772075,0.19126774,-0.045785762,0.13041519,-0.064605884,0.034711987,-0.09396197,-0.019139383,0.082446106,-0.037490442,0.32944486,-0.110813364,0.21576387,0.04485969
computing-in-scientific-notation,0.16300085,-0.027519923,-0.21382882,-0.022917708,-0.10957715,0.18661702,-0.07273019,0.14920838,0.14134295,0.2974516,0.096565716,-0.13864723,-0.26180032,0.012013456,-0.09487283,-0.00910406,0.07948238,0.15069902,-0.2860704,0.1423384,-0.059672203,0.22231811,-0.13566467,-0.020002585,0.19674234,0.06697875,-0.1529375,-0.055071052,-0.1966567,-0.15044378,0.19782569,0.022262529,0.015468482,-0.10990636,0.08845446,0.06420016,0.23653677,0.0067506623,0.21565935,0.1120161,-0.04337486,-0.008899598,-0.13142839,-0.07372903,0.26844984,0.0784999,-0.021788707,-0.011724927,0.09625354,-0.10820609
congruent_triangles_1,0.0791204,-0.05143784,0.09275721,-0.23162185,-0.026167294,-0.07982607,0.028843578,0.024033537,-0.047620546,-0.15158243,-0.19607486,0.27296916,0.13462403,0.0039449623,0.03095094,-0.1531487,0.17367184,-0.090635195,0.072365865,-0.36286548,-0.128361,-0.23307903,-0.093468584,0.019291854,-0.035946935,0.0990353,0.09122815,0.0747569,-0.002924279,0.04913181,-0.027987301,-0.2711447,0.06570784,0.17321809,0.20782442,0.23359014,-0.25771838,-0.0062394687,0.031221127,0.2384419,0.10308282,-0.032748733,0.20617178,-0.05793527,-0.01765143,-0.18167502,-0.07537309,-0.072707884,-0.15619998,-0.008892414
congruent_triangles_2,0.015954275,-0.031811077,0.11842849,-0.19407095,-0.03989269,-0.010486912,-0.049791873,0.011708847,0.04278611,-0.22448103,-0.2733471,0.2929884,0.20579955,0.022478271,0.03251969,-0.025012977,0.0935652,0.027447334,0.17918883,-0.3220306,-0.19355445,-0.043304008,0.08652785,-0.04713439,-0.14996165,-0.025137477,0.0878705,0.10632639,-0.07532585,-0.09255024,-0.1171454,-0.21938163,0.21108052,0.10191153,0.19228466,0.1643257,-0.09823511,0.05035435,0.14782329,0.16840677,0.13909315,-0.142938,0.13126703,-0.066120006,-0.014314614,-0.14750034,-0.0968932,-0.18943617,-0.24903886,0.029051514
constructing-and-interpreting-absolute-value,0.2158541,-0.15022588,-0.14416812,0.12284054,0.01709212,-0.11643973,0.11213787,-0.019512732,0.026083874,-0.32572863,0.04885023,0.09774837,-0.024167333,0.024884649,0.021937534,0.22611243,-0.26182643,-0.001366305,0.07260974,-0.20025222,0.17488661,-0.25952318,-0.04730907,0.07138704,0.26504767,0.082452536,0.15730475,0.088318184,0.18644677,0.13929436,-0.13896133,0.22480911,0.07923426,0.11571966,0.12113849,0.10063117,-0.07936672,-0.1391385,-0.031396348,0.049641006,-0.13227755,0.16150388,0.1293288,0.130424,-0.25972793,-0.0154906595,0.15480837,-0.022561138,-0.021435853,-0.017030215
constructing-scale-drawings,-0.13191496,0.11318011,0.036158882,0.06814851,0.18317819,0.085232854,-0.20511538,-0.2239576,0.21052289,-0.23289335,-0.11494261,-0.042427152,0.20538847,-0.042148586,0.17057323,0.19061735,-0.06963,-0.22991496,0.30256012,0.047864504,0.03275211,0.08758117,0.02097789,0.008212268,0.039744306,-0.068230465,0.15151516,-0.08759765,-0.10394501,-0.20984289,0.07318798,-0.14042151,0.09843408,-0.098449685,-0.030167038,0.08860704,0.048223883,-0.023975356,0.24894072,0.046191484,-0.036824923,-0.2083855,0.04352533,0.036816925,0.044838265,0.08250355,-0.13793682,0.03531458,-0.14521162,0.36999783
constructing-scatter-plots,-0.06824608,-0.036101278,-0.08716101,0.16835132,0.17595352,-0.08257678,-0.14317058,-0.08888049,0.13164024,-0.21042009,-0.033360336,-0.047638725,0.0019898731,0.2859918,-0.08365997,0.23157197,-0.07653158,0.072324604,0.2762769,0.19508496,-0.011733457,0.43528768,0.08561982,0.034182772,0.08878337,0.03799485,0.20883416,0.069622956,0.19893521,-0.12119433,-0.25872785,-0.08083241,0.007488238,-0.1630393,-0.09627439,0.042350277,0.16560483,0.11057062,0.012975048,-0.037712496,-0.051494986,-0.13007788,-0.1249101,-0.138227,-0.10421928,-0.052060917,-0.13048577,-0.093267895,-0.0028142682,0.053647727
converting-between-fractions-and-percents,-0.03350346,0.04732437,0.011591571,0.2318594,-0.0030121298,-0.0025742648,0.054310337,-0.060523905,-0.11016935,0.12447161,0.10955259,0.007437462,0.019784814,0.115471475,-0.11998422,0.33049938,0.17894875,-0.017897218,-0.056294367,-0.24743491,-0.1517805,-0.10764049,-0.045636624,0.09225417,-0.3198272,0.14051135,-0.046246678,0.07193642,0.050764766,0.0081508495,0.31032807,-0.1007983,-0.28927955,-0.08895009,0.13663654,0.116227604,0.041008018,0.034892224,-0.09066587,-0.057269607,-0.27509534,-0.03746972,-0.048261613,-0.0011107017,-0.074775845,0.35627344,0.036945283,0.03607997,-0.11076326,0.11674252
converting_decimals_to_percents,0.2591583,0.037072062,0.103564546,-0.020662414,0.0027368313,0.32288942,0.052472524,-0.058203954,0.09815806,-0.030575912,0.037482444,0.36540377,0.20740443,0.11045815,-0.1015768,0.1317991,-0.12846243,-0.10340118,0.07059009,-0.033922482,-0.06275786,0.05318139,-0.005240858,0.10384959,-0.072380036,-0.0005750007,0.17380345,0.01639835,0.08847843,-0.18081386,-0.109073766,0.2925377,0.034159366,-0.07234661,0.13228367,-0.06886318,-0.03477693,-0.29311,-0.24087028,-0.119292565,0.10314695,0.041450467,-0.032483328,0.029975696,-0.3014754,0.04492949,0.11761534,-0.15083466,-0.021745648,0.15682416
converting_percents_to_decimals,0.2459681,0.05465065,0.116958745,-0.021604715,0.0025360186,0.32581654,0.046972483,-0.04436239,0.08278469,-0.013246205,0.037230723,0.3689731,0.20446837,0.1137063,-0.09892496,0.12907426,-0.13195312,-0.09990079,0.088041,-0.023930982,-0.059718173,0.05355934,-0.011162983,0.08881339,-0.093223386,0.002351081,0.19001871,0.0035069452,0.07386209,-0.17257333,-0.11841965,0.29852924,0.04188238,-0.07716668,0.12351031,-0.06747401,-0.036787946,-0.28885975,-0.25389037,-0.11849719,0.10499397,0.03212075,-0.027294287,0.01980236,-0.29447514,0.03795756,0.106541395,-0.16031846,-0.018866591,0.1528484
coordinate-plane-word-problems-in-the-first-quadrant,-0.19211319,-0.39653406,0.1467078,-0.25170287,0.19624574,0.056935195,-0.00889413,-0.093681924,-0.09663531,-0.12698828,0.07952984,-0.12380733,0.23060778,-0.02426634,-0.1031639,-0.045402788,-0.0870669,-0.06247469,-0.33146426,0.07971419,-0.16930345,-0.0036784527,0.026711201,0.029798133,0.022807525,0.37541226,0.066955276,-0.24433796,0.058737047,0.15124638,-0.07502072,0.018013982,-0.023235569,0.12818383,0.013556807,-0.10226438,-0.023725871,-0.12220731,-0.045064975,-0.03487256,0.11301937,0.01403337,0.10938808,-0.24291423,0.14142281,0.029844485,-0.04652172,0.040573534,-0.07350078,0.02165677
creating-histograms,-0.1772379,0.30003515,0.033948556,0.122076474,-0.08480633,-0.09684619,0.013490231,0.35497957,-0.019660648,0.20536968,0.24445204,-0.1189063,-0.017049965,0.086394586,-0.027841168,0.061861742,0.12245286,-0.13357882,0.2436609,0.16511771,-0.08516021,0.30731142,-0.118563905,0.012959513,0.020512577,0.12577349,-0.029214194,0.09167778,0.097535096,-0.06174071,-0.12000453,0.08878319,-0.030501429,-0.108630076,0.079090275,-0.13047397,0.27597123,0.23225299,0.19883762,0.100271456,0.01667874,-0.11467117,0.012467983,-0.10685814,-0.04551834,-0.04684824,0.041264307,0.058918428,0.2079988,0.032034576
cross-sections-of-3d-shapes,0.27771065,0.010441884,-0.061865557,-0.10020633,-0.115330674,-0.066660315,-0.05584082,0.16027622,0.090529874,-0.20536377,-0.2012623,0.22031596,0.00655588,-0.015151477,0.12830627,0.12531485,-0.15116836,-0.25137645,0.38101906,-0.14239521,0.17021574,-0.044022948,-0.12765568,-0.025921168,0.14134692,-0.14119759,0.23200206,0.13233492,-0.09915276,-0.07297429,-0.039209843,0.15813951,0.028762482,0.115546405,0.25698987,0.18133634,0.004119571,-0.005141125,0.06655842,0.04754651,0.08738073,0.0029476678,-0.06133892,0.08103429,0.14071426,0.04356982,0.101233214,0.078851715,-0.22563201,0.10619919
cube_roots,0.2387313,0.13927466,-0.18336442,-0.043244474,-0.0075003407,-0.26641333,0.1284458,0.13787505,0.049218815,-0.09115879,0.19893897,0.13983187,-0.10391225,-0.05387663,-0.023966815,0.19408515,-0.12486879,-0.101615235,-0.09162693,0.036129724,-0.039147098,0.08123346,-0.21597667,0.069556884,0.1299688,0.3730814,0.08554833,0.06466067,-0.028337786,-0.06435342,0.15738541,0.17728822,-0.15448509,-0.079869285,0.10598195,0.1571974,0.24491562,0.014390575,0.0487066,0.021267096,0.015761577,0.06737053,-0.20891976,-0.03762149,-0.079048894,0.056147084,0.28740528,-0.18084063,0.1480495,-0.10065663
defining-dilations,-0.05679295,-0.09824678,-0.0684933,0.06270122,0.15163842,-0.059804786,0.15605792,-0.12969437,0.11144878,-0.12191373,0.011493828,0.10013616,0.15324368,-0.08415527,0.37383804,-0.05232866,0.15833785,-0.41635564,0.023402933,-0.15600392,0.03531241,-0.018909723,0.06201877,-0.055935133,0.13392715,0.17218907,0.17369998,-0.27303067,-0.02513432,0.08877457,-0.10310264,0.04311546,0.084886976,-0.06425586,-0.019335201,0.17602515,-0.23684455,-0.14360143,-0.059737846,-0.038342413,0.08983837,-0.013567784,0.23612253,0.0492041,0.1055776,0.046823557,0.10109005,-0.26428446,-0.1028399,-0.014156067
defining-dilations-2,0.013856397,-0.08977559,-0.018779835,-0.019551272,0.11556002,-0.013224703,0.17588447,-0.15276639,0.13507347,-0.1351685,-0.037809744,0.09323932,0.15978093,-0.122496516,0.40355274,-0.0063532023,0.13186555,-0.35610828,0.07330552,-0.20704816,0.014798109,0.014661749,-0.013119692,-0.0005507264,0.08235342,0.041384786,0.21948835,-0.2554323,-0.10049987,0.080954805,-0.066906944,0.11034244,0.08023807,-0.051536806,-0.02126308,0.24214649,-0.20601971,-0.1414548,-0.060967978,-0.03923669,0.13192894,-0.02841543,0.24108267,0.12389927,0.15696403,-0.053224284,0.12584148,-0.2049462,-0.10092796,0.04240713
defining-reflections,-0.08087211,-0.05026858,-0.12925652,0.0022534595,0.10059999,-0.08045722,0.111147545,-0.0450736,0.024143416,-0.14966704,0.07922126,0.15577678,0.11351036,-0.06787908,0.29227978,-0.19425978,0.14088736,-0.39742368,-0.060022008,-0.09952582,0.07626417,-0.061958358,0.04492179,-0.088146426,0.048489567,0.19958305,0.13157368,-0.21111122,-0.03621058,0.12014264,-0.19211584,-0.0045799087,0.08339192,-0.01727974,-0.008155199,0.20287007,-0.32253423,-0.10393529,-0.02534483,0.055093244,0.094442464,0.08896847,0.20896886,0.017826907,0.099597484,0.0729114,0.016721448,-0.32468084,-0.08745239,-0.1587104
defining-rotations,-0.17513287,-0.2009995,-0.12189494,0.06769897,0.14384255,-0.10528184,0.0947671,-0.1389903,-0.012516619,-0.112998806,0.07286609,0.07163331,0.08282992,-0.0018737072,0.28326896,-0.15272252,0.1687956,-0.30314434,-0.10756503,-0.14865527,-0.004541754,-0.08878735,0.20722738,-0.08029831,0.0069156666,0.18960355,0.09869759,-0.20354962,-0.050047237,0.1604474,-0.2505889,-0.08537915,0.1426108,-0.019304259,0.037473086,0.20659932,-0.2888873,-0.049665928,0.021454819,0.08572733,0.029396042,0.008589829,0.20692551,-0.060290758,0.071094975,0.051028334,0.057380036,-0.27984342,-0.13128985,-0.07962025
defining-translations,-0.11332783,-0.107298985,-0.13610353,0.04291875,0.15575233,-0.095866255,0.15123363,-0.067838974,0.045998227,-0.12033691,0.08556493,0.09290727,0.10334614,-0.06087684,0.29631856,-0.21579829,0.16625497,-0.37962413,-0.044325333,-0.101412095,0.06710712,-0.06820372,0.041137908,-0.08140478,0.10930214,0.22931649,0.083073795,-0.20663998,-0.029424816,0.14136551,-0.1851004,-0.031893354,0.10462142,-0.019738901,-0.010740686,0.20348413,-0.31309322,-0.069388956,-0.03260598,0.078442715,0.07649969,0.07631873,0.22616054,0.013442167,0.10451467,0.023305299,0.08699096,-0.2831329,-0.07168654,-0.10509181
dilations,-0.11124857,-0.24036682,0.011478867,0.19348453,0.22507758,-0.073665366,-0.0036603252,-0.28747705,0.2487219,-0.11392555,-0.11067555,-0.13332485,0.06779047,-0.12923157,0.17103778,0.13513052,-0.03689453,-0.28469598,0.059747323,-0.07148015,0.040968593,-0.14314248,0.13962652,-0.07604374,0.24187286,0.106287666,0.07815073,-0.33104056,-0.021105334,0.0696749,0.092380516,-0.008963219,-0.040493704,0.04946162,-0.025997622,-0.019909402,-0.15713118,-0.12497608,-0.1411942,-0.1462935,-0.019984141,-0.10349202,0.16906226,-0.006713639,-0.04633028,0.18910688,0.116188094,-0.018104497,-0.10848135,0.22774105
direct_and_inverse_variation,-0.20710869,-0.12772359,0.029683562,0.23354898,0.230897,-0.15860775,0.24308777,-0.0660927,0.11847627,-0.15870464,-0.02878519,0.16912825,0.0985076,-0.010955775,-0.043708492,0.21470541,-0.17356372,-0.12895378,-0.009005428,0.06863454,-0.0420628,-0.07428983,0.12374652,-0.09728268,0.059186343,0.3923371,-0.0727295,-0.007894709,0.031057727,-0.061725814,-0.10722671,-0.21988252,0.11462603,-0.065697275,0.08676942,-0.20223573,0.1261635,0.066579014,-0.1034731,0.18798107,-0.2257005,-0.020778349,0.07929241,-0.1470226,-0.13871975,0.12105895,-0.023044089,-0.22517629,0.059062947,0.07588235
discount_tax_and_tip_word_problems,-0.021323605,0.2104477,0.08118155,0.16064414,-0.026339753,0.0596999,0.16250157,-0.0895924,-0.18274686,-0.08530027,-0.015539331,0.29533812,0.2585848,-0.073442385,0.07797958,0.064469755,0.13414548,-0.33267,0.04572997,-0.07186663,0.068383485,0.00026377424,0.1951868,0.013092088,-0.13461693,0.23062359,0.1920606,-0.041527644,0.23751345,-0.06885117,-0.102449514,0.04635539,0.005687646,-0.17973675,-0.165584,-0.063864656,0.058439896,-0.12569068,0.0457046,-0.18613362,-0.10928911,-0.0305385,0.11177976,0.023142062,0.025453888,0.23069134,-0.27201682,-0.1542673,-0.11479185,-0.020589413
divide-polynomials-by-binomials,0.13088953,0.036569573,0.04006532,0.06593453,-0.17188115,0.22247368,0.14925061,0.2680772,-0.053939186,0.16546197,-0.053532463,0.10147098,0.10650201,-0.09652993,0.04179597,-0.013936284,0.11982603,-0.14949968,-0.28597906,-0.28478912,-0.040227477,-0.2351087,-0.10678919,-0.053404693,-0.112222366,0.10152798,-0.033401247,-0.17164326,-0.020543233,0.013156162,0.21621065,0.22097194,0.040538877,0.06346631,0.19503208,-0.0833764,-0.020073395,-0.13107873,0.11723799,0.1455508,-0.049995225,0.05213552,0.10908308,-0.04066825,0.09162892,0.33929968,0.023438465,-0.051216185,-0.17345715,-0.19293928
divide-polynomials-by-monomials,0.06999354,0.09436035,0.035071205,0.032052703,-0.22497414,0.23599643,0.124667086,0.21683647,-0.13072237,0.27039737,0.061538924,0.076059155,0.09273001,-0.105488226,0.063071944,-0.06274995,0.201579,-0.20439585,-0.2735538,-0.17707898,0.025852967,-0.13501373,0.009806698,-0.04440725,-0.1798552,0.13764752,-0.04004731,-0.18289088,-0.039248068,0.040058833,0.15118143,0.13486129,0.07314177,0.012928553,0.123462684,-0.124506414,0.017786693,-0.13778728,0.10949463,0.08367328,-0.10505503,-0.028736418,0.09973531,-0.07028508,0.105055824,0.39833218,-0.09952194,0.011127807,-0.16941471,-0.19445993
dividing-fractions-by-fractions-word-problems,0.00017541935,-0.0031901367,0.055387143,0.21175002,0.018622465,-0.03646304,0.18249086,0.03387032,0.06525239,-0.16029371,0.101847365,0.015532425,0.20488872,-0.05495847,-0.12029588,0.015303653,-0.023117408,-0.41458946,-0.21991137,-0.14409102,-0.18115216,-0.019714031,-0.097838655,0.19320686,0.036447927,0.27178743,-0.030463962,-0.06790922,0.19474372,-0.14673771,0.3218142,-0.027117116,0.0791077,-0.21027368,0.07729886,-0.011945211,-0.027519718,0.050646037,0.032815807,0.20806226,-0.081829354,0.023798501,-0.042722836,0.024495441,-0.121820785,0.32332224,0.03897041,-0.11575986,0.006664386,0.03515881
dividing-integers,0.29430878,-0.22388664,-0.28283355,0.10329511,-0.038760602,-0.19183493,0.18845257,0.06429368,0.15785247,-0.10769402,0.04849971,0.112470455,-0.14476849,0.005259964,-0.078609414,0.18477248,-0.22990711,0.2200594,0.0068163523,0.039423667,0.09857165,-0.18021248,0.08132796,0.093000606,0.20847553,-0.10372916,-0.124425925,0.0996728,0.057121515,0.12996389,-0.0036412014,0.16358568,0.031251397,0.08379661,0.13853624,0.24746488,0.23879541,0.04743609,-0.01691224,-0.022021497,-0.13078228,0.1473523,-0.030164728,0.05626508,-0.056027506,0.12802626,0.2674713,0.019292308,-0.06156871,-0.0911732
dividing-mixed-numbers,0.18113102,-0.1013053,-0.27178794,0.06489475,-0.057651326,0.011217147,0.1674316,0.056838218,0.21781361,-0.011724405,0.04827697,0.029588636,-0.031096602,-0.08852191,-0.1818892,-0.16864155,0.11200082,-0.0888706,-0.21818012,0.018076979,0.056527294,-0.057028495,-0.07090098,0.07965306,0.29961243,0.100313365,-0.23885557,0.0045614657,0.19911772,-0.1977109,0.32895157,-0.18691014,0.0827762,-0.082757205,0.18553196,0.0463546,0.08442361,-0.19758411,0.22007792,0.15635332,-0.063028075,0.058810767,-0.06583012,-0.015216328,-0.0021065928,0.15904616,0.17090453,-0.0789295,0.12603253,-0.01041206
dividing-polynomials-with-remainders,0.14254706,0.1389141,0.039424557,-0.013507066,-0.21520208,0.28821966,0.082584925,0.27549273,-0.11092996,0.25980696,0.061356507,0.08334084,0.06977974,-0.077440485,0.05587428,-0.07637519,0.16395755,-0.20710367,-0.2651864,-0.14122339,0.043725133,-0.113237746,-0.030923963,-0.06204853,-0.17882478,0.15214685,-0.0090281945,-0.118841134,-0.060302813,0.010219473,0.18637812,0.13552234,0.062099688,0.026936093,0.13731387,-0.11547655,0.0029205582,-0.11990583,0.118112616,0.11983533,-0.083638996,0.018741716,0.079566,-0.0935112,0.11681552,0.38208398,-0.12423551,-0.058280263,-0.12169894,-0.18784498
dividing_decimals_0.5,-0.042600937,-0.042574335,0.03486756,-0.035951827,0.14893694,0.21535265,-0.0053974437,-0.02847118,-0.0077460515,0.21619041,-0.009932019,-0.18847135,0.1275826,0.080165215,-0.27388215,-0.24278887,0.0981022,0.1001626,-0.18831156,0.026218602,0.04822885,-0.16040173,-0.26040515,-0.007236964,0.03968466,0.15441573,-0.1692973,-0.035084188,-0.048528165,-0.25745547,0.104847565,-0.22529669,0.25316074,0.012360655,0.089306474,-0.0035439967,0.06831085,-0.091247655,0.010046442,0.28988445,-0.061147653,0.03853926,-0.15342423,-0.21602647,-0.054853313,-0.15191072,0.16728176,0.06659587,0.15755932,0.1408669
dividing_decimals_1,-0.06509153,-0.16900857,-0.04431949,0.16245505,0.110832684,0.07139546,0.024104161,-0.03439207,-0.04717176,0.21916379,0.030586386,-0.23393165,0.022594856,0.071745045,-0.28823927,-0.29417643,0.15610768,0.07093358,-0.2068124,0.08123048,0.07338125,-0.08565761,-0.1585169,-0.026482835,0.11221873,0.1883514,-0.31076255,-0.104882546,0.011175222,-0.10530267,0.11692384,-0.22321668,0.21775444,0.0120504955,0.12406674,-0.015869815,0.06441352,-0.03716168,0.015823245,0.3151208,-0.0765845,0.012157202,-0.078154534,-0.16743566,-0.04259276,-0.058890656,0.17674159,0.15589975,0.090923965,0.115283385
dividing_decimals_2,-0.038981225,-0.14639898,-0.017370742,0.15480489,0.113771215,0.10142563,0.07839098,-0.018673755,-0.018663293,0.16472936,0.040911008,-0.20275,0.041557483,0.05467704,-0.27978137,-0.30359253,0.14289697,0.0459827,-0.20980664,0.0546372,0.11168664,-0.11688593,-0.23460974,-0.0044719973,0.11769503,0.20911957,-0.267013,-0.08613616,0.030852817,-0.117677644,0.13763882,-0.17428164,0.2073084,0.025774442,0.12523298,0.003369954,0.051883478,-0.06507366,0.03548024,0.36583164,-0.034157805,0.07961953,-0.0469638,-0.12917177,-0.10379735,-0.10949705,0.20042491,0.0580365,0.14386863,0.10828121
dividing_decimals_3,-0.02180363,-0.0951995,0.0025549359,0.03242399,0.05778687,0.13601577,0.07686573,-0.007630703,-0.09752783,0.260919,0.05005948,-0.12033249,0.04601982,0.107784495,-0.27577052,-0.37507898,0.18629,0.07502612,-0.18219218,0.041795798,0.1373678,-0.1830711,-0.16271082,-0.015723351,0.0029162795,0.19510865,-0.26151392,-0.073965184,-0.036948618,-0.10883992,0.07560373,-0.2177829,0.2908239,0.06680229,0.12076677,-0.0058723795,0.024990566,-0.048173223,0.004753585,0.31424344,-0.073153526,0.05320271,-0.054597616,-0.20055269,-0.05583934,-0.09209586,0.10509835,0.103330836,0.08292658,0.08317575
dividing_fractions_1.5,0.11884825,-0.12259893,-0.14884037,-0.016797869,-0.03363433,0.012714528,0.18017635,0.04051686,0.21177642,-0.06822312,0.04459019,-0.062536694,0.03206599,-0.041266218,-0.09904541,-0.1760018,0.20255034,-0.1549013,-0.21803667,-0.06712702,-0.02241166,-0.102834955,-0.08088512,0.058491163,0.22854418,0.1282891,-0.22515355,0.13335945,0.11762086,-0.21884121,0.30752945,-0.31211725,0.100367755,-0.07065998,0.1820749,0.048784163,-0.01775761,-0.042028215,0.27421114,0.23456411,-0.016585557,0.0068616713,-0.030043479,0.028470013,-0.010298732,0.092807695,0.22622183,-0.15353146,0.1252838,0.03169978
dividing_fractions_2,0.12709147,-0.19004753,-0.10955692,0.14516468,0.0724599,-0.05402539,0.20729026,-0.105231225,0.16739322,-0.20556276,0.05885181,0.02927526,0.0723853,-0.05872133,-0.11762735,-0.11459989,-0.017684592,-0.061770122,-0.21062115,-0.045809146,-0.08391353,-0.04983546,-0.14528503,0.18101494,0.26388592,0.14714064,-0.24332613,-0.043141257,0.17403682,-0.12083754,0.24209668,-0.12422966,0.11732773,-0.05813811,0.100047246,0.04647314,0.007141914,-0.13132499,0.04977403,0.24971741,-0.033821836,0.036454406,0.102221236,0.18082087,-0.21560757,0.06055324,0.33206937,-0.06734289,0.18050937,0.04798486
drawing-polygons-2,-0.17041405,-0.18753932,-0.12332589,0.091366045,0.26962486,-0.076781005,-0.058418885,-0.13666756,0.08929284,-0.22032069,0.07051005,0.057904936,0.13339856,-0.003272206,0.1375112,-0.0025232236,-0.13899945,-0.31558734,0.11040612,0.012911433,0.077040754,-0.007941573,0.013090126,-0.20618184,0.25452557,0.37631375,0.20148347,-0.10628362,0.1210814,0.03572899,-0.24282652,0.041100446,0.041749828,-0.04259929,-0.053860623,0.0004890839,-0.25458616,-0.21350579,-0.029114822,0.025536973,0.010050384,0.043898225,0.030897718,-0.09094594,0.06035107,-0.04214531,0.09067199,-0.22113368,0.050884735,0.020361627
equations-in-one-variable-1,0.07328785,0.20976828,0.23089422,-0.08873263,-0.113690495,0.06967091,0.16641206,0.14938083,0.015379153,-0.09357302,0.021874597,0.06899484,0.16624597,-0.17727856,0.050858293,-0.122659475,0.20094542,-0.449501,0.1000706,-0.28837422,-0.053763155,0.028164176,-0.25184017,0.084396,-0.050864037,0.05503049,0.0319581,0.08529826,0.007841356,-0.18902153,0.13448894,0.018692268,-0.022696028,-0.037427947,0.1793946,0.10033469,-0.19977735,0.0061789,0.017973922,0.10367573,0.15790385,0.024014605,0.24517567,0.23244141,0.10417504,-0.0121558765,-0.035339523,0.0014934649,0.03801205,0.06494719
equations-of-lines-of-best-fit-to-make-predictions,-0.12944736,-0.03284957,-0.10898477,0.06796246,-0.017455824,0.034826778,-0.03489476,-0.09364065,0.013242292,-0.0087629035,-0.17510267,0.13219695,0.20664032,-0.05096569,-0.19035608,0.065693215,0.07258637,-0.031398576,-0.12022539,0.20057502,0.19807597,0.11667543,-0.23806103,-0.057596974,0.1691283,-0.024855,0.07787263,0.099663034,-0.016661735,-0.02003881,-0.35731542,-0.1713959,-0.2383057,0.15713798,-0.17562157,-0.13067594,0.04647758,0.030444782,-0.19491062,0.09655267,-0.05926662,0.147902,0.051319867,-0.15409255,-0.097777285,0.007829267,-0.36328626,-0.13709857,0.2219319,0.044557076
equations-w-square-and-cube-roots,0.20112996,-0.032684844,0.08860753,-0.20006151,-0.13886636,-0.13309225,0.24985635,0.20174637,0.17405625,-0.12891778,-0.17199612,0.25052932,0.015974423,-0.2852431,-0.05886682,0.027984314,-0.21184845,-0.013104253,0.264104,-0.06662754,0.1642495,-0.13363595,-0.25168154,-0.041937348,0.0374916,-0.10544727,0.031704295,0.01204623,-0.16501276,-0.03737581,0.010443197,0.16955781,-0.046677686,0.1269385,0.07773371,0.20399567,0.07900862,0.061587337,-0.26633203,-0.027685689,0.11327986,0.021691656,0.037187472,0.14398551,0.13941844,-0.061423786,0.13787885,0.010526911,-0.035841785,-0.13522962
equiv-expressions-w-neg-and-dist,0.26387084,-0.27247792,-0.06623149,-0.10050926,0.10031486,-0.009255265,0.2146227,-0.069835745,0.15696222,-0.19219647,-0.12146507,0.19631435,0.08769108,-0.062202197,-0.108589865,0.021900287,-0.24445309,0.14246538,0.023627779,-0.18981574,0.05764292,-0.2733865,-0.10070175,0.17440066,0.059189245,-0.17449503,-0.07855151,0.17123713,-0.07051768,0.052442387,0.08096177,0.0961011,0.0031671892,0.18714245,0.13291267,0.30522624,0.0983675,0.06987796,-0.10844754,0.113046296,-0.043666176,0.2225316,-0.02879239,0.118186906,0.038825657,0.019806134,0.14401041,0.08973812,-0.16877462,0.057188768
exploring-rigid-transformations-and-congruence,0.15333597,0.0064291894,-0.028116891,-0.014229485,-0.1259456,-0.25003496,0.19867323,0.017353158,0.12807642,-0.19575815,0.0034528184,0.4575846,0.037619527,-0.07110642,0.15130728,0.08171031,-0.032972656,-0.13500726,-0.06328384,-0.18492551,0.070276916,-0.11297773,-0.100858554,0.2170616,-0.0098457,0.019866345,0.14718083,-0.23870735,-0.11078442,0.011132885,-0.06394021,0.2719992,-0.002314754,0.105930716,0.019451348,0.17859057,-0.11861211,-0.042535167,-0.12184911,-0.052291732,0.1077979,-0.009824843,0.18528464,0.23759773,-0.13095869,0.013840272,0.04225288,-0.12269293,-0.12275726,-0.16223073
exponent_rules,0.19832331,-0.19956724,-0.14782001,-0.10901064,-0.16484316,0.0337258,0.07055414,0.1280182,0.21373735,0.14156477,0.097307555,0.09288351,-0.33558482,0.0077143395,-0.13107072,-0.008146045,-0.12585282,0.31947988,-0.051039103,0.21002346,-0.09201455,0.24848564,-0.06778538,0.06690663,-0.09388101,0.06434978,-0.063647635,-0.05703053,-0.22700644,0.07280247,0.055905774,0.20516388,-0.062133566,0.007065367,0.11431328,0.25262144,0.058620606,0.114015594,-0.045050137,0.062242117,0.016726257,0.038346753,-0.09753727,-0.08540493,0.2324461,-0.10828613,0.21873869,-0.09133116,0.09617427,-0.0677276
exponents-with-negative-fractional-bases,0.18178432,-0.16667512,-0.035555862,0.031961184,-0.104024105,0.051731247,0.20177026,-0.026794275,0.20999157,0.049056035,0.16015776,0.27132723,-0.2528703,-0.12550128,-0.33305818,-0.2223622,-0.021072846,0.14755733,0.048144028,0.23096575,0.27059454,0.12917215,-0.149484,-0.007921039,-0.20689371,0.05263182,-0.1350113,-0.059838235,-0.08266769,0.060055528,0.1109038,-0.0015582845,-0.18445306,-0.0014152342,-0.098060496,0.21601339,0.04944078,0.023536151,-0.11688929,0.1253968,-0.12239567,0.038990058,-0.13393457,-0.016507015,0.124324776,-0.09912593,-0.032137416,-0.04885039,0.11252817,-0.13052493
exponents_1,0.14823803,-0.20546772,0.025570398,0.041341867,-0.13839874,-0.22447462,0.13163622,0.073393136,-0.060425524,-0.018346129,-0.049632784,0.19648445,-0.3032472,0.23480785,-0.12793534,0.034368,0.001248696,0.24932791,0.21391025,0.0862526,-0.11552304,0.21402046,-0.097605154,-0.00437338,-0.051626615,0.22646934,-0.13990109,0.06131823,-0.12707321,0.10279512,0.002727349,-0.04689778,0.09151679,0.06264204,0.09884472,-0.060290575,0.16071802,0.09073282,-0.01818129,0.23252372,0.0042742533,-0.14393231,-0.007923668,-0.084949315,-0.035119697,-0.28510186,0.28070605,-0.0038953964,0.19301607,-0.02144262
exponents_1.5,0.2806459,-0.19976923,-0.0040365783,-0.09283093,-0.15581726,-0.095259406,0.16059901,0.16133083,0.11716275,-0.060258057,-0.05363831,0.2299249,-0.29475975,0.056108113,-0.1151912,0.034590337,-0.026842874,0.28284892,-0.002334127,0.18223184,-0.112978734,0.18072188,0.007826531,0.08327386,-0.034344256,0.007667845,-0.02722525,0.042619344,-0.18087365,0.028276043,0.17781965,0.14082934,-0.02548,-0.08858798,0.040766653,0.19743346,0.25454637,0.100629345,0.028242953,0.0683415,0.030886525,0.03184839,-0.060262598,-0.13982652,0.19446729,-0.15572761,0.16435947,-0.21399309,0.15665346,-0.20176496
exponents_2,0.24181569,-0.22056879,-0.044808283,-0.034944735,-0.28681248,0.031684477,0.078159034,0.050567675,0.10929293,0.017600423,0.050052006,0.18601489,-0.3171701,0.019510392,-0.12974674,-0.011805311,0.09597538,0.27249798,0.0004738351,0.13599782,0.06396311,0.2594483,-0.098925665,-0.06988407,0.029239008,0.1406242,-0.024129335,0.040327393,-0.051755257,0.0070963264,0.07088683,0.07058154,-0.031949338,0.03359988,0.022070132,0.20297767,0.24662721,-0.13889629,0.10836863,0.1472631,0.094107494,0.073732086,-0.031220865,-0.039085276,0.17154932,-0.29456845,0.10304868,-0.2072912,0.16822799,-0.18580271
expressions_with_unknown_variables,0.06582517,0.059774835,0.03987066,-0.014150484,-0.14474143,0.24011274,-0.10021802,0.2194742,-0.09326521,0.28079107,0.080383785,0.23419727,-0.0048022512,0.11989385,-0.16008775,-0.04241812,-0.0715546,0.16588779,-0.039237667,0.14587787,0.11696385,0.19805194,0.11307155,-0.10076107,-0.12713812,0.13321239,-0.061972816,-0.18113138,-0.07293483,-0.17197162,-0.30062908,0.2871159,0.19274145,-0.0036964335,0.17308812,-0.0993291,0.10097118,-0.1934335,-0.096285775,-0.17210747,0.055585958,-0.07336915,0.037177518,-0.03390819,0.014068552,0.039576333,-0.10407153,-0.16651422,-0.023171546,-0.19464451
factoring-monomials,0.031093368,0.16836423,0.14528619,-0.048656162,-0.07329708,0.270222,-0.05090381,0.027575703,0.1634782,0.031132895,-0.06534139,0.22566423,0.17802447,-0.015422509,0.03597546,0.060445912,-0.22837934,-0.18508284,0.08995784,0.16109179,0.063906014,-0.005268782,0.121717244,0.01205363,-0.089488454,0.13982064,0.12465109,0.04146977,0.029080682,-0.22626579,0.07529844,0.1533618,0.23441738,-0.10211604,-0.2225607,-0.19057013,0.01298161,-0.019651825,-0.12663609,-0.12316765,-0.15059094,0.15741856,-0.109634325,-0.09641613,0.15766075,0.26564583,-0.29106656,-0.19672444,0.058749847,-0.07787101
factoring-perfect-squares,0.18564132,0.1309325,-0.09360041,-0.08534912,-0.16259894,0.20483193,-0.10546182,0.0071090725,-0.09890746,0.09194508,0.1716942,0.15287176,-0.04091045,0.02601896,0.032231104,-0.10636033,0.004905172,-0.18030845,-0.22230518,0.06648812,0.1468622,0.028755283,0.29554284,0.03218182,-0.15576747,0.10242412,0.10413885,-0.07987756,-0.10890027,-0.07683504,-0.035431597,0.069633715,0.29818082,-0.083056256,-0.117194705,0.055642802,0.013200398,-0.09829935,0.014018926,-0.0881882,-0.17158538,0.12921517,-0.08019481,-0.09803426,0.20666851,0.34019807,-0.28310975,-0.104678765,-0.12218578,-0.1920385
factoring-polynomials,0.109386206,0.24481602,0.023697851,-0.11857939,-0.15225165,0.2253313,-0.1822494,-0.0029012612,-0.03223653,0.072540924,0.10973035,0.07079529,-0.03510315,-0.008936837,0.093576744,-0.005620092,-0.06113562,-0.19782394,-0.07351517,0.08608815,0.07736848,-0.010981947,0.36233532,0.043461554,-0.12695463,0.1452454,0.16229185,0.019393265,-0.040691894,-0.07850132,0.04941693,0.10244968,0.27991584,-0.034489915,-0.09342563,-0.080309495,0.067030534,-0.11293018,0.019595094,-0.084049314,-0.126473,0.13036115,-0.11795008,-0.16770169,0.11336644,0.38351017,-0.32524255,-0.04373939,-0.12332202,-0.12614866
factoring_difference_of_squares_1,0.22172146,0.15343225,-0.1566552,-0.08256855,-0.063834235,0.19537221,-0.13333161,0.033956036,0.0559196,-0.025575593,0.11471804,0.15739858,0.022925872,-0.08164834,0.10201943,0.12794387,-0.18742406,-0.10711696,-0.17316654,0.04323145,0.016579593,-0.09377391,0.29818067,0.043748975,-0.040983234,0.16174033,0.12774974,-0.0012194515,-0.06527369,-0.0633619,0.019014508,0.09165284,0.3014473,0.038062498,-0.1111915,-0.0064234477,0.11378106,-0.121458255,0.0053226184,-0.122520074,-0.22738855,0.19295332,-0.08809841,-0.118869685,0.06721961,0.41605315,-0.15652403,-0.11344707,-0.15567523,-0.14837794
factoring_difference_of_squares_2,0.22691102,0.18525353,-0.15919264,-0.075060524,-0.0526248,0.18340322,-0.09663805,0.020102197,0.020787882,-0.018654462,0.13329281,0.14652811,0.011827058,-0.09034087,0.14845064,0.11166226,-0.16366109,-0.15142371,-0.17338757,0.046537783,0.0509956,-0.07646674,0.297539,0.06705459,-0.025954155,0.12029597,0.16402122,-0.08958206,-0.08663034,-0.05205728,-0.020927133,0.13366002,0.27944767,-0.0138755,-0.1478195,0.037282515,0.12630413,-0.12093059,-0.030897446,-0.1652147,-0.21324149,0.15673462,-0.05222002,-0.09256712,0.06727087,0.40278915,-0.15841232,-0.112313025,-0.14133087,-0.16156337
factoring_difference_of_squares_3,0.2310348,0.18468831,-0.15591888,-0.09220114,-0.07218119,0.18964288,-0.10557181,0.054524027,0.024475751,0.0060042813,0.14542958,0.14798434,-0.0049509234,-0.069967166,0.14701396,0.12283151,-0.1680684,-0.12247895,-0.15865628,0.06396538,0.049660094,-0.059571147,0.29039958,0.049942546,-0.034026545,0.12287529,0.18265559,-0.07438418,-0.08625591,-0.058861718,-0.038110346,0.1557501,0.271418,-0.014321685,-0.1358611,0.041503787,0.13990937,-0.11829777,-0.029167436,-0.17737758,-0.19996671,0.154343,-0.0789659,-0.10953046,0.0763404,0.37594247,-0.14696147,-0.13648179,-0.13698228,-0.18400228
factoring_linear_binomials,0.27019817,0.1867323,-0.16328877,-0.082950674,-0.08278604,0.17941998,-0.08893848,0.029607072,0.01766724,-0.019455165,0.14233783,0.16374327,-0.0019381462,-0.07090227,0.14961518,0.12427135,-0.16623454,-0.10907715,-0.14002685,0.040362936,0.06254459,-0.092152804,0.29288402,0.055251088,-0.04363641,0.09695221,0.16631162,-0.043408174,-0.092498496,-0.023805384,-0.021762388,0.14192718,0.2779013,0.0040929234,-0.13172099,0.05618396,0.12754509,-0.098754816,-0.04075022,-0.15602757,-0.22292304,0.16320778,-0.08110421,-0.09244611,0.04252842,0.392673,-0.1406664,-0.118350625,-0.16199562,-0.17396033
factoring_polynomials_1,0.2119545,0.16537066,-0.14077716,-0.07574707,-0.058714498,0.22031151,-0.13822989,0.06368562,0.032799993,0.035314992,0.11420557,0.13674316,0.0072220224,-0.053367615,0.07902555,0.11151726,-0.16867569,-0.110187426,-0.19639619,0.060322326,0.04393807,-0.07900237,0.2843705,0.036140956,-0.040026274,0.16512454,0.12775789,-0.028248886,-0.06622399,-0.08926941,0.00619637,0.113177285,0.28765443,0.044777326,-0.0880255,-0.017777503,0.12712117,-0.14271715,-0.0127392905,-0.14498478,-0.21273924,0.21316487,-0.0783139,-0.12861432,0.09129795,0.41003627,-0.17689422,-0.11359484,-0.1448122,-0.14666863
factoring_polynomials_2,0.20683889,0.20562539,-0.13395755,-0.0644442,-0.072557874,0.23018654,-0.109863974,0.05945894,-0.0053933845,0.061086956,0.13340877,0.13271734,0.008836701,-0.059884883,0.1309116,0.08880577,-0.12411702,-0.14670481,-0.1898075,0.079693325,0.07936161,-0.040826563,0.2783955,0.04220805,-0.062077653,0.11148977,0.16321272,-0.10616363,-0.08875025,-0.088076204,-0.04177411,0.15399903,0.25806963,-0.027764637,-0.13335915,0.023189707,0.13468169,-0.13344935,-0.036732003,-0.18470821,-0.1995288,0.15717681,-0.047802653,-0.103248805,0.102646425,0.3861263,-0.1844396,-0.1311402,-0.12224468,-0.17005658
factoring_polynomials_by_grouping_1,0.27315074,0.12890369,-0.1910439,-0.07001716,-0.0914702,0.16977517,-0.11252727,0.07405376,0.061483487,0.015948335,0.14351474,0.13966762,-0.066855,-0.049282376,0.040564053,0.12400108,-0.19187973,-0.048282128,-0.179161,0.07263501,0.036862217,-0.029865451,0.30793294,0.047201283,-0.034522966,0.15535378,0.111412056,-0.022707898,-0.07366941,-0.0593769,0.010064085,0.1130322,0.31125152,0.03620952,-0.06905014,0.033126645,0.15520053,-0.10982923,-0.0069134147,-0.1439436,-0.22582118,0.18366124,-0.08698024,-0.111740455,0.076736175,0.4033535,-0.11858292,-0.105946764,-0.15138201,-0.15978786
factoring_polynomials_with_two_variables,0.14116552,0.2506789,-0.1374782,0.056322876,-0.04809955,0.2021297,-0.18817922,0.07496407,-0.0663725,0.068094134,0.079070695,0.080039635,0.060795106,-0.002573078,0.1052808,0.06468719,-0.10804687,-0.11072994,-0.1914083,0.15396409,0.018314388,-0.014693164,0.3789872,-0.02949536,-0.11116726,0.0798332,0.07416113,-0.10839989,-0.036146138,-0.10718144,-0.075613886,0.14548716,0.2868905,-0.077574074,-0.099637054,-0.09780033,0.10672743,-0.13819054,-0.038215216,-0.1870228,-0.14579605,0.122414835,-0.012041056,-0.14998196,-0.012490578,0.40671393,-0.11847885,-0.16437106,-0.10299244,-0.120162316
factors-and-divisibility,0.22600254,0.09614075,-0.11413251,-0.081105195,-0.0185284,0.028291075,-0.064973235,0.07875356,0.02424971,-0.04038619,-0.10300061,0.19825782,0.0883864,-0.014993564,0.09628734,0.23464102,-0.3243334,-0.09264699,-0.109258994,0.12564617,0.1244348,-0.11183743,0.19833216,0.08417211,0.05196191,0.037275035,0.15302572,-0.10250449,-0.12417212,-0.057150356,-0.036108736,0.22686388,0.17718516,-0.011373287,-0.029670138,0.124511495,0.17934406,-0.028079411,-0.12589173,-0.25809458,-0.1578501,0.13777328,-0.0024673212,-0.10826796,0.08381388,0.41108298,-0.11100146,-0.1355844,-0.14620781,-0.10763134
find-missing-angles,0.040816963,-0.040274385,0.016825402,-0.29392478,-0.052018818,0.11408237,-0.046149995,-0.04636198,-0.034777403,-0.2625469,-0.21404824,0.26142225,0.13387837,-0.061611496,0.092528574,-0.071630105,0.10731217,-0.07055297,0.03472606,-0.29043803,-0.036008883,-0.09341199,0.031776994,-0.03166211,-0.12914677,-0.07373489,0.1216096,0.09004075,-0.16692528,-0.035628647,-0.20373909,-0.2087243,0.10468619,0.19006975,0.18570255,0.18924025,-0.17212011,-0.0834881,0.18012409,0.16841991,0.13055477,0.016585508,0.16498272,0.009052957,0.12350339,-0.10925371,-0.20071132,-0.14856638,-0.21897265,0.010609565
find-the-mistake-two-step-equations,0.0076933866,0.09115997,0.14606337,0.014378994,-0.20993938,-0.009410603,0.23605812,0.15881886,0.04064019,0.19719425,-0.097900614,0.12000243,-0.03658757,-0.2383317,-0.07165737,-0.21116301,0.12617965,-0.18769792,0.2209418,0.10971301,0.10513351,0.08366615,-0.32110342,-0.10117084,-0.069223136,-0.067221455,-0.090501174,-0.16038917,-0.14471379,-0.14049588,0.054880165,0.01078929,-0.05241924,-0.06641463,-0.010187052,0.008392652,0.011635786,0.054887813,-0.2776963,-0.020678462,0.094291165,-0.03802554,0.068439394,0.21528892,0.3159097,-0.07773864,0.21380511,0.041772068,0.19572641,-0.033976063
finding-special-products,0.12831393,0.1661809,-0.046646923,-0.18703786,-0.074214816,0.16936825,-0.14644152,0.061692286,-0.15597816,0.12132661,0.10114886,0.14077112,-0.057376593,0.02593822,0.025476215,-0.12866935,-0.08466032,-0.26036307,-0.17701131,0.19278374,0.13822621,-0.0068246503,0.076195344,0.014770593,-0.04905854,0.18831342,0.13863118,-0.110052675,-0.1496486,-0.10571089,0.040369675,-0.03556863,0.1412439,-0.078970134,0.005967605,-0.1679898,-0.15155911,-0.18335733,-0.115772344,-0.11686123,-0.02702977,0.027226018,-0.15434515,0.019927187,0.13132322,0.44445187,-0.22587997,-0.115763105,-0.011977401,-0.22720236
finding-the-product-of-a-monomial-and-a-polynomial,0.11340665,0.09249821,-0.07663673,-0.1723402,-0.17740864,0.14014868,-0.14301895,0.01553133,-0.13162546,0.19167607,0.09025578,0.073016524,-0.13851282,0.04154011,0.014214825,-0.08616756,-0.04219842,-0.18332583,-0.19431072,0.2510465,0.18294078,0.13022023,0.10701301,0.010779821,-0.09759382,0.15804578,0.16165279,-0.11588691,-0.19598271,-0.08389014,0.035904057,-0.031764872,0.13319291,-0.08672961,-0.01290699,-0.06982483,-0.096024066,-0.1535558,-0.067921765,-0.13584526,-0.06618656,0.0026468385,-0.15655307,0.020977888,0.26320234,0.38716316,-0.26577243,-0.09140239,-0.035703372,-0.20050336
finding-the-product-of-two-monomials,0.1689978,0.10072536,-0.034890234,-0.113696486,-0.10892687,0.09526936,-0.16528055,0.027958393,0.042552296,-0.015876925,-0.072992,0.12677306,-0.17903545,0.04526022,-0.001401192,0.09880101,-0.19193403,-0.108071,-0.029421447,0.29401705,0.16353825,0.16230914,0.041406948,-0.0089457445,-0.14634222,0.028809993,0.23692556,0.016552912,-0.23762955,-0.16978021,0.13146342,0.014453308,0.021862237,-0.12331913,0.024962444,-0.06330774,-0.116566844,-0.052313723,-0.09591503,-0.1443187,-0.017555455,0.03302201,-0.25996593,0.09092209,0.24806656,0.3851094,-0.14498772,-0.25389102,0.015982756,-0.13830969
finding_percents,-0.21418133,-0.13386284,0.16198067,0.08050943,0.15334614,0.15499572,-0.17550866,-0.124290645,-0.10208178,-0.0012601272,0.20990475,0.08886364,-0.01154632,-0.022663053,-0.12971622,0.23945399,0.038229804,0.0137854535,0.07671204,-0.13982853,-0.11777567,0.16994056,-0.13716474,0.26229048,0.107919276,0.23388496,-0.12553813,0.057154153,-0.020775553,0.20095387,0.32204503,-0.009807465,-0.18839438,-0.072857685,0.032913763,0.040925626,-0.033656906,-0.1558657,-0.11917276,-0.081798136,-0.19197595,0.004118451,0.041461185,0.057179436,-0.16708308,0.113003455,-0.0019066363,0.25357553,-0.05713721,0.21228361
fractions_on_the_number_line_3,-0.3173945,-0.15669571,0.008479846,0.032091737,0.22498074,-0.20295982,0.19830966,-0.114262156,-0.004637985,-0.07197478,0.09945826,0.018928468,0.031832553,0.1043015,-0.1522027,-0.068980075,-0.09450798,0.24901606,0.10896523,0.09487522,-0.1710308,0.028670805,-0.030525742,0.14496765,-0.04496632,0.09746297,-0.35044438,-0.17323817,0.029834844,0.16879904,-0.18144843,-0.14213476,0.106365986,0.11446124,-0.081727915,-0.16980782,0.18274878,0.16406026,-0.064099886,-0.0020729825,-0.07720625,-0.11651011,0.13170947,0.030666864,-0.2512636,-0.04061545,0.1906095,0.13735338,0.035949722,0.0021732706
frequencies-of-bivariate-data,0.1365431,0.106688485,-0.0031304853,-0.09317067,0.0066926903,-0.21556135,0.21479315,0.056625232,-0.27796525,0.015776942,-0.15009084,-0.01317976,0.090959854,0.12513788,0.061498757,0.026312105,0.15537961,-0.32839724,0.053385552,-0.26483235,-0.049019076,-0.27826425,-0.0667517,0.19718334,0.1210611,0.25786528,0.15065841,0.09803163,0.14268139,0.12211091,0.033467147,-0.12169406,-0.100082785,0.07478996,0.16870691,0.1294556,-0.076921195,0.13776094,-0.2138564,-0.040533803,-0.106425196,0.0871518,0.15768869,-0.13123828,-0.019767951,0.14441463,0.003913346,0.11055278,-0.06270695,0.11169163
graphing-proportional-relationships,-0.20201454,-0.22741945,-0.14300257,0.43595585,0.27275157,0.07486904,0.0055992925,-0.060648717,0.049984638,-0.009392853,-0.00810889,-0.061275642,0.19467254,-0.064565495,0.038500655,0.00011151319,-0.07117173,-0.19506341,-0.024806183,0.055191074,0.0042852536,0.11575843,-9.483113e-05,-0.2830175,0.2310943,0.21354592,-0.010476391,-0.12654835,0.20970753,0.026774693,-0.1628543,0.0813941,-0.019553797,-0.052830733,0.00791117,-0.22306122,-0.016973605,-0.2119292,-0.11455946,0.06969426,-0.024005521,0.11803862,0.15096031,-0.0418288,-0.049844965,0.16340049,0.077432044,-0.18879996,0.047408726,0.041684
graphing_systems_of_equations,0.054756653,-0.049596645,-0.22436391,-0.008195722,0.047303032,-0.23341168,0.1136801,0.026269795,0.051439803,-0.04654373,0.22627611,-0.014332556,-0.107112356,-0.098189585,-0.0019112234,-0.12207672,0.02170056,-0.26592404,-0.14816047,0.12636869,0.05382406,0.08075005,-0.08703928,-0.177897,0.23750615,0.49829525,-0.02465134,0.001486538,0.036748614,0.13239865,0.10118316,-0.074583136,-0.08565608,-0.08664411,-0.036028005,0.14691445,-0.07081909,-0.016775932,-0.024731487,0.15600467,-0.03988206,0.112379245,-0.12116661,-0.19734038,0.11376005,0.09783363,0.10993506,-0.23143375,0.17911205,-0.16661729
identifying-parts-of-expressions,0.20426515,-0.32575274,-0.055396274,-0.063093804,-0.21048498,-0.108823046,-0.005935786,-0.026730683,0.19895037,-0.06324001,0.036198154,0.03219671,-0.27118188,-0.10816439,-0.08956109,0.06772219,-0.19839352,0.28196156,0.024316603,-0.022439659,0.09560727,-0.099256255,0.00577428,0.073576,0.12216613,0.013946483,-0.112076856,0.09220788,-0.18081449,0.16268456,0.07231286,0.14926575,-0.05403526,0.28428707,-0.0025733742,0.33370462,0.041330382,0.14203371,-0.18207978,0.046774954,-0.15662661,0.13454962,0.090925805,-0.008184306,0.13232315,-0.08044335,-0.013475527,0.20311603,-0.079600014,-0.046270344
identifying-supplementary-complementary-vertical,0.18279299,-0.091334395,0.08158185,-0.21901631,-0.10092709,-0.016754359,0.02479993,-0.052076403,0.020583507,-0.3315883,-0.2977455,0.16059819,0.19386134,-0.12838906,0.08477051,-0.0090168035,0.083477646,-0.1756428,0.017145246,-0.30264652,0.06177223,-0.20824064,-0.109839514,0.033063184,0.18023747,-0.113090426,0.13888384,0.0896365,-0.05305442,-0.024511598,-0.012599188,-0.042882163,0.08756215,0.17656082,0.1567819,0.17962353,-0.21822473,-0.1337238,-0.038282372,0.06738462,0.20262785,0.13189065,0.23946768,0.12308502,-0.0054679597,-0.11710532,-0.0153878145,-0.056864806,-0.13259992,0.051740434
integer_sums,-0.17701544,0.06671244,0.15451452,-0.3375271,-0.0573989,0.09991372,-0.07031336,0.09849861,-0.0026255958,-0.08102234,0.21181844,0.0038051258,-0.1502044,0.073970184,-0.15035889,-0.25629315,-0.08341972,0.046727274,0.07293966,-0.09893579,-0.19507968,0.12280183,-0.07865237,0.03116848,0.16471565,-0.073920876,-0.11399434,-0.19476415,-0.16742882,0.042896982,-0.31268567,0.13981831,0.038082033,0.053421684,-0.03213901,0.013239487,-0.053811617,0.105402306,0.047273263,-0.07362814,0.21238917,0.007068495,0.29611447,0.019097924,-0.25586063,-0.13475913,-0.044409897,-0.1801328,0.123337336,-0.14769001
interpreting-expressions,-0.009961753,-0.097895555,0.08800143,-0.0731647,0.042772193,0.2870423,-0.034267254,-0.21413486,0.043884598,-0.06794558,0.09291431,-0.07319851,0.07096667,-0.2042496,-0.14666717,-0.14227429,0.03480367,-0.124331154,-0.2547864,-0.12903816,0.072790004,-0.21888988,0.20143116,0.12681508,-0.07304842,0.058095254,-0.10269457,-0.015294997,-0.028545285,-0.011547012,0.088905394,-0.11420192,0.09123817,0.17507342,0.022563038,0.18152356,-0.0029208178,-0.15742408,0.10545218,0.06550121,-0.066708595,0.18962589,0.245367,0.040121358,0.065710746,0.32131344,-0.2949496,0.17746222,-0.21334699,0.031843025
interpreting-graphs-of-linear-and-nonlinear-functions,-0.03160164,-0.12480318,0.22244333,0.004998682,-0.19317463,-0.05308991,0.043993402,0.011970873,-0.017369376,0.125536,0.0038793636,0.12296308,-0.038189173,-0.08672937,-0.26157665,-0.044957064,-0.22131301,-0.1957075,0.25924987,0.08842061,0.113879524,0.16265787,-0.08673584,-0.09058583,0.08288815,0.14865413,0.13804814,-0.10589682,0.0867017,0.2490012,0.10144321,0.1898618,-0.07064414,0.085241914,-0.04445944,-0.30747914,-0.05314034,-0.10419902,-0.29552183,-0.024348475,-0.081267975,-0.0131117515,0.010292891,-0.18616769,-0.07707151,0.21041241,-0.18362729,0.21366698,0.08373103,-0.0016578558
interpreting-graphs-of-proportional-relationships,0.012920031,-0.28497633,-0.07420212,0.21354373,0.18183726,-0.08960747,-0.0021152103,-0.19143166,0.13908635,-0.19105385,0.021380844,-0.10228434,0.03189514,-0.050408233,-0.06780477,0.42315805,-0.3625323,0.085324705,-0.07364644,-0.037441865,0.03470128,-0.04970212,0.0957148,-0.1799657,0.12604223,0.007308385,0.18100445,0.08019978,0.07158163,0.14093053,-0.09579887,0.15454938,-0.12809512,0.043931108,-0.062595785,-0.019245187,0.19781381,-0.02179442,-0.09265512,0.01270027,-0.22654055,0.122525595,-0.10418923,-0.15758468,-0.1172105,0.18340622,-0.06393292,0.01923993,-0.082739666,-0.012806496
interpreting-linear-graphs,-0.055110805,-0.0726205,0.08891716,0.040020153,0.099819385,0.0959824,-0.06635471,-0.06583521,0.15636775,0.06599121,0.051720254,-0.00042957734,-0.016148299,0.22270313,-0.16098289,0.08427354,-0.1468125,0.1125228,0.14056662,0.041538227,-0.27884707,0.3420698,0.015430086,0.051130906,0.14686114,-0.06670844,0.13043879,0.027010886,0.12183135,-0.16454653,-0.33097026,0.13243328,0.06774474,-0.24758978,0.030915357,-0.12583797,0.048147716,0.06340725,-0.006664665,-0.00859789,0.013702428,-0.17909923,-0.23281766,-0.16836417,-0.23917502,-0.21051814,0.13291784,-0.03855103,0.22130191,-0.015108012
interpreting-scale-drawings,-0.18111475,0.023096843,0.139101,0.021454165,0.15339448,0.12985215,-0.2832993,-0.120182835,0.22357787,-0.17271067,-0.1745507,-0.17572846,0.15585123,0.07024671,0.0486689,0.15548083,-0.060861155,-0.058871586,0.29756373,0.07538077,-0.047014806,0.18136236,-0.06892543,-0.060496382,0.14561497,-0.09613619,0.040885612,-0.12399054,-0.1737637,-0.21014078,-0.051094342,-0.0717956,0.20255262,-0.057692803,0.12118076,-0.02838229,-0.014028559,0.09047456,0.18329261,0.03510869,0.07731438,-0.23333678,-0.08487931,0.08191276,0.083654195,0.066519104,0.035853337,0.09619411,-0.26511532,0.26583266
interpreting-scatter-plots,0.33131438,0.0048271213,-0.40586308,0.13721883,0.021588935,-0.1710373,-0.109738946,-0.001495896,-0.07524415,-0.0013237016,0.042162433,0.098787785,-0.11846413,0.12003009,0.060711686,0.08747193,-0.06448321,-0.056211755,-0.07923167,-0.10981916,0.19293559,-0.15564549,0.08832144,-0.065517515,0.38328734,0.01721391,0.22788972,0.037683193,0.06783224,0.09941336,-0.0877957,0.10507369,0.06206204,0.020369822,-0.015393355,0.0429136,-0.08164607,-0.10355608,-0.24648291,-0.08324746,-0.24101555,0.14705253,-0.046465054,-0.21738544,-0.13776603,0.14754458,-0.09668183,0.036301434,-0.010420454,-0.053384274
interpreting-slope-and-y-intercept-of-lines-of-best-fit,-0.11805378,0.051745605,-0.025613427,0.35557085,0.121570915,-0.038801633,-0.07077233,-0.09839073,0.018570745,0.013650917,-0.22269358,0.07916249,0.30780736,0.04514139,0.097165674,0.3026558,0.12047241,-0.08856325,0.23397562,-0.04133613,-0.16158067,0.20321749,0.024436852,0.07733,0.0035388467,-0.064336695,0.10002713,0.012585876,0.07439964,-0.16921273,-0.2079305,0.017756278,-0.015385378,-0.14517893,0.08165581,0.005471989,0.14654148,0.088757455,-0.120899804,-0.13988523,-0.11150977,-0.16444586,0.19304188,-0.04638904,-0.1343222,-0.05888533,0.11018142,0.00044748644,0.022920642,0.34880432
line-and-angle-proofs,0.16171926,-0.1605021,0.051855758,-0.1874823,-0.17559738,-0.027403835,0.13309908,-0.11315362,0.19918779,-0.1347692,-0.11315449,0.092263825,0.060480453,-0.28502175,0.07126642,0.03269494,-0.0023894159,0.049465183,0.044848092,-0.20962474,0.027916638,-0.38027436,-0.06527239,0.059450217,-0.005268534,0.048703812,-0.0006857025,0.09044222,-0.13462079,0.09243207,0.05010791,-0.015891377,-0.060923703,0.3520337,0.100510634,0.28072405,-0.11084368,0.027699735,-0.07157943,0.08818366,0.08107558,0.0786202,0.25891662,0.08542634,-0.09504347,-0.17691804,0.19654085,-0.04070446,0.0040888265,0.16161449
linear-equation-world-problems-2,-0.11390973,0.20737302,0.24568741,-0.1858734,-0.23351033,0.16100903,0.04215955,0.11998698,0.047234442,0.1056481,0.05240062,-0.0072223023,0.24988271,-0.2839668,0.17038006,-0.015024489,0.12421359,-0.34496337,0.1712656,-0.14667904,-0.12238522,0.1104893,-0.025338253,0.0926229,-0.11617636,0.16090585,0.11090677,0.10417337,-0.022963747,-0.082969435,0.118754365,0.049646854,0.12315519,-0.034483947,0.020423107,0.050420694,0.0003962848,0.04568958,0.11994858,0.00812252,-0.045785222,-0.09708354,0.3068607,-0.019949416,0.178746,0.037489973,-0.23807272,0.11330474,-0.014096765,0.10367417
linear-models-of-bivariate-data,0.015386865,-0.058397975,-0.15628581,0.29185107,0.1114458,-0.06160173,-0.056325894,-0.17499645,0.032624982,-0.076174386,-0.2242852,0.090793006,0.2510779,0.08542203,0.05090921,0.30055344,0.032830015,-0.04864656,0.118883565,-0.08895102,-0.12867641,0.14529654,0.20850962,0.1171419,0.10787291,-0.046362497,0.116120525,0.050390627,0.17535172,-0.07765281,-0.24651812,-0.003363338,0.013212698,-0.019771187,0.08207642,8.201126e-05,0.15116447,0.04033019,-0.19847852,-0.19177417,-0.18272513,-0.022860292,0.19896363,-0.14981927,-0.23544411,0.0675208,-0.029455045,0.00851633,-0.071629256,0.30063167
linear-non-linear-functions,0.2355304,0.12609643,-0.054421417,0.035556518,-0.16128428,-0.18703878,0.042653717,0.28122666,-0.08086439,0.09008401,0.06536282,0.26962775,-0.12817016,-0.035566155,-0.20087473,-0.08330705,-0.11876415,-0.2607385,0.16587192,0.016663954,0.18640652,0.06386354,-0.24570504,-0.08659312,0.13858505,0.28160098,0.082150936,0.01123766,0.09419537,0.096112676,0.093157195,0.14300787,-0.021647211,0.13218369,0.17286298,-0.20070173,-0.07784433,-0.17105152,-0.19774407,0.09702868,0.032167256,0.11553655,0.05031025,-0.012503073,-0.07259364,0.16647203,-0.0035037473,0.11868781,0.121719845,-0.07604304
linear_equations_1,0.0678301,0.11155318,-0.038393755,0.018583573,-0.09417531,0.00087377266,0.2561254,-0.06935604,0.109753266,0.03990149,-0.047604185,0.07215952,-0.021206453,-0.18252578,-0.15390284,-0.068626575,-0.1639941,0.079054005,0.28668648,0.18035206,0.380106,0.2711017,0.021520566,0.045303497,-0.04705917,-0.15616871,-0.010179575,0.038828574,-0.00022987722,0.05117668,0.040929325,-0.053817913,0.2354397,-0.06428007,0.03096143,0.040259663,-0.02230564,-0.156458,-0.32264367,-0.078265,-0.21525909,0.18219998,0.16229707,0.27406445,0.057679683,0.07843925,-0.13212076,-0.06473898,0.07009847,0.021361714
linear_equations_2,0.071940795,0.0821823,-0.0013135856,0.03255425,-0.105337165,-0.012943859,0.2661864,-0.09935704,0.08946446,0.05382881,-0.04093854,0.05851489,-0.04299676,-0.16323695,-0.15856856,-0.06594503,-0.13896719,0.080364406,0.28902787,0.19430539,0.36017922,0.29787633,0.04366834,0.03384928,-0.05770905,-0.16085654,-0.009735713,0.031168161,-0.0031287554,0.09383058,0.05331599,-0.051189914,0.2231055,-0.07039033,0.034419004,0.048855685,-0.024456866,-0.15853846,-0.32647526,-0.08101579,-0.19944236,0.19748253,0.17306098,0.2562194,0.06652486,0.05802355,-0.124771945,-0.069532104,0.08250519,0.036675338
linear_equations_3,0.08040919,0.09472473,-0.013102282,0.015698582,-0.08509219,-0.010151833,0.2453037,-0.1093064,0.08132678,0.024784781,-0.029793192,0.0686913,-0.049973074,-0.16212875,-0.16018555,-0.072438166,-0.1497951,0.0693498,0.2594866,0.19247553,0.35700178,0.3022519,0.059671782,0.048629183,-0.036906615,-0.16256471,0.01423682,0.043715186,0.0033384901,0.09850517,0.05378766,-0.057536438,0.22992592,-0.06646806,0.029184543,0.048259974,-0.026728733,-0.17892718,-0.30352062,-0.086477235,-0.19182523,0.23254023,0.18088076,0.26356286,0.052985236,0.07459815,-0.14529583,-0.085174926,0.08077656,0.029281206
making-good-scatter-plots,0.05825762,-0.0013196005,-0.18746288,0.108967066,0.31465134,-0.12689097,-0.20314884,-0.20455995,0.03661488,-0.13771796,0.003271986,-0.010845763,0.049154386,0.16570577,-0.0016839594,0.2412908,-0.20713721,-0.10064281,0.076232344,0.0011388552,0.056769677,-0.010378925,0.02480458,-0.12623955,0.37053275,-0.01250034,0.27891237,-0.116665885,-0.0011933872,-0.021664843,-0.12468026,-0.089358374,-0.012839436,-0.1219282,-0.15492803,-0.06885501,0.0757105,-0.046025716,-0.10417608,-0.08406227,-0.15481612,-0.101982825,-0.21310107,-0.23924898,-0.21350984,0.14350884,-0.16439809,-0.086340286,0.060233872,0.019825457
making-inferences-from-random-samples,0.032420356,0.19006924,0.16113633,-0.24805215,-0.04066701,-0.057980303,0.06870372,0.023763452,-0.12761909,-0.027452229,-0.26355913,0.0800551,0.19473617,0.31058514,-0.029124882,0.17325082,0.03419603,-0.18610808,0.2613225,-0.14372236,0.015206835,-0.21512236,-0.11477278,0.0767928,0.03459705,0.09667588,0.22105874,0.08145244,0.007976642,0.06069172,0.07961575,-0.1700584,-0.017478308,0.025264848,0.0068008094,-0.049317587,-0.04681428,0.16745825,-0.18626021,-0.024429755,-0.058261774,-0.04917573,-0.15312672,-0.2661544,-0.084648274,0.20086499,-0.24546608,-0.13618414,-0.103510216,0.073583424
manipulating-linear-expressions-with-rational-coefficients,0.23169407,0.1839731,0.1250085,0.08828035,-0.12680791,0.14454564,0.022827446,-0.0388005,0.01674795,-0.10940233,0.08809814,0.2942007,0.1058872,-0.06510263,0.07383727,-0.16389978,-0.06799835,-0.27964193,0.072978966,0.22314703,-0.014171192,0.11791545,-0.05345616,0.11730002,-0.16176644,0.1313965,-0.085093446,-0.024385331,-0.05899319,-0.21974665,0.091568425,0.09760882,0.19478007,-0.11984847,-0.3258778,-0.050984703,0.043550033,-0.010475906,-0.33948627,0.00037945702,0.0007506643,0.17723536,-0.023619676,0.15860254,-0.004400999,0.10047864,0.13209745,-0.13442737,0.15411066,-0.035176247
markup_and_commission_word_problems,-0.093472496,0.0724527,0.15457691,0.16966926,-0.11045497,-0.0010759123,0.19111583,-0.025611581,-0.07424614,-0.03808159,0.037442364,0.39830595,0.19341092,-0.07056951,-0.027960481,-0.061938036,0.05434403,-0.2516192,0.07744531,-0.054852203,-0.10797345,0.20540439,0.18515776,0.091250435,-0.15837215,0.078539886,0.04371837,-0.25071952,0.13189921,-0.13633262,-0.18710603,0.16961758,0.15122102,-0.21740174,-0.117691614,-0.0641242,0.04773702,-0.051529635,-0.035950083,-0.220345,-0.00468552,-0.12779167,0.195579,0.16544549,0.04549664,0.1479038,-0.14598432,-0.11297533,-0.07823338,-0.11586755
mean_median_and_mode,-0.06768836,0.11655452,0.09727718,-0.25277564,-0.1452759,-0.32366005,0.12583515,0.17546992,-0.08217194,-0.034147117,0.20705193,-0.020054176,-0.18207212,0.10523019,0.010680992,0.057002198,0.042674392,-0.20128529,0.27276418,0.09819399,0.046538893,0.18882577,0.12507753,0.042879373,0.1520853,0.07505768,-0.021610161,0.2154798,-0.015734242,0.19756368,-0.08831007,0.009698535,0.0052708085,-0.0462297,-0.13731128,-0.06754283,0.19621111,0.359391,0.14992428,-0.07369345,-0.05469993,-0.110787965,-0.022767073,-0.11959876,0.115322374,0.03503671,-0.10004509,0.23420058,0.04456179,0.009216736
more-square-and-cube-root-problems,0.16949296,-0.0067018913,0.05580632,-0.08583077,-0.22027384,-0.08676184,0.12842873,0.16284645,0.2909708,-0.108194724,-0.0025583408,0.13133974,-0.100506485,-0.20721196,-0.0006549212,0.17965473,-0.06778249,0.08814335,0.24574502,-0.04122769,0.1502754,0.038517665,-0.26367262,0.012787612,0.045913648,-0.036480937,0.15960585,0.14259978,0.049297914,-0.1146309,0.13050675,0.29764155,-0.25569972,0.03134914,0.052978758,0.31479266,0.115184955,-0.030609,-0.08006933,-0.051690016,0.0826958,0.072543055,-0.029881729,0.08178076,0.10935236,-0.28079918,0.07721827,-0.05454336,0.06314567,-0.095544405
multiply-and-divide-rational-numbers,0.105363,-0.11816677,-0.11621422,0.024171716,-0.07310431,0.020698922,0.019647116,0.18366413,0.13594694,-0.01882664,0.020529173,0.061752558,-0.051357515,0.047268692,-0.15006867,-0.07957324,0.075002104,-0.07249973,-0.12410242,-0.1405394,0.009908963,-0.20885612,0.0124962125,0.09078201,0.44780797,0.14932483,-0.056275766,-0.06838941,0.17950453,-0.151712,0.10123802,-0.030180119,0.23801033,-0.015369748,0.27572894,-0.041593015,0.01322944,-0.20812924,0.2790972,0.104215525,0.095150806,-0.03243753,0.03577405,-0.098984495,-0.27104115,-0.018976875,0.2474291,-0.18920796,0.099890225,-0.006255391
multiplying_and_dividing_negative_numbers,0.036254838,-0.10727694,-0.0782497,0.052723266,0.016999895,0.10894573,0.0016075107,0.049831733,-0.04959886,0.23623477,0.034167364,-0.13531613,-0.10239162,0.08386319,-0.34399065,-0.37337044,0.08077927,0.21599232,-0.134174,0.15022598,0.12580691,-0.05529078,-0.103618264,0.018626636,0.08202787,0.17844011,-0.30200028,-0.0990854,-0.046015665,-0.06875503,0.038108055,-0.1055922,0.28873095,0.041830324,0.14800285,0.036651384,0.11907635,-0.002496994,0.011624879,0.28341022,-0.048509,0.07613514,-0.11878329,-0.1977602,-0.034034993,-0.12251206,0.17099263,0.09450698,0.09349395,-0.020647481
multiplying_and_dividing_scientific_notation,0.1316968,-0.12944071,-0.2918539,0.13014762,0.016683703,-0.049072135,-0.023514898,0.003648761,0.042635903,0.15479277,0.1170151,-0.1541326,-0.38585573,0.024449302,-0.21292621,-0.09659349,0.11426422,0.18932292,-0.23632424,0.12463955,0.09734301,0.19190502,-0.090001665,0.04813842,0.3593452,0.12044847,-0.20380862,-0.20027044,-0.066522,0.018426545,0.08280097,0.013959722,-0.0043760673,0.051030286,0.18748896,0.08852322,0.20883985,-0.14504874,0.15547876,0.056371726,0.03535343,0.053256888,-0.0023773897,0.039853863,0.07473055,0.0100282775,0.09204493,0.13530515,0.027243212,-0.05046024
multiplying_decimals,0.020401638,-0.01656415,-0.10332512,0.05214193,0.005951037,0.13090184,-0.10903461,0.037803072,-0.10770723,0.26169443,0.020260941,-0.1126331,-0.11963396,0.03633792,-0.28203675,-0.41763756,0.04729093,0.22297272,-0.034969453,0.18865739,0.15311746,-0.0279605,-0.011836087,-0.02120142,0.052408043,0.15421577,-0.29218176,-0.15250537,-0.12697499,-0.005545931,-0.10129844,-0.012930414,0.28814006,0.014124009,0.098554626,0.08469555,0.12870568,0.07184303,0.020363081,0.21867336,-0.06874826,0.058967702,-0.1548814,-0.23138674,0.057271972,-0.1587905,0.09249115,0.115551725,0.029486433,-0.10124538
multiplying_decimals_0.5,-0.016267784,-0.08999859,-0.123590484,0.17978694,0.08016708,0.077174544,-0.102107696,0.023482144,-0.0404778,0.18255384,0.008598549,-0.21423908,-0.11552917,0.009291446,-0.30481866,-0.34977078,0.030742573,0.18093996,-0.07563583,0.18388106,0.11326916,0.03225147,-0.09158498,-0.024578957,0.17232816,0.18898886,-0.310704,-0.1625661,-0.046393342,-0.030731857,-0.012311516,-0.032113865,0.21677393,-0.032337468,0.123933405,0.0819734,0.15022412,0.04906551,0.056082193,0.29675433,-0.04167703,0.050373163,-0.15789255,-0.18309855,0.020012435,-0.15267657,0.17606376,0.09945846,0.07812479,-0.05082427
multiplying_decimals_1,-0.010127634,-0.03620945,-0.11869725,0.083625846,0.027030934,0.09813495,-0.12349344,0.03321481,-0.095082656,0.22661309,0.00899726,-0.1339911,-0.11831396,0.05062589,-0.28095546,-0.40590927,0.060367305,0.21618918,-0.044406865,0.1852383,0.13110152,-0.0121193705,0.0009713737,-0.042503294,0.063700356,0.17463753,-0.28891763,-0.15915574,-0.10495642,-0.01412721,-0.09806547,-0.056610897,0.2869964,-0.019075355,0.097500965,0.09580684,0.114778966,0.085926175,0.052940853,0.2530422,-0.065322794,0.025274608,-0.1727675,-0.24696884,0.06066934,-0.16095474,0.07770483,0.077209316,0.018957838,-0.11132701
multiplying_expressions_0.5,0.027406901,0.16158807,0.008208089,-0.10071373,-0.055788405,0.3330145,-0.22072108,0.11782186,-0.033797882,0.19451232,0.02809595,0.0015521649,0.046135604,-0.06442645,-0.053384975,-0.021978116,0.027706908,-0.09766625,-0.33380842,0.1533228,0.09157385,0.017864225,0.13151798,0.0062219547,-0.08495648,0.101622425,0.032273665,-0.06326494,-0.104392014,-0.20269275,0.084669404,0.063817196,0.1339999,0.057934813,0.013788402,-0.06739287,0.06801978,-0.25803635,0.035449363,-0.15173033,-0.054175295,0.26778302,0.017374936,-0.076376185,0.2591481,0.3470536,-0.25674695,-0.071228765,-0.08536923,-0.10791301
multiplying_expressions_1,-0.03615678,0.1826007,0.12872323,-0.06953463,0.012189192,0.31287122,-0.0728188,0.18817306,-0.10070143,0.31884024,0.08524507,0.051581092,0.1007994,0.0028112282,-0.0155753475,-0.1359227,0.022656756,-0.13356465,-0.18935333,0.14362413,0.086920895,0.053743705,0.10688553,0.014601777,-0.12771265,0.05061751,0.04438874,-0.25818762,-0.08521278,-0.23484997,-0.12088313,0.2663957,0.10812653,-0.053701196,0.0030805462,-0.04061889,0.11027429,-0.19083571,-0.12184528,-0.2807329,0.039856646,0.13461626,0.099678345,-0.054580156,0.21162802,0.16386402,-0.16087711,-0.10826319,-0.016510827,-0.14683053
multiplying_polynomials,0.16774738,0.21236312,0.090540424,-0.06369618,-0.24221075,0.1833573,-0.035714563,0.06435352,-0.02933345,0.06231834,0.047104567,0.1672129,-0.008989984,-0.033023383,0.08999817,-0.08991916,0.077654295,-0.3221751,-0.040581234,0.18570863,0.009310554,0.17242056,0.05538176,-0.08980113,-0.19067614,0.098181546,0.16015406,-0.014459506,-0.03505075,-0.092870876,0.20146725,0.06070356,-0.01848292,-0.22247052,-0.21496263,-0.01367799,-0.012095575,-0.07230397,-0.06487122,-0.061099257,0.022823788,0.12960595,-0.13483275,-0.110036194,0.22472888,0.24055958,-0.15765762,-0.3320188,0.11790175,-0.19265546
multistep-equations-without-variables,0.14599347,-0.032978486,0.08009499,0.3233054,-0.12703079,-0.033047628,0.27744153,-0.071719535,-0.007745658,-0.05013546,0.043803297,0.16669331,0.13199095,0.040607307,-0.05266665,0.0733009,-0.016182428,-0.4078773,0.10282266,-0.09163133,0.039869737,0.046184212,0.049072698,0.117586896,-0.0051243026,0.31244814,0.17550752,-0.07540575,0.26937124,-0.058542654,0.06557332,0.07863532,0.11630811,-0.1959246,-0.05943689,0.08543707,-0.10213243,0.050288763,-0.19734406,-0.006287029,-0.24632762,-0.008286615,0.12584761,0.062496677,0.003968098,0.19769974,-0.1336686,-0.106011085,-0.010390624,0.13474861
multistep_equations_with_distribution,-0.08727911,0.13163272,-0.16668315,0.076456,0.03166465,0.040108185,0.21322662,0.051196635,-0.007721716,0.17017373,0.14245571,0.20701,-0.107607916,0.031838525,-0.23903055,-0.23562174,-0.05113197,-0.0054329718,0.055054616,0.16939719,0.43348235,0.0033384578,-0.0982685,0.07202448,-0.103450105,-0.05327581,-0.17764452,-0.29053247,-0.04900659,-0.015718183,-0.12881993,-0.0043661785,0.16698761,-0.08342724,0.029794998,0.041826244,-0.08309271,-0.18559387,-0.09087264,0.030973112,-0.22385375,0.020920314,0.0009900698,0.14396855,0.11192572,0.2043603,-0.18752232,0.060668465,0.01821603,-0.18606997
negative-number-word-problems-1,-0.052282687,-0.13483399,0.2073965,0.11606606,-0.004497287,0.22819082,0.018532194,0.20086475,0.1912016,-0.011575013,0.003518764,0.066806115,0.16980481,-0.082586884,-0.26794752,-0.088254936,0.07417251,-0.09535554,0.040682863,-0.1444867,-0.17962545,-0.030899798,-0.0449462,0.047417503,0.11623354,-0.013250531,-0.01888934,0.055678237,0.28719336,-0.22214344,-0.13471013,0.15145877,-0.016080117,0.036053088,0.38787043,-0.021799183,-0.049635924,-0.09969506,0.07259199,-0.0021084559,0.27910587,0.095051534,0.2424021,0.094677515,-0.23799391,-0.021254597,0.12528908,-0.09688922,-0.040968884,-0.008641941
negative-signs-in-numerators-and-denominators,0.27653462,-0.300675,-0.12331272,-0.02431633,-0.010766649,-0.13377205,0.17537482,0.0008841008,0.22104889,-0.17822626,-0.08503206,0.058875423,-0.11012782,-0.092072435,-0.11870059,0.13645896,-0.20993863,0.2111077,-0.033259682,-0.007751822,0.0024762754,-0.17098135,0.05121133,0.1810417,0.1522322,-0.15703455,-0.14072943,0.16543096,-0.004660188,0.07303194,0.13698128,0.09708296,-0.036327798,0.13883726,0.16650888,0.32329977,0.18837976,0.089509554,-0.056114275,-0.010261084,-0.0420932,0.2118059,0.016526468,0.07878297,0.035824668,0.0773673,0.26638132,0.07050555,-0.070494264,0.006442304
number_line_3,-0.34602705,0.0039348085,-0.13920173,0.081294484,0.2990148,-0.17850457,-0.08386041,-0.025590876,-0.054776523,-0.23994513,0.075538546,0.02740022,0.16020721,0.07670096,-0.11673545,0.054095387,-0.22937857,0.21690804,0.11602328,-0.087450005,-0.1630186,-0.008543951,-0.012592681,-0.009352786,0.028387845,0.262513,-0.2113031,-0.18852997,-0.0015205644,0.13331501,-0.21181308,0.028679313,0.19540982,0.010616673,-0.107774146,-0.1608996,-0.014987081,0.16525044,0.04706906,-0.011639348,-0.16469331,-0.17677236,-0.008442419,-0.049747955,-0.20662433,0.11755531,0.10192687,0.0112802405,-0.090828165,-0.085122295
one-step-add-sub-equations-2,-0.00585303,0.20993085,-0.092299186,-0.0428001,-0.1412745,0.087788545,0.19359551,0.1372544,0.10365219,0.27537882,-0.018368123,-0.1845054,0.23476164,-0.16557068,0.13339806,-0.030606894,-0.07637258,0.03454811,0.18743168,-0.0066271,0.16437104,-0.0034899258,-0.17518201,-0.020949308,-0.020164302,-0.19708686,-0.09658878,-0.07919008,-0.06456173,-0.15762657,0.028273173,0.13082556,0.1750546,-0.1353846,0.03174974,0.10178403,0.05230569,0.024503293,-0.43343714,-0.13806503,-0.14780343,-0.022500532,-0.012436522,0.25704446,0.15421838,0.094163544,0.17203689,0.051032893,-0.09264636,-0.067727804
one-step-mult-div-equations-2,-0.0031804023,0.0858661,0.013486384,0.004156054,-0.15039206,0.05758446,0.25547275,0.09851917,0.14434958,0.23587419,-0.13367186,-0.2380255,0.1977253,-0.1447749,0.07185912,-0.067449324,0.008245613,0.00037433117,0.28356898,-0.042077944,0.14198425,0.05566864,-0.19253352,0.005612726,0.0003409112,-0.2645551,-0.13076799,-0.014109375,-0.028552838,-0.1366606,0.17703569,0.041073706,0.14315651,-0.15041532,0.13387208,0.14611436,-0.006308907,0.035817664,-0.37146053,-0.052567393,-0.07085974,-0.020595793,0.04862845,0.2644905,0.18349765,0.0146744335,0.21311577,0.04473491,-0.0357778,0.059306663
one_step_equations,-0.06297078,0.09516666,-0.044607095,0.12465234,0.10115806,0.020168802,0.31203854,-0.0013004796,0.011168283,0.25038227,0.12003502,0.026434528,-0.056358043,-0.004928876,-0.28214198,-0.05105471,-0.1443078,0.08799658,0.09807001,0.085009366,0.34376293,0.052970875,-0.17334257,0.08331748,-0.08403373,-0.091091834,-0.115837194,-0.3239498,-0.06334239,0.014969781,-0.0301689,0.1346932,0.10107348,-0.1253702,0.039411776,0.031942077,0.022302639,-0.15299758,-0.33541426,-0.11370121,-0.23806207,0.0051136026,0.0035163877,0.20345542,0.03523357,0.17596677,-0.014215994,0.15215927,-0.010761791,-0.07803667
ordering-rational-numbers,0.06233931,0.10800584,0.1722238,-0.3269121,-0.031744014,-0.09555735,0.007515495,0.18546118,-0.14278771,0.24130829,0.17863347,-0.19276765,-0.15653127,0.07945723,-0.1107893,-0.16930564,0.050623078,-0.012007841,0.24400271,0.21760496,0.001191985,0.024015421,-0.036161307,0.06599434,0.15885004,0.093426704,0.029225565,-0.049494248,0.049033873,0.2754974,0.1774879,-0.055615757,-0.12852806,-0.07332186,0.05660131,-0.026267821,0.034779854,0.044668652,-0.0063521443,-0.08939942,0.11117898,-0.23674637,0.05783035,-0.2492642,-0.17515832,-0.078819655,0.14256822,0.16298442,0.2436258,0.0619092
orders-of-magnitude,0.06710403,-0.12341959,-0.010140232,0.053977918,0.0013254465,-0.020460127,0.111596726,0.22437987,0.19141193,0.1385994,0.02283043,0.14893661,-0.19721787,0.14071777,-0.28817752,-0.017539982,-0.15656726,0.24478608,-0.056518182,0.19539519,-0.16927539,0.10939343,-0.17138709,0.09359933,0.118909925,0.258925,-0.14768079,-0.0020890574,0.022056274,-0.061594646,0.09301549,0.12935786,0.026606707,-0.08312332,0.13311057,-0.07397449,0.11575331,0.16558148,0.028589644,0.16040051,0.021407116,0.03755252,-0.20805897,-0.14913501,-0.034362804,-0.09892735,0.24457648,-0.18886845,0.25924397,-0.13026826
parallel_lines_1,0.08756498,0.12253836,0.010837887,-0.18982527,-0.13387777,0.06411269,-0.08163107,-0.020085283,-0.035600122,-0.24355917,-0.18112819,0.33091116,0.14709727,-0.009775178,0.07192914,0.07489767,0.078677855,0.0900904,0.18207808,-0.26876524,-0.15910834,-0.0719137,0.1376345,-0.046103496,-0.2714789,-0.0389378,0.10594931,0.16652554,-0.16529927,-0.05660819,-0.07808199,-0.14870408,0.15903467,0.0049932324,0.0950095,0.18423983,-0.05863804,0.04571639,0.27683485,0.2056592,0.059744585,-0.22389622,0.056516938,-0.04371354,-0.0021242287,-0.024101852,-0.122841924,-0.17899136,-0.18066525,0.024138689
parallel_lines_2,0.11864896,0.3598582,0.048053462,-0.21258873,-0.026057357,0.072574235,-0.020940665,-0.10584174,0.005563316,-0.20613022,-0.14224704,0.10256721,0.09708157,0.008894336,0.1694859,0.03522323,0.16819263,-0.10715823,0.27184907,-0.08705148,0.042069674,0.00072543265,0.040896878,0.0115150325,-0.030903958,-0.3384799,0.182026,0.07211752,-0.115975335,-0.09361152,0.08587433,-0.15085396,0.07800272,-0.23907855,0.036701057,0.121323064,-0.24745513,-0.13583289,0.10311094,-0.03426491,0.21084042,-0.15279382,0.044385634,0.19954383,-0.024143642,0.047106817,-0.1194497,-0.21822387,0.020042393,0.045592688
percentage_word_problems_1,0.09394674,-0.02346382,0.12161961,0.14797993,0.15471646,-0.022718072,0.2501332,-0.216997,-0.037685312,0.013654244,-0.042327166,0.035615098,0.08491223,0.048086055,-0.096891604,0.24044737,-0.09574057,-0.23437916,-0.022419725,-0.25408325,-0.18015632,0.042205818,-0.21520363,0.17975953,-0.14496997,0.17543462,0.09035636,-0.10362589,-0.08086046,-0.09420068,0.15255001,0.1322131,-0.21963325,-0.0866025,0.04631157,0.15717463,0.12121051,0.08954865,-0.341025,-0.015229866,-0.14908479,0.076423846,0.010551293,0.056640074,0.09211948,0.14858866,0.068292744,0.09923947,0.0017900235,0.2669364
performing-dilations,-0.1320174,-0.090292506,-0.023562126,0.08315308,0.11517923,-0.044814207,0.075457156,-0.14192487,0.2679302,-0.09132945,-0.040260874,-0.10119091,0.10422282,-0.1637361,0.3549007,0.025680583,0.096482895,-0.4291623,0.077509135,-0.067471094,0.010756236,-0.11257864,0.18615273,-0.06568684,0.22108197,0.24487364,0.16349898,-0.1758094,0.07452933,0.0720411,0.010256034,0.012319259,-0.0052887304,-0.0019453482,-0.042467084,0.10028678,-0.21907686,-0.07378334,-0.07283752,-0.09854584,0.025513373,0.0028013668,0.23018213,-0.08742154,0.0023019551,0.11568252,0.09893822,-0.24778388,-0.036164954,0.09359745
performing-reflections-on-the-coordinate-plane,-0.194587,-0.13525966,-0.113455005,0.07612449,0.14569981,-0.07028078,0.11127266,-0.09940495,0.07771702,-0.08242375,0.08392519,0.043691196,0.11945572,-0.08074845,0.2759047,-0.16804712,0.15156195,-0.41513214,-0.00962822,-0.0717856,0.041834857,-0.08852074,0.10098646,-0.15737168,0.12517068,0.28873625,0.07427538,-0.15779506,0.030624194,0.1546009,-0.14113787,-0.09729184,0.048740335,-0.043266095,-0.02581194,0.114027925,-0.33085003,-0.07226194,-0.033064328,0.07278496,-0.0074851266,0.047325514,0.18592906,-0.07349803,0.09706112,0.10177902,0.03477472,-0.30292684,-0.02687232,-0.0793145
performing-rotations-on-the-coordinate-plane,-0.19837838,-0.16087379,-0.11217035,0.030758364,0.071898885,-0.12132047,0.08743111,-0.105166666,0.060176086,-0.06536667,0.06348745,0.13117221,0.08108502,-0.04359528,0.28462204,-0.057274558,0.10940689,-0.28144842,-0.018519508,-0.10842958,-0.020845195,-0.140421,0.253006,-0.15379149,-0.0087392405,0.28366935,0.1612423,-0.17397286,-0.01221336,0.14755036,-0.2446087,-0.08731016,0.11018275,-0.050417528,-0.0027297526,0.16775274,-0.26054743,-0.049223557,0.01545984,0.03565532,-0.042273328,-0.07734043,0.135702,-0.17002559,0.06376029,0.058782283,0.021237615,-0.34754962,-0.09435673,-0.12671022
performing-translations-on-the-coordinate-plane,-0.18372557,-0.16884896,-0.11960851,0.091752015,0.14216837,-0.10859077,0.10460599,-0.09430971,0.057549763,-0.075169064,0.076618336,0.0499356,0.07981912,-0.056685947,0.27982274,-0.13576877,0.14216778,-0.36577642,-0.020605551,-0.09369995,0.022627411,-0.10255235,0.15127358,-0.16526896,0.097107306,0.30420956,0.11261215,-0.16673136,0.022256885,0.17827982,-0.16458088,-0.06254595,0.07774659,-0.029411493,0.017068673,0.12896898,-0.3116255,-0.08986399,-0.032672305,0.060649037,0.009304815,0.04015751,0.18198097,-0.10434475,0.07628782,0.06622689,0.08892498,-0.317647,-0.05786237,-0.086760655
plotting_the_line_of_best_fit,0.05969879,-0.08945734,-0.21511857,0.14810973,0.08858796,-0.22885978,0.10207372,-0.0017621027,0.01297053,0.028601877,0.20984551,-0.095649295,-0.055663463,-0.088178664,0.02326592,-0.13732392,0.03595277,-0.26766157,-0.16196209,0.1388652,-0.021868931,0.10856932,-0.12711598,-0.11566181,0.3499031,0.42980647,-0.12093048,-0.1864542,0.010160201,0.15135664,0.059393544,0.006989245,-0.03403922,-0.15143302,-0.057913017,0.12790684,-0.07691291,0.056631472,-0.14045237,0.09158912,-0.035293628,0.020065634,-0.060873225,-0.09674678,0.035652995,0.12250343,0.24471709,-0.1124538,0.14784916,-0.123727106
positive-and-negative-linear-correlations-from-scatter-plots,0.2834271,0.07097185,-0.38760653,0.08956664,-0.026133973,-0.16279338,-0.19812842,0.10585316,0.003771388,0.07370855,-0.13828976,0.19961222,-0.08553604,0.1652735,0.023569819,0.08787357,0.061151594,0.003599703,-0.121033184,-0.17662199,0.0037330093,-0.14308174,-0.008400001,-0.10195891,0.3180298,-0.088831075,0.2295845,-0.090969056,-0.02139505,-0.14788099,-0.12359094,0.04075214,0.107677594,-0.12161847,0.068304025,0.060151797,-0.19100289,-0.12271962,-0.22074388,-0.11948618,-0.1208242,-0.08050319,-0.16046695,-0.23017551,-0.062374968,0.030910535,0.05634769,-0.07679505,-0.013588003,-0.1358035
positive_and_zero_exponents,0.23268633,-0.12915826,0.017966988,-0.09651623,-0.16484281,-0.10379057,0.11504741,0.18846251,0.05018068,-0.005775557,0.036831755,0.18530804,-0.32295284,0.08917579,-0.09346974,0.042982172,0.023946147,0.15128158,-0.07870633,0.20234856,-0.14404051,0.23839116,0.017724905,0.053362403,-0.10469496,0.09047174,0.0059383456,-0.022471976,-0.22095731,0.036804635,0.2075934,0.12799673,-0.045537118,-0.13121088,0.07559235,0.16338715,0.24471602,0.081950694,0.06754579,0.07104823,0.07072767,0.02730853,-0.07843719,-0.16767317,0.214393,-0.07634611,0.14775327,-0.26975858,0.17061453,-0.21827863
probability_1,0.084796175,0.107148334,0.10397032,-0.18705615,0.10612574,-0.067062266,0.109642945,0.111496925,-0.22460756,-0.04942639,-0.018843245,0.0738027,0.026781717,0.3471489,-0.076410025,0.013896049,0.024957547,0.07035322,0.07167026,-0.0035080581,0.096676625,-0.09518349,-0.08389094,0.031544197,-0.016371973,0.47556087,0.09220501,0.09572413,0.10025382,0.13448955,0.05378397,-0.06348553,-0.12182155,-0.05401747,-0.013777061,0.07270091,0.056554228,0.19773297,0.010214662,0.116631486,0.032310672,-0.12919489,-0.1051118,-0.33610353,-0.24506164,0.066596575,-0.21764322,-0.20239471,-0.074883826,-0.11675382
properties-of-integer-exponents,0.24290413,-0.2419168,-0.11241021,-0.036119025,-0.23197815,-0.002693696,0.11109567,0.16039196,0.18081102,-0.018220423,0.002605911,0.30348903,-0.23235735,-0.018573811,-0.10812695,0.113422565,-0.10008878,0.23640595,-0.16530325,0.14911294,-0.046608634,0.15128621,-0.02401371,0.01896047,-0.021996489,0.05719645,-0.051760346,-0.034777466,-0.15932578,-0.08975197,0.06786945,0.15064946,0.047554564,-0.047510073,0.06735985,0.15949614,0.2930115,-0.013948882,0.029128443,0.036408786,0.014417028,0.056329135,-0.08200292,-0.027789278,0.2056075,-0.033958122,0.19713035,-0.2719246,0.09611715,-0.25239432
properties-of-multiplication-with-negative-numbers,0.23531713,-0.32326868,-0.012574874,0.04475499,0.10173053,-0.11607369,0.2061587,-0.034979325,0.07810056,-0.170649,-0.05135515,0.18684343,0.013653986,-0.049569216,-0.07667438,0.14768752,-0.2956938,0.15613356,-0.057886526,-0.0056254547,-0.00935479,-0.27193442,0.020805499,0.1585432,0.11575688,-0.06619243,-0.11467973,0.06082594,-0.079876296,0.19057706,0.0064335014,0.18985723,0.034244828,0.13735625,0.07583688,0.24847156,0.2020505,0.1098265,-0.2221005,0.050657388,-0.09006987,0.2315722,0.040735677,0.01130096,-0.0632195,0.07427238,0.2304769,0.08248302,-0.10832268,-0.045694355
pythagorean-theorem-in-3d,0.032408684,-0.020500915,0.07662518,-0.06041587,-0.09460593,0.07809049,-0.17710467,-0.04021137,0.10695143,-0.2792216,-0.29705518,-0.07981958,0.031190421,-0.054246105,0.109730065,0.16689831,-0.006690589,-0.23000754,0.33501944,-0.08875533,0.18068406,0.12063564,-0.10182243,-0.09295352,0.168462,-0.0107433405,0.2802961,0.17989136,0.06357282,-0.10151215,-0.032780997,0.036501188,-0.14867121,0.14117478,0.23175414,0.041010264,-0.12600958,-0.1549193,0.12405716,0.028423283,0.14676851,0.031775154,0.06337481,0.050293412,0.12083716,-0.03590436,-0.15675116,0.096822165,-0.21407528,0.19859487
pythagorean-theorem-word-problems,0.17127883,-0.08194858,-0.090010904,-0.0718018,-0.04638023,0.08451728,0.031044494,-0.043572977,0.059186228,-0.3695654,-0.042045888,0.14584424,0.04255302,0.16162321,0.07741792,-0.004440232,-0.1305351,-0.16648576,0.2679163,-0.16669862,0.2816927,-0.04082038,-0.19286731,-0.038655367,0.11149859,-0.04431492,0.25537893,0.060158525,0.01848284,-0.111195154,-0.2703785,0.0974776,0.015129431,0.020483045,0.14427806,0.15501456,-0.30060545,-0.019560356,0.07102921,0.124061994,-0.014580337,0.0024646258,-0.101661704,0.18568033,0.11168016,-0.09882892,-0.12823777,-0.07683272,-0.22911271,0.010021408
pythagorean_theorem_1,0.13170294,-0.06876136,-0.24517949,-0.007157446,0.050472606,-0.1274561,0.060988855,0.0071171788,0.090357974,-0.24080868,0.04952492,0.27713534,-0.07029164,0.013690797,-0.018008564,0.14301059,-0.23502004,0.020609574,0.10354244,-0.11140715,0.34574756,-0.08627488,-0.24541494,-0.12973563,0.13672136,0.22786027,0.2016217,-0.13834542,-0.11508192,-0.018418297,-0.282766,0.13561973,0.016817903,0.07220659,0.11155782,0.11528093,-0.13566367,-0.10156938,-0.08955121,0.014860946,-0.11020406,-0.07554751,-0.035325408,0.14969121,-0.060231254,-0.0034827827,0.04658502,-0.21964379,-0.07958664,-0.16918615
quadrilateral_angles,-0.018609302,0.0066612572,0.09839546,-0.1479867,-0.038836338,0.018231994,-0.15860638,-0.06877946,-0.025952546,-0.21602401,-0.19402984,0.24443127,0.1722454,0.04882742,0.06910114,0.050030656,0.10481619,0.011550524,0.16461892,-0.28872025,-0.2361275,0.012291248,0.24976952,-0.030121712,-0.22056848,-0.04111621,0.13605246,0.15422915,-0.0795883,-0.06346067,-0.09023923,-0.20887095,0.2297552,0.021490533,0.13927376,0.14070736,-0.05902203,0.031985816,0.25535446,0.13173848,0.054023597,-0.17665164,0.09532137,-0.13306001,-0.011006634,-0.07617589,-0.15125516,-0.14284979,-0.23572849,0.107162565
qualitatively-defining-rigid-transformations,0.19598477,-0.0803127,-0.08216349,0.09702635,-0.013167862,-0.056997612,0.03737839,-0.16540296,0.23496097,-0.31754148,-0.059072908,0.032377847,0.043074217,-0.22606385,0.2321341,0.29688826,-0.00636197,-0.05446712,0.02054061,-0.2373995,0.11381824,-0.24029134,0.17269948,0.024670297,0.0058065127,-0.04245794,0.20581342,0.15952227,0.039829697,0.048432227,0.02424533,0.07323459,-0.095416665,0.1812239,0.09180573,0.32367113,-0.0077750813,-0.05406625,0.06555017,0.002984717,-0.02998158,0.16193976,0.1882182,0.09960149,-0.0945858,-0.0154374475,0.055105735,-0.12511945,-0.16772911,0.14100698
radius_diameter_and_circumference,-0.22491358,-0.07900862,0.03097086,0.17698623,0.020383317,-0.049454935,-0.13006335,-0.1369766,-0.057127133,-0.09701027,-0.3135191,-0.17421994,0.043014314,0.058342338,0.048438877,0.063136406,0.036894806,-0.07580623,0.2381101,-0.23286209,-0.16667442,-0.21065432,0.1324485,-0.22537106,0.17140058,-0.05196388,-0.085421756,0.05594926,0.016938783,-0.12888601,0.06814534,-0.050074857,0.19011514,0.034196794,0.0732248,-0.008846627,0.22799778,0.014984683,0.26700768,0.09165442,0.20221145,0.09131648,-0.16372325,-0.014938505,0.1880271,0.1730894,0.15721272,-0.0009778462,-0.21098392,0.094387926
rate_problems_1,-0.13389239,-0.12002356,-0.07153425,0.3610619,-0.023557266,-0.087576926,0.25125858,-0.0042986674,0.08344659,-0.037755996,0.09134237,0.17362088,0.09772508,-0.043965954,0.0020587614,0.12619494,0.11128189,-0.22034578,-0.13579828,-0.2104441,-0.19957064,0.08640036,0.05320749,-0.0330378,-0.17646493,0.10056984,0.019323578,-0.24309015,0.017736925,-0.14897309,0.001540899,-0.021896979,0.078107,-0.35228246,0.010021491,-0.054629166,-0.040269557,0.067554444,0.14478157,0.12529664,-0.1924883,-0.31856012,-0.024549136,0.049233202,0.10890819,0.14149803,-0.059143286,-0.12948638,-0.09649918,-0.09369467
reading-histograms,-0.1473347,0.3009699,-0.10235808,0.083683334,0.09694897,-0.016058825,-0.0065325936,0.35939494,-0.07762435,0.16758457,0.27530745,-0.24706267,-0.021733385,0.08036637,0.054383963,0.24187194,0.0412761,-0.028132034,0.012281453,-0.02126415,-0.098920576,-0.009719875,-0.15219246,-0.03397036,0.12415482,0.19366863,0.17362013,0.06847096,0.14220196,0.04478831,-0.16839975,0.2219588,-0.045398965,-0.086192325,0.15726972,-0.12987877,0.20080705,0.02913904,0.26037762,0.061451804,-0.04082703,0.014574132,-0.06738137,-0.17058493,-0.11522503,-0.04307237,0.14932781,-0.034076333,0.14342886,-0.09278733
