skill,0,1,2,3,4,5,6,7,8,9,10,11,12,13,14,15,16,17,18,19,20,21,22,23,24,25,26,27,28,29,30,31,32,33,34,35,36,37,38,39,40,41,42,43,44,45,46,47,48,49
adding-and-subtracting-in-scientific-notation,-0.04472466986295534,0.1877620026042776,-0.14849681242009444,-0.2791860612079222,0.13147907030005798,0.0950177991737362,0.2872947166391679,-0.10543284232199177,0.0832003991718277,-0.14493634268563346,0.16846818999700336,-0.07586005652575362,0.02221939165177583,0.11932488691835519,0.019078001499265487,-0.007609332332374924,-0.35532389493641203,0.07972851859628216,0.053429538071514786,-0.04971191580393105,0.29019778381324923,-0.08824904087846816,-0.0603730956159262,0.009538571172762146,-0.1293861552807914,0.06169244991410037,-0.025253764555450687,-0.03873302170497823,-0.12194310892996278,0.07290476671705969,0.16225881248074953,-0.006855982703370641,0.19721250251037714,0.03495331968911478,-0.15233483078880866,0.15042006577623093,0.1307493517831259,0.06979034341801996,0.3383997902075552,-0.0255948683114115,0.08580140598758206,0.15291527645240827,-0.09455898657353713,-0.008981690928374099,0.16248834070498372,0.1304253434913907,-0.21863120013225357,0.08917072720337571,0.022965355524314564,-0.00991721796295099
adding-and-subtracting-polynomials-2,0.05891513418999474,0.1897967328765812,0.01729490767525621,-0.19693101656777418,0.1476778158416093,0.2807119260884966,0.31691651640444335,-0.19012189355678127,0.018241775548935232,0.08055965910782573,-0.022670875335566942,0.060204910857102376,0.07516933869415249,0.2366274486461516,0.032234741424402774,0.12315459860456984,-0.13354542370247105,0.10317190331058859,0.003135473315943027,0.08246960372357101,-0.04594047519127205,-0.014406095807911728,0.08964874089667374,0.1201999972701704,-0.25107710790220134,0.05466491044104649,0.00239076354486725,-0.2109243466748049,0.04893640271244312,0.1640749750322278,0.08288982094819648,-0.12048722374050917,-0.09067617611553594,-0.07676498417278282,-0.05994109895078145,0.05602225600990472,-0.023880737567940572,-0.08205048708719835,0.27433302482977157,0.11987257226495837,0.003075974173090168,-0.040047208499100984,0.019510912803346915,-0.10049547114648016,-0.2156489194501082,0.3073172217482644,-0.17307475581193973,0.14149739935942857,0.15436071400970575,-0.1717073380563252
adding_and_subtracting_fractions,-0.039694333157962156,0.21234206220692314,0.09933116041567808,-0.35989906863030474,-0.08408830451117687,0.2858020192386534,0.13204346319874052,-0.11753626776270053,-0.043710246077436184,0.07653716493527558,0.040866316215260295,0.023232675866658583,-0.06226546143489535,0.10009960312384299,-0.05559316040594505,-0.024098153561567567,-0.013139948286020869,0.058811924710412494,0.033186139810648586,-0.08034897617275852,-0.10444865455401854,0.06162620499330547,0.04344352993017954,0.33727599132384956,-0.21026846239779465,0.17864527384137635,0.1523442428809658,-0.20606111127167007,0.06698914252214061,0.25455104165979264,0.10452960559874354,-0.14507536375760696,-0.049011147520889115,-0.18708117413145517,0.005871814276459124,0.06268484496504358,-0.09072529946093252,-0.03913989100663387,0.13930875581334903,-0.012957566290701602,0.04675300855319224,0.13006967681369042,0.011384076207807483,-0.16275464907173906,0.02378556829198366,0.08449098420890473,-0.2639065604296499,-0.04129412361318314,0.24968970616031194,-0.1548260515888122
adding_and_subtracting_polynomials,-0.006781303436566407,0.12131359095369348,0.06814837881461201,-0.14677022402952974,-0.07603623813175338,0.2864064265048128,0.2666594932523865,-0.1529542137381847,-0.0365913293928812,0.053681694174258256,0.0309356198296046,-0.029734156496034645,-0.05195206779814072,0.2001673114838484,-0.030873511415727063,0.03845149029447466,-0.08452494036336895,0.025885715413256738,0.015556402597647229,-0.03216979291138355,-0.1731045896632311,0.07337210189026466,0.0517689131156516,0.3224102539232169,-0.3084145919991293,0.20206198844481568,0.11742676063541352,-0.13043566726617534,0.13448774138897587,0.26262691675091165,0.03158434901915754,-0.17078384576273603,-0.11523076638055359,-0.10423516187834418,0.06031839757158609,0.09144271983028823,-0.08503268652736919,-0.0441468245281181,0.08857799229480655,0.020057883717936344,-0.006301714648228404,0.08521178359677162,-0.046310393009133685,-0.045565932255414096,-0.13981897657357215,0.13906767994210548,-0.2738289735437949,0.06752303213279605,0.311982106318425,-0.09787194043203139
adding_and_subtracting_rational_numbers,0.09299559695490216,0.32383621038189386,0.10515642368379073,-0.2886548591101886,-0.02995518596104203,0.24417139131276,0.11190683657916915,-0.11793749744980507,0.07350116132329401,0.12115266832686926,-0.03152231941168975,0.042245996877092656,-0.05526352351327611,0.055151698141507235,-0.2164929274988333,-0.015927468713979518,-0.016907413806366643,0.1437346993607758,-0.045611471407682416,-0.11666257676375294,0.024867190864594962,0.11406119613655531,0.036378168559535906,0.3075014877207462,-0.19514550896681968,0.09457305910810869,0.01197666808336984,-0.28396740412449173,-0.005828715501862829,0.23767208129205025,0.0755704825478134,-0.2352769439674611,-0.002831905862877438,-0.22051147945700028,-0.037059776646182666,0.012508057001179554,-0.13996433825184318,0.015007636275024456,0.09794397660969534,-0.03855032382790924,0.10958209836822663,0.10265453366383735,0.1073633794536501,-0.1677024230902166,0.027613313536248022,-0.044659357728751285,-0.2091336280606159,-0.09351807183929921,0.17999183191994703,-0.08151370356337256
age_word_problems,0.015719520353173748,0.28533344478801453,0.0014943702477496043,0.08151371668934235,0.053208610716974795,-0.14294297102674908,0.0005275676490878453,0.01775584486534539,0.18840104131564833,0.024208161082259285,0.35934182304135914,-0.18787619799370006,0.10734659888333714,0.012210882127452794,0.22888555609121167,0.020852174321201653,-0.33540669099150516,-0.32819218286203117,-0.04819034776412773,-0.0786924259196498,0.02559038224284461,0.055199576945696355,0.09445450211920656,-0.11138516861121556,0.020896140906441773,0.21608369122296284,0.21409552916227628,0.13800252546784117,-0.015079430917890737,0.15843156121836888,-0.10137817994215677,-0.08538446561516565,-0.11565160988032826,0.12039869247451161,0.02264884632445618,0.08969824539503214,0.12940406001695523,-0.21490085852644147,0.13149441842380624,0.08250768001386687,-0.007992227689785926,-0.08895356222301157,-0.06707688337925481,0.14755504504682262,0.09683786492829242,-0.11856904553232699,-0.12814174127341707,-0.046457596944327814,-0.11914893363422156,-0.02315187771960877
angle_addition_postulate,0.17502316085043274,-0.07431599810139337,-0.06517546897890573,0.08715975731476479,0.22069113417671332,0.13237801515130362,-0.14393204370458498,-0.23638694106487507,-0.03737561141127856,-0.04473626864079721,-0.011160039553303655,-0.12999733812131717,0.14565671167427305,-0.19820275730853987,-0.004101887569180364,-0.016823622936277427,0.28468167842939135,0.17352226630016296,-0.11064706704648004,-0.3066027153181288,0.0011740503626662157,0.1338555196257872,0.056706605008551944,-0.07644141185568638,0.14964723836626795,0.024734490415914117,-0.2648644314938738,-0.12958478233419285,0.059955139551109454,-0.2063857094789629,0.22908413717070694,0.020278661382401066,0.14708564881981184,-0.08459697109106225,-0.09369256472166304,0.03599443945513293,0.042997512278723164,0.10833357116356848,-0.21215772802002458,-0.0428538953321566,0.04378143254993679,-0.14205967754409685,0.12481657220196084,-0.1243797275246993,0.04980300532786342,0.0009222528458702654,0.09297278164775993,-0.2903036994871271,-0.10746280818135108,0.12307864149493018
angles_1,0.08379339777604389,-0.20812209234498474,0.0584609916406097,0.013459229911502673,-0.04438630815107372,0.18442764568434464,-0.31793580938184407,-0.08525060273094322,0.16298387545691184,-0.23812744851287396,-0.26470124247526006,0.01697820514680379,0.0951333566355149,-0.14771675628403372,-0.06135842074626691,-0.10788979404494002,0.2983743252992681,-0.08031628699833465,0.02831698625411725,-0.04408534086545129,0.045513964819115654,0.15972564660939376,-0.13778327169776264,0.04907521738692231,0.16226080444465166,0.009061859327430838,-0.060188433813038206,-0.0876362257417011,0.040762751170814765,-0.11698946186326281,-0.0026323225536717546,0.15629433848076058,0.23972389817904047,-0.20563906261421094,0.007797446445798496,0.09788790984797197,0.03376481516059511,0.0028400199737317446,-0.1111165173605847,-0.1677970547485051,0.06575685660054868,-0.20370214994231559,0.08135663120867294,-0.12311160284267761,0.03529836756827943,-0.04562125936398699,0.24481665730640156,-0.2473902442682389,-0.1682718820722909,0.07558329013228214
angles_2,0.14302604425804857,-0.17077505420580577,-0.0014558721402808698,0.03474754619045808,-0.022179746635378465,0.10989353961088513,-0.2977120645026345,-0.12553781275588874,0.12070503467020592,-0.24754739252977995,-0.3026223709629839,0.002565437745886076,0.07315723320829766,-0.10775650730654616,-0.10737826729361039,-0.13956007483243268,0.31205558497977587,-0.035793901946394174,-0.061121515568356974,0.013582188985666077,0.05788972641384177,0.11966622417133557,-0.1793240496619847,0.08964914745141495,0.2411690647976073,0.008945330749163805,-0.04457700372645719,-0.18139826908776155,-0.05165697962338863,-0.047179359455172674,-0.04184945007808499,0.13293077024710184,0.20951435301874713,-0.2146917568254746,0.05152787306513994,0.11747140739916366,0.08092189694766506,-0.0021572279824490035,-0.07747003031264459,-0.14906141536349427,0.03571736393623574,-0.21705956782895042,0.1522268421730503,-0.12983565667664929,0.020643054809049113,-0.03019324275862249,0.15721353610815286,-0.2317449991078982,-0.17166356170498193,-0.006265625571636235
angles_of_a_polygon,-0.10012531655986685,-0.307391566074034,-0.028671461079527834,-0.003024166227452558,-0.18044366476859686,-0.08301145622212609,-0.23571885495549985,0.3363483897204465,-0.03058112181525732,-0.1919492781367802,0.07576266624105107,-0.18178788479073904,0.21865600109752129,0.09569435931504812,-0.001887035236772957,-0.04484809479836707,0.09515382089847453,-0.2683386851409412,-0.19043018761728372,-0.2127790124776754,0.11082675205998466,0.054698827821332556,0.10138792466356925,0.1476251124695427,0.07639637794142251,-0.18242764469029177,-0.1758508329005621,-0.0045038322293770765,0.15752126901917995,-0.17584007020766002,0.036849781733751266,-0.12126233043557741,0.021857563758942534,0.050898027021340886,-0.10761563129491453,0.06377489508659659,0.16359228076712087,0.08408469365864214,-0.004727493471985781,-0.13439221095619946,0.028212645077340604,0.07098966007022613,0.11166988653405886,-0.04675840300157301,0.09782507785380283,0.024200548888130433,0.23295960445618538,0.004412516052891939,0.11349664429344641,0.17523689415905255
approximating-with-orders-of-magnitude,-0.15683547668942766,0.21359361686607473,-0.0508903638800249,-0.12434449664097146,0.20352129942865863,0.04499906139928805,0.07457800767629721,-0.00452831519231613,-0.01563358833872481,-0.17232996934160247,0.1951986022054466,0.058955489459839874,-0.0036407514699040616,0.13270068169842109,0.125764319988029,0.0802486231432395,-0.17982243303696532,-0.23090453148786244,-0.21236513866173742,0.15772037591667282,0.19864779941503843,-0.01929329785314542,0.09905704861788853,0.07687405434245269,-0.03480921304294897,-0.05452453567025512,0.14220123316444078,-0.09944823076009736,-0.2881233774350736,0.039950873579961604,0.04831754175107173,-0.01577684039562515,0.07571986291733222,0.20326247780814918,-0.01695735707428548,0.23221693823125047,0.09679727099576932,0.10058516520337747,0.3839559703471662,0.11498955489021674,-0.11357019805625174,0.056762164632354166,-0.10701576510170852,0.1868968573783463,-0.07855096865440955,0.04722308526305929,-0.14199042850385962,0.19582616073318235,-0.07369924044818961,0.048896803413901305
area-and-circumference-of-parts-of-circles,0.0905819744279446,-0.1914788401697977,-0.06684140523175701,0.027555968835814716,0.07617284156871659,-0.16387988209649387,0.20925022805052879,0.03264030715878179,0.020292590304895393,-0.04437734158512827,0.15517940494433108,-0.04613467752106975,0.0290778170376572,0.19338217351061884,0.07802122092553067,0.024707642875272263,-0.5100349458833763,-0.17606832812831086,0.07265499222407415,0.058325547394286595,0.08092593344861065,0.07694104313462519,0.16623553004252273,-0.13760846942631616,0.23134342698929858,-0.11355670479437811,-0.20154072860996766,-0.14682623642793521,-0.03707885978810905,-0.11656471912950005,0.11665481541906934,0.03204505380569901,0.0573596499911754,0.18189520211676116,-0.1608790985487413,-0.0863714156533183,0.03351506948315232,-0.10369685745330408,0.31309241414574923,0.10109363821090336,0.0005654445488466675,0.03388108990294738,0.005376921695055129,0.12209953720294565,-0.12572373004295537,-0.13255529647585818,-0.14630162752797743,0.13226781666478485,0.04628942655498144,0.0383844310660512
area-of-quadrilaterals-and-polygons,-0.02805544402203686,-0.04698460776903869,0.0974176988745585,0.08782194792741856,0.04752183894252077,-0.055742182683172346,0.12661592639472763,-0.11551971116927996,-0.1539511422324083,0.0652341996325106,-0.04967716515414444,0.11376646736308137,0.04497719659694204,0.10369028549997181,0.06454743121149972,-0.026225202779380216,-0.21973168589524944,-0.24818578408710426,-0.1400709883014151,-0.13918441716227092,0.04788957005952305,0.38138759004864126,-0.004179161090865746,-0.14575823816308414,0.15040794584517214,-0.17303281191353706,0.104605909327465,-0.1898102477176557,-0.1687222605910717,0.013505807606006346,0.10829309161020122,0.006690362629495757,0.019156643953074703,0.34112558227207973,-0.1179836934727989,0.023079677127082743,0.14983485146702766,-0.0791292107829648,0.37217260302839883,0.1019235769078095,-0.09080276661940011,0.11517442442587726,-0.0795123367917686,0.14370996389310714,-0.17556869525500424,0.035857524636656445,0.10912426871180043,0.1033314420608036,0.11294978443722603,-0.038586308270141714
area-of-triangles-2,-0.009717288090437674,-0.16529996243466394,0.09225015585695538,0.06848775614550472,-0.015051216728472887,-0.00307490847474113,0.16728404407897482,-0.0968839752263291,-0.23142354721636857,0.04107767423443966,-0.09257471472648378,0.1352194211815004,0.09302272687972601,0.056605898975904345,0.05556717669614265,0.010167335076447367,-0.16983140313925532,-0.3720601030316249,-0.14404600231010314,-0.22049957489238045,0.04542724187030068,0.282353735641061,0.008445765117856552,-0.20034155987214639,0.19667960746945498,-0.06441258865001706,0.07619886751319649,-0.22181038859896682,-0.06892267071116304,0.07256751672313146,0.11086612875634277,-0.07125555880350339,0.031952696951531925,0.3057230778852163,-0.12783068575207301,0.028844606552174294,0.1936109903912901,-0.012481425817833755,0.36016953848192695,0.05877835379282086,-0.05717008121282539,0.1365839479811586,-0.049956795840621133,0.07157571123557326,-0.04335096586877735,0.03718088630616137,0.07198503113503599,-0.024613424391200508,0.13805618499147437,-0.025271379350132683
area_of_a_circle,0.0645390691700417,-0.299354632254827,-0.038212144109672684,0.006503198676646976,-0.17042169716990813,0.06640480483493938,-0.07209320830535335,-0.02816912146829857,-0.14626036582958873,-0.10501917902222667,-0.16170512913168025,-0.0570297863424508,0.11209897031982388,0.0031802945203966426,0.006132652510595546,0.055629774921470004,-0.15142374082376078,-0.3978414067175891,-0.23614906602425864,-0.1189509281330761,0.307633712404889,0.2779262848128329,-0.10395512217058524,0.15936656533138324,0.11478594021267416,-0.1783023859243826,0.015715062430373846,-0.06052314110784917,0.06049738502097091,-0.1162680012218566,-0.2154529857091188,0.17327773394531437,-0.025649062559554903,0.059133867960774196,-0.02998286109195734,-0.018156799322632172,0.17385732833675732,0.09210815374181658,0.11584828381500752,0.08227919945096393,-0.13450237167032547,0.022298219312437407,-0.026523133324484357,0.2762483614151799,0.004520127835418681,-0.007014540871543971,0.1478585478661413,-0.06035728567169492,0.015089733601334669,-0.018530074411679278
area_of_parallelograms,0.0999960972384113,-0.06012990858422063,0.018087694864997478,0.11746769540113293,-0.020612379151079444,0.28493959154412263,0.10352573947413621,-0.03301951026823503,-0.06295271679814632,-0.05658620435386456,-0.011914621065611341,0.06932575219827096,0.19739975896660786,0.12452221095773684,-0.09344796923846989,0.04664944343936125,-0.183582321408737,-0.4326557721464609,-0.17564313877323007,-0.20832226496308953,0.23132273384823573,0.19977558339285748,-0.019897103111670016,0.054944948563825174,0.09737498148914661,-0.07343355304658972,0.21781862067073846,-0.17661263023641402,-0.002059919046861485,0.04269671390683665,-0.006261538838527077,0.06471613245821203,-0.058072937661233566,0.04077498955721279,-0.06503964733469488,0.03612741874831015,0.05450886727198657,-0.13222094535171297,0.2592410590224236,0.1802738663385634,-0.12561422570747505,0.09721857888219407,-0.03139283193096335,0.27147686335082466,-0.037305785715079316,0.11067756166025537,0.1260010937264365,-0.055983474333985345,0.2155565678677178,0.006154215077419683
area_of_triangles_1,-0.026730997691948213,-0.05086495542502199,0.07278305220977975,0.09397145256396486,0.07603590594578521,0.06670518275983198,0.1258570916279443,0.04329660782225379,-0.25045596906903783,0.041209477948241285,-0.05203843931030027,0.10682818117560329,0.04185115305899336,0.10622327789706998,0.1612883240322287,0.1043200580325019,-0.18621863755862123,-0.36860349027510964,-0.17873495810944146,-0.1776329726549427,0.08639037027427629,0.2594111545864424,0.0752964240326278,-0.16178719155028237,0.18286669168690325,-0.06540252711454485,0.11118616731402882,-0.19156304780005096,-0.13450280278388083,-0.0048286303500938215,0.08959849441119196,-0.019708840472204767,-0.03084813779278389,0.29339505083849365,-0.13212357455976828,-0.01690504688237273,0.22009315335868582,-0.002439365226551819,0.3762835121554589,0.10201458251604607,-0.1242610071007161,0.0884334118033984,-0.06242207364259338,0.12852017794444912,-0.026767235616485533,0.08178667925586892,0.015875119190510222,0.08144381447749789,0.09105949747010669,0.026758091388100178
areas_of_trapezoids_rhombi_and_kites,-0.06253608289480281,-0.20640383564538187,0.013218068248760833,0.11311345917439806,-0.08743063216097781,0.032215468636065704,0.051827153232956454,0.2256554389510429,-0.09033467853649947,-0.03627142288845261,0.1808589739491907,0.020800222494558773,0.11000274647687322,0.12115762805284004,-0.010626017343126933,0.12589421946540327,-0.26177082185647554,-0.33791094297344126,-0.2064162734789782,-0.24887346438627359,0.20545542079058354,0.23659912521125134,0.02499196957421843,-0.21745922206334695,0.03305720052685278,-0.13868457851929264,0.02894666176017753,-0.09088454194084071,-0.03497545094986536,-0.15828119651340905,0.038545582370470996,-0.09481769136338632,0.07815674008261805,0.2144431075023837,-0.16932060001477206,-0.12468347597895046,0.18183771728953377,-0.024694329061734663,0.2600077138795779,0.002321848171445231,-0.05338258468940968,0.06483068293487221,-0.02201660469089834,0.06726125793836454,0.020909036639296438,0.011534360367191583,0.19730111399435357,0.09124193437673982,0.15071795720069275,0.1146289521162688
calculating-the-mean,-0.2668148587177997,0.10677060289107497,-0.08137521197425523,0.07388009233298709,0.1303027883361074,0.037489059105781444,0.007782926160804655,0.1334670559710053,-0.052520801356433965,0.09259229680374387,0.07481804074125065,-0.04779073464878793,-0.08570613967453046,0.02053248897527406,0.1416743442406773,0.10483924767347821,-0.2566846727628506,-0.18876043423521924,-0.11963811257911136,0.019923571879562334,-0.008297695808249194,-0.038019933262299105,0.10053909711497949,0.08758122908940415,-0.020333149076433844,-0.2538243312953433,0.072911094284889,0.03519168601051546,-0.2926477755443503,-0.15534845827300628,0.017379342036586976,-0.0130559774189872,-0.15225672558414793,0.2803586984933485,-0.13056100547739347,-0.00797332156320302,0.05441664099380068,-0.0943596182829266,0.10272387552654513,0.23791026304095772,-0.16853202533827602,0.2976762326718007,-0.0567663816556818,0.24341859934112145,-0.24180866062923265,-0.054073692095247934,-0.03378509645130217,0.2178118962728193,-0.0684929772985645,0.04235023018003259
calculating-the-mean-from-various-data-displays,-0.28207733530232343,0.18429046923568979,-0.06053798475639256,0.11065094068128167,0.060988311770510374,0.08834010084362293,0.051562294913871924,0.1252051956852033,-0.08261229807650962,0.09364552129334136,0.04371803729923202,-0.05469669279841491,-0.07792034413800095,0.050081580702016563,0.12232454497638079,0.008944544212226808,-0.2425001617252664,-0.17620037506370273,-0.04211615651504435,-0.04135077989191507,-0.07508721544864466,-0.05271919855545839,0.06323631709175981,0.19046405575636866,-0.09735651482163911,-0.19319745623227658,0.095774915930013,-0.005542941261046774,-0.26956823753942244,-0.04358279390784105,-0.039580732869414804,-0.04317233582723249,-0.17415236067059145,0.2528311183382764,-0.1061384188095245,0.04566031276947982,0.03958095638811577,-0.12451684555006777,0.15169490228330346,0.185562193462142,-0.1600164549292429,0.352513870026503,-0.07195806053536999,0.21728268470024675,-0.28704629207965743,-0.011354306615993747,-0.0970752116773713,0.20977113467199462,-0.010641534633226578,-0.010183928076633021
calculating-the-median,-0.28032082910195044,0.15260295694519102,-0.026883934592670643,0.05380468834482723,0.03858636017791307,0.0030997713270239508,0.01207056227393639,0.21331599851573396,-0.025836057287248474,0.15008960891707268,-0.03490430467614779,-0.01131965411568408,-0.14010884851053695,-0.029656359650488615,0.06263844522738937,0.03529347957725834,-0.20542226721524084,-0.22256197716237805,-0.058095756171120685,-0.002392864169093693,-0.12130615892459198,-0.11929166086318357,0.04195589664888567,0.12497260963656892,-0.09186683648308014,-0.220772585228519,0.1378356508993168,0.0545285300512417,-0.23137322709259628,0.020566067436138414,0.012677571667302014,-0.016641906629207257,-0.2469831414563895,0.26634953434153524,-0.05892559880555938,-0.029775419094875816,0.030115729796442423,-0.16991024050945427,0.024526888403451238,0.1722046227495324,-0.16017248564042305,0.30964434528938134,-0.033791816540465765,0.1502657112919074,-0.28208091944548414,-0.07743829232735384,-0.14736616244664347,0.25034995092114193,-0.10295746096813806,0.0038139709960301623
calculating-the-median-from-data-displays,-0.3028381447351193,0.13123849368377252,-0.05398278103198112,0.08068730847892792,0.07454259089872897,0.023988139747074977,0.0064005070965623455,0.14628063309030007,-0.07196056170824197,0.09376328923649462,0.050943494842468726,-0.037854934322715535,-0.12612723803564507,0.024614622171160692,0.09239508242388557,0.05988713861660577,-0.23667489284893942,-0.1973994378949613,-0.10037593192341075,-0.014860465003827365,-0.0702603088214409,-0.045915031923787916,0.0896009280324714,0.17939896671100222,-0.06926199004156391,-0.2289169979997169,0.097854014732956,0.0013204596053040351,-0.27751119658586176,-0.06960465533202842,-0.0303146942939433,-0.029924931899264824,-0.16908821618119044,0.27410954675304794,-0.10999473197411999,0.017037854140742176,0.055204494484934474,-0.09261723525491167,0.1271291503348408,0.21492689437545384,-0.16011041197238682,0.3354095691612213,-0.051824826234238994,0.21304688240730374,-0.24583722305247402,-0.027829506782239468,-0.11038993109462489,0.21663070166843817,-0.07477330950641685,0.04719983975335098
combining-like-terms-0.5,0.1173627308049046,-0.11338269903554347,0.05030434460640236,0.04954885516383505,-0.01398828958052764,-0.06242922734400867,0.12460861105188628,0.23959791699985497,-0.0015277248255305628,0.09272874357525858,0.07525150521733355,0.24468635944427125,0.12133710112599118,0.19458456015663314,0.015173641299521694,0.2666304692800124,-0.23602562161414667,0.1082633932899395,-0.15513524104525417,0.3441468845254238,0.05437315461118132,-0.023107526245368562,0.05224157449266584,-0.007108376420665433,0.07736740704790462,0.14194794549847467,-0.25408409452106445,0.03877505463536818,-0.0069062711253561814,-0.012587303947005942,-0.113080927026328,0.10829464896873037,0.03606525006461584,0.12429722018599842,0.058422295287252034,-0.09361387457791832,-0.01872204088919599,-0.324636098790442,0.040336061664908926,-0.12515699799009805,-0.14938155040160886,0.01283027957373269,-0.07552211123406746,0.13826313863775017,-0.22303229513280468,0.07375610372304539,-0.09737500448785669,0.2804629232927378,0.13189497345672802,0.014638122945345812
combining-like-terms-with-distribution,0.07895328169736532,-0.04031189703344645,0.03323507266082045,0.1098689051600822,0.12954859679290578,0.028775766563144862,0.17782227404683376,0.16286818331859684,0.015115879821685706,0.07027438907436769,0.11243825985057536,0.17525879512566275,0.031036981731197937,0.10780253565881921,-0.039061418921434506,0.16390700214785622,-0.2841778558573909,0.17617285858946097,-0.23862356413513022,0.32275010087004485,0.06286743938248245,-0.12963199619513074,0.012556647943102872,-0.045365386275644556,0.004195289225557722,0.1382902591746491,-0.23664855371628907,-0.08751099060627218,-0.03572894734750318,0.1326043513201001,0.05717272861575887,0.001396936630452617,0.06825163668705811,0.17871282369153482,0.09306012301149995,-0.026718312763047085,-0.01603587813475354,-0.20915216610128265,-0.03161383565294361,-0.07230353283781375,-0.21295156529831605,-0.04719856722420273,-0.10747015187429494,0.16334120960355017,-0.254674876906163,0.2381806793652005,-0.12230565303522593,0.22661516736283607,0.20733937847641382,-0.0003394119904639814
combining_like_terms_1,0.08594635429616664,-0.07348344850258041,0.04358423203078239,0.03015098344336322,-0.025857529714831295,-0.21108945546137853,0.041809020422791277,0.3635921527527797,-0.025395266333039797,0.03155689765296013,0.023672054078906487,0.12245653992565189,0.1624579631187157,0.19059321345910052,0.03885244279562194,0.31481731266543855,-0.18221812282708036,0.07249707499483897,-0.05705578615598628,0.23814612614012312,0.02358630647574501,0.10466621624153584,0.12293806245246554,-0.03440943267115394,0.11845937748878765,0.1573263245852811,-0.21063361179459442,-0.0021227196291331452,-0.004559020048044999,-0.11544545468511103,-0.18516466732784942,0.09315885851719165,0.12237547793773121,0.0802020027632162,0.06460283823967379,-0.19439102365171654,-0.01939394215220441,-0.31050934281646514,-0.009404718700346579,-0.11166634642921823,-0.10119819231339167,-0.017450374277974173,0.06151584347738077,0.016924271710228138,-0.14316611503495064,0.03453333215769044,-0.04037237195423477,0.37727232566509356,-0.0005206102668543265,-0.0774638474121976
combining_like_terms_2,0.054868624039341174,0.0713898518669778,0.16174291223373857,0.16713987438691247,-0.15583865572094915,-0.033219863774880516,0.1801877563521545,0.3328091012823769,0.04038054530620064,0.1324159265117427,0.057717917834826694,0.10479925915035466,-0.018056301457843815,0.22775882367419384,-0.03456970638847205,0.2252526229975429,-0.11474631046524646,-0.06091596221601539,0.021854235297623724,0.24335558631145324,0.1560046080824275,0.09948130560375237,0.06028941612871909,-0.040721870976872104,0.11854673220261396,0.046109216252742696,-0.27845340049645484,-0.010898530297286537,0.08037587671390081,0.06806547371985652,-0.11615073375577394,0.009174839742262053,0.011238672226694016,0.15234121460103273,-0.05210969052096225,-0.13896327291645927,-0.007421114303830374,-0.20217479517399845,-0.06242791819571016,0.0034084033675323244,-0.1815345273612593,-0.07962884617526261,-0.09180431899267792,0.13518014196527886,-0.12405828051014195,0.2185808613041147,0.08432372730289846,0.36347012259022365,0.09055126763674959,-0.17370442994048757
comparing-features-of-functions-0-5,-0.2000996830289735,0.23006367796171584,0.12396565840713189,-0.15700603141361322,0.15578461491694098,0.028031645978922437,-0.001956479009998215,-0.19448860681562277,-0.1386019225104201,0.04854126112963871,-0.2693109877903458,-0.03209382277627772,-0.14544822722391382,0.21598262046772132,-0.044940148452732996,0.019589222657001585,0.12047157026362339,-0.10700536356223472,-0.18926462600176247,0.05900753660740889,-0.10482411321763682,0.2634074394973801,-0.12497334286845894,0.31635285396478385,-0.005462442292967449,-0.026170721568681724,0.17350444314015034,-0.2208842859748806,-0.1364512445652414,0.13585071302642507,-0.11627857572260739,-0.04169054175321469,-0.07005805877522078,0.09433007635263045,-0.11136202030505002,0.0471047810655346,-0.019322445976345397,-0.03362994846679857,0.3435384698183335,0.11706205554305021,-0.002751670500560767,-0.08237691281033112,-0.0716016796175868,0.15497438820989945,-0.04004798067940643,0.12762520526398527,0.1367856282024425,0.08989069553700021,0.004617163796322182,0.056782509503532
comparing-features-of-functions-1,-0.12280774739534228,0.14934425089106038,0.021781590216686696,0.18793895362340265,0.18355061458460828,-0.1138784957932212,-0.0006811862284417597,0.065615120582982,-0.01699086180286758,-0.029878023118700626,-0.12160636689478654,-0.03402178991097536,-0.13958605202217103,0.09097314091814249,0.10928923542377281,0.09889814136556797,-0.07099537066686583,-0.24561221989472626,-0.26146818885655393,0.13492179222620326,0.0857449688153236,0.06455721068891652,0.02048943908012802,0.06016314058219507,0.05540914432789541,-0.16715427701697202,0.09838093403051734,-0.06883805449968393,-0.2788208929981793,-0.05141705692737492,-0.1077389923221823,-0.03302347450520424,-0.08019539906951526,0.2529045082884655,-0.061855383818899816,0.03459523873640248,0.062334353511831725,0.021408172628892008,0.26010854685427504,0.22267439614985013,-0.1441017457320818,-0.11307962586038602,-0.04694380220637154,0.355663331854226,-0.14789632674279957,0.05638661997632644,0.008573481017424235,0.28666963361504877,-0.18290548162618536,0.05678303859120347
comparing-proportional-relationships,-0.1879234525909767,0.08489794508630508,0.03755240701252605,0.19909359201032087,0.13721825105809163,-0.12038859799543823,0.025635421744227678,0.042205213259951836,-0.031270812189495796,-0.0841044463428436,-0.0887569041569804,0.13082329230304396,-0.10542403864209418,0.037311837055363915,0.2097465077639329,0.03451899790212216,-0.1912694156531596,-0.21823555058581462,-0.18118068308108132,0.14593972211261608,0.022041513553598978,0.058677234394785206,0.0338794276941824,0.06749146768239335,0.1608283508836233,-0.12995731014391806,-0.029062507044753414,-0.04920048540571298,-0.20659667083145705,-0.09365445459237043,-0.09582739608116884,-0.03277192087068253,0.023740504468269297,0.3215976818138687,-0.12037733663153805,-0.011820221859612772,0.085980374004552,0.017344165917397222,0.2096581636649536,0.22640546568119835,-0.09875281410087157,-0.021177675420644665,-0.13137572166829575,0.3195648383819077,-0.07686911759829944,0.04173002458620352,0.0534437431652591,0.36924518146744145,-0.10445150093741774,0.15926670075703012
comparing-rational-numbers,-0.31277191478357863,0.22250126497823097,0.11116568655148171,-0.10993067504610236,0.017961588644332702,0.0651754243291502,-0.005160659519158491,0.07551061785260633,0.024663475484927835,0.11681454818564083,-0.061774129344780285,-0.02865082666869722,-0.17494501326686002,0.02752917995778978,0.07247787932697798,0.05946588393821782,-0.09092559357303365,-0.1562574580231454,-0.08700678420964894,0.14730137724778314,-0.08845746137111316,-0.03011098218475177,0.12955615791053868,0.2661857344431787,-0.14634389326136354,-0.11636461131450322,0.21410103878281123,-0.057972571738607724,-0.13644876118459864,0.14633160840622622,-0.007301500814653359,-0.05462492170213298,-0.22539439698386873,0.15285175475302698,-0.044727569275560944,-0.01723753581361057,-0.06828055382172671,-0.11780289017229982,0.17198172685101415,0.25365954727037227,-0.16912925263770864,0.20156123778636975,-0.028263124419891168,0.09878749028528552,-0.24184367755265615,0.027573892184502194,-0.3012237619881075,0.22378122371084977,0.061142345284206735,-0.028606641167304016
complementary_and_supplementary_angles,0.11678820659063426,-0.12459021967205774,-0.052119382046225605,0.1329074071738207,0.14806643720723192,0.15962434093066732,-0.23570657525599636,-0.12340532283192862,0.10409011115597003,-0.19851733795886195,-0.11344613855241313,-0.015180651123304871,0.18023347025347802,-0.16260065546571048,-0.12035360557402944,-0.07172437122115319,0.32515841217961394,-0.029983063649061316,-0.13437694361400093,-0.15403148376775558,0.06137449029129206,0.009901121965507341,-0.016584938951385214,0.05868723935768402,0.313431779855715,0.04271435261489245,-0.052405005959543075,-0.204165868312785,-0.011006337429852634,-0.07483216729366249,0.16409017022020933,0.09618459374876699,0.1967734160832078,-0.16006835274683673,-0.06334103462290104,0.14640386720054924,0.12910900717865656,0.1071931857697895,-0.16267507387530014,-0.05917433921667324,0.09817482109023012,-0.19503180896622405,0.15811137572384432,-0.052335557791117156,0.08969064646532107,-0.08614408464185327,0.1463650571346179,-0.24667619496164805,-0.16073119579039102,0.03296147931434617
complex-fractions,-0.20188861709685377,0.21532596244656174,0.13068502055972567,-0.3073967333990647,0.16322837515650507,0.18075203083336439,0.04665136899790656,-0.20258396126504818,-0.06733651160890378,-0.05856205566077513,0.024652845958005234,0.14385359573644077,0.012182433849617676,0.09260197432181513,0.0034645084320362443,0.10708908891271599,0.04287968940438806,0.12441947503952776,-0.13355756774571395,0.16257905582650733,0.05594288784806683,0.11586409983027127,-0.02917536671875324,0.21022993347071822,-0.12064614506057632,0.04089706927891051,-0.09062915337004004,-0.30190031112140336,-0.1032121507952445,0.21605226584062737,0.1178878926786936,-0.03279050208187008,0.029185694209771934,-0.08347147651557332,0.05649995416371208,0.1385187325802299,-0.15116352947751266,-0.042410696319881355,0.33153193796118857,0.04446630135681765,-0.10045152254016279,0.02361032413573158,-0.014036127326894689,0.016466458030083727,-0.10551758036945,0.10053933010530297,-0.24086172715755413,0.12136799022017104,0.19564902165618142,-0.16764243610798812
computing-in-scientific-notation,-0.17981403318529274,0.09802757903212406,-0.05703777131545461,-0.191217642364496,0.16392156723023363,0.08979504063778157,0.24541696112555028,0.06345230561579912,0.13158229366690885,-0.1891871156306443,0.24311338957564896,-0.038535554040706944,-0.019222943888966657,0.08198060280752219,0.10244681213791569,0.09405845616854756,-0.3675555226904618,-0.08416229156438448,-0.1523184312412092,0.05459349067034903,0.1657763523915734,-0.09809075994774087,0.05930875400125047,-0.007207046189421435,-0.11453683943649706,-0.07796489684351056,-0.09309657720020208,-0.02283835098349309,-0.20099152150346708,0.06926161263812784,0.10547257895218297,-0.02668079208453634,0.05699448130098274,0.1312528857815583,-0.13360261569551427,0.05841893680011453,0.14466243111299815,0.08615365981037486,0.33020711786542667,0.0023819366187450277,-0.1539975410227197,0.10875109149314506,-0.2022860297343868,0.1280933435555974,0.03530426170475077,0.13851695903562877,-0.16140537375145453,0.22100280507398057,-0.0024162168437943696,0.13091562303119655
congruent_triangles_1,-0.002066358511051437,0.05030198608108385,0.011894138399731639,0.10849997507654746,0.08697083880993137,-0.348743032618926,-0.20412199406783765,-0.16436572700907123,-0.15713112245772265,-0.1581620397585423,-0.001604408917394955,-0.15863839075772018,-0.1233058255127142,0.14320494082671006,0.05609784133267927,-0.18202131145489742,0.4333677751025908,0.014926222197478408,-0.013124137943656276,-0.008825422127663043,0.22246263032652727,-0.03285825201979475,-0.07635823027283756,-0.1689980029627352,0.04665723014211835,0.0631782551018813,-0.09589492613873411,0.04246695356112322,-0.13222707995512029,0.05340699079299825,-0.17036736957736698,-0.09504681062108744,0.1585258238287473,-0.07510747062341872,0.04692522580156156,0.04437218194190986,0.22152079924182366,0.09597911814054699,-0.24662973082885423,-0.23330337258703976,0.07249767403049737,-0.17186233900471565,0.06425947916783835,-0.02251505414586768,-0.07770412193251167,-0.036288828504004764,-0.005685620271790499,0.004296155710070236,-0.1572685980585491,0.10938624243416213
congruent_triangles_2,-0.052932274654341936,0.051593555463484896,0.08242576361475422,0.15702913155660825,0.02660520467057135,-0.17271154287951293,-0.16546347416922436,-0.17638218381563806,-0.1290673346901696,-0.14462414451194583,-0.09921809786589321,-0.05212909869082194,0.01203863263258062,0.026101541736915927,-0.046737146912574606,-0.15396678103905995,0.31202911889769536,-0.04651890533885534,-0.2475490688096985,-0.23879836680083508,0.15202670124036186,0.19938542861949965,-0.165342780844548,-0.06239610727778903,0.16723186623689834,0.0048835920607681535,-0.1883338184932221,-0.16486965513623272,-0.16497340189178358,0.07261853794983036,-0.09998738069116221,-0.00045969370644332626,0.17293710804316756,-0.029626294511361936,-0.04159415500150078,0.12910890652281273,0.166763395561264,0.2365130410888907,-0.21069731273316766,-0.21306062079017501,0.05388757947667751,-0.10023515922073693,0.18997070237177366,0.023447436530720792,0.1144894458950476,-0.16418995004710052,0.07072538116182706,-0.06670047254972203,-0.144000116988928,0.0978933472889647
constructing-and-interpreting-absolute-value,-0.16942481165213547,0.03690167267126523,0.024668157978558373,0.1488701847080187,0.20629213124179147,-0.051346046448695414,-0.04293296739589569,0.05526352393832062,-0.059346275429097775,-0.07140927360708313,-0.016995254004164184,0.12852630283564623,-0.12744467038790672,0.030718384790632738,0.2896800800202957,0.2000160108496237,-0.06901693896871462,-0.25987108541917786,-0.2023479898796853,0.18362100478041538,0.08089422670932671,0.06841137330275035,0.13270424838169978,0.0998488055866479,0.13915802952608475,-0.06275440312984619,-0.018561704002133184,-0.07359998009497712,-0.21412995867568854,-0.08618566851326151,-0.08573192853805801,-0.04697949814186451,-0.015058746979727049,0.23820308142972446,-0.14867691278924353,-0.07552879365269512,0.12407646185924391,-0.056628473513541486,0.21868916864660187,0.2826105036382602,-0.13093752982394377,-0.0010990251499810831,-0.10418799461448754,0.28843352553225027,0.007926377518606104,0.009403596926923836,0.012912076754299085,0.32563067784894245,-0.014857561618703994,0.06350050335555894
constructing-scale-drawings,0.02081198332709837,0.045323567068873784,0.036759233233954705,0.12011262892881427,0.15884446320874548,0.036397197230438556,0.04150912870718466,0.10290748709214415,-0.12533006924750664,-0.059129172883819046,-0.06603204758612469,0.19791467075987784,-0.015713148072538374,-0.06326393867427103,0.15003185861805265,-0.006105727697042492,-0.3064938651952954,-0.3131214911775175,-0.12279857498912629,0.028567077478520785,0.13894707425936034,0.025821474135203006,0.20336067204107,-0.23226361630647482,0.2824896597616265,-0.15588666812485416,0.1275206140671484,-0.0062996450130990735,-0.07838813261550177,0.02734001931787201,0.05408260849091574,0.0833879923579194,-0.0612268278592224,0.2051500695661071,-0.17653185516196865,-0.003222108817423654,0.17443061466814025,-0.04527555744171751,-0.11023423426531481,0.08521886195708339,-0.22488731380562543,0.17933266450864557,-0.14912962562129353,0.2476704327194618,-0.19797110994507458,0.0964317705301201,0.03369656701516328,0.19425570199745895,0.01054518178443441,0.10158913124325959
constructing-scatter-plots,-0.11060153315750362,0.3396544480120572,0.04742711606611764,0.1115937309259078,-0.026400368670691496,0.21286304099090234,0.09210421457356704,0.007816375831823735,-0.013067168298626397,0.14334006818193099,-0.061168328822458734,0.048755516028348614,-0.20001893168512783,0.13594756798417038,0.15015995813141916,-0.061560739583952376,-0.221443303453058,-0.23766234974180256,-0.10105063045130827,-0.05191811734546972,-0.06965934875838801,0.04050091225933021,0.13287194851962178,0.1841076182454397,-0.09350985602174221,0.001405189516256018,0.26529085371235844,-0.05030193579042429,-0.225552775490992,0.03179011752690388,-0.08730230576708477,-0.06843732484902332,-0.23715163219519275,0.13736569181223346,-0.05601975815026784,-0.00044685562850895394,0.11025272960096502,0.0023484234864944733,0.0826416890639698,0.17102353140050292,-2.917497872416045e-05,0.2724653016604133,-0.042537514214274624,0.16105571287940312,-0.23756805044556092,-0.007395996670289853,-0.18734479475158786,0.20009330676667833,0.06252745339480376,-0.07180593951739676
converting-between-fractions-and-percents,-0.0004379259966501383,0.033265153725521975,-0.038071807312957645,0.1429208381491554,0.02820258379134614,-0.025075031998570304,-0.10108485817030097,0.21006405284868895,0.0009482075090307533,0.014267032414770483,0.04916957921264088,-0.07661328613022343,-0.2037084525573719,-0.09897188154171044,0.17738593671517652,0.23212904087879183,-0.09940173596226973,-0.37202213433782966,-0.13302729589662884,0.0868903730926786,0.10516146465497604,-0.1514616244189175,0.1278525468894267,0.05470194603350797,-0.006966447589023274,-0.03594651322807871,0.1367294996825263,0.03719830913540113,-0.11504518347035646,-0.09774203300283996,-0.10240006485502848,0.05515393862179783,-0.07869263847450907,0.2128066125827225,0.0601913175997848,0.020207314464856865,0.10903773189707572,0.17221323743736783,0.11853405185709896,0.11994956444831319,-0.08167408435681187,0.19689240454401716,0.054070743859900475,0.3201917610591658,-0.11279426441471485,-0.039176745015508385,-0.11893615861113556,0.3773825255917437,-0.04979226628701293,0.20453298891432461
converting_decimals_to_percents,0.1465828432886499,0.14793666727025886,0.14866851457325092,0.1349229691375805,0.1336817343427108,0.15405708789807893,0.13101978770027717,0.1369334937972424,0.14850158605749894,0.1467857988086419,0.13852077206114677,0.13904702511782888,0.13244978749049255,0.13145863517071102,0.15497633544836503,0.142863378222403,0.13404707509472188,0.13915430660155179,0.14096155538088637,0.14769180884044758,0.14557759797319272,0.12871412870093868,0.1386883925822365,0.13774560533693803,0.14212827183469562,0.1437750038411766,0.15320284802430964,0.13813713428221605,0.13151666802634718,0.15053517730581079,0.1454038964896214,0.14300103857138444,0.14671369445857743,0.14126440101016224,0.13947768132563296,0.13616531446542932,0.1447074574025789,0.14544544268554713,0.13309565088562797,0.15147985364370195,0.13521398070586935,0.15107343164853682,0.12319044512585715,0.1399340245824203,0.1403837594774806,0.14194841203161013,0.14508756480159962,0.14856971331529745,0.14139852777944095,0.12806899288665718
converting_percents_to_decimals,0.1424975406424333,0.1470433458465077,0.13998768988586924,0.1342760954110729,0.14011746336397493,0.14156564672051294,0.1331582721256135,0.14619809754845722,0.14638226656428185,0.1499141914498043,0.1419087962649018,0.1370057301104819,0.14740047610284654,0.14006678654442845,0.14247630943292516,0.14348365642017025,0.1485779972489758,0.1434432520730121,0.14176441357226008,0.14338874033017437,0.13288459640210296,0.1449755070794508,0.14156772550795532,0.14684924329650764,0.14496701473678822,0.14160406015474525,0.13529764974955882,0.138163666331003,0.13899837189523784,0.13618089301534178,0.13339259087119662,0.13824802967240377,0.1460817927214807,0.14565520174247662,0.13288037743648806,0.15314798284626954,0.1482641051429389,0.15013904613775106,0.14027083513113256,0.13687172864782574,0.1413622959363447,0.1522701910431926,0.13938758777002586,0.14113000423647717,0.12842129531713803,0.13626874381029433,0.13052202708961286,0.137670312284164,0.1413217072910023,0.14021508790502013
coordinate-plane-word-problems-in-the-first-quadrant,-0.15983059932470106,0.15815121212727679,0.012575096800597464,-0.08078765228540931,0.023162244742545603,0.26750304560039806,0.07116058430059127,0.025426330683400562,-0.07318024913384405,0.07480825329135013,0.004207844160263674,0.12380746892767902,-0.011102690582283784,0.08972845401576798,0.23602653187363853,-0.042715888569028665,-0.09946729183467443,-0.4128482955009793,-0.020627084684866053,-0.061997475715686555,-0.2003319621145184,0.09539619350922222,0.04265617350023418,0.2571020182718724,-0.016741323293231317,-0.003112202778212558,0.24976230953651574,-0.057893354843919664,-0.16245944268145013,0.13901028427429835,0.0070540713489643525,-0.12959498100695302,-0.17593711974701456,0.23944079341874014,-0.10844377667067914,-0.006869923764194522,-0.024840006627982303,-0.09149516024360381,0.20761993482485747,0.13513200010807158,-0.04354224512626096,0.13884361208616633,-0.04501282319786577,0.05104476428739342,-0.1378307661251092,0.1054911669512589,-0.08931203696715392,0.28140857221704985,0.1014328393105972,-0.13699376996476864
creating-histograms,-0.22009224197719268,0.24458596703118524,-0.0276936317930099,-0.044649461529961985,0.019234366278467883,0.06419596915906611,0.07070547801586416,0.15709170222172156,-0.0523221269474578,0.1976703223316374,0.09458290430051475,0.018553349704668074,-0.11939658489246122,0.07435478777200372,0.12526331007221084,0.02174164496254591,-0.26331861215398833,-0.1815497595405598,-0.16440911471799174,0.08924375962182186,-0.06651555422126122,-0.07164555929261349,0.10505851621610104,0.15163494707980016,-0.18493599126132984,-0.08367576596829293,0.20632952919474373,0.01084233268789439,-0.22049708406587729,-0.05882327914639221,0.01433774580548817,-0.12616759541507724,-0.14525911151211285,0.1728942561962794,-0.025486733413245262,0.018406667805681263,0.11054614351110732,-0.021506875105689435,0.14242808474436014,0.18264195573093256,-0.1302799067497717,0.36420358552413956,-0.047977172905181276,0.13719681692172506,-0.31938177742194224,-0.0648254771455539,-0.09485493250638027,0.16900455483162966,0.02723650124141434,-0.03501016351653366
cross-sections-of-3d-shapes,-0.0770852128951188,-0.14699454354332886,0.028045019201389458,0.18976966663372388,0.1581947752033815,-0.10718721628889732,0.11187137582477973,-0.008450030036134428,-0.20923630746624078,0.008833607354973799,-0.21060681457892222,0.169307103384951,-0.05138355550932402,-0.01762409328402228,0.18231043905320934,0.16529321518803805,-0.03561398164817531,-0.12477590055063867,-0.18853337034130296,0.15218141938562604,0.28419411133445927,0.0528566447231231,0.0173274409907493,-0.12485558136685354,0.19393266008183876,-0.10045690138253204,-0.08291183234538427,-0.14321715198859314,-0.1872055859578443,-0.004928336119013775,-0.04957367365717567,0.0694946056067083,0.05964562291127567,0.1493147681479904,-0.011556151681260481,0.061235709489537146,0.3125732987257205,0.011625147242959759,0.11527550679507445,0.1752365353757126,-0.21254091057162516,-0.048502375617538306,-0.1790927591445074,0.2640766219105905,-0.010213285406254912,0.13723196098376714,0.20624603830422036,0.10841359271473841,-0.07055060320316595,0.12089661089738504
cube_roots,-0.030383136902105288,0.12739080059683486,0.026486705763312104,-0.2970544084415264,-0.2244750161401716,0.244599263809303,0.10242170854221375,-0.026760344306437974,-0.0830190919372748,0.06822302374685518,0.09035468884402309,0.020550674713920122,-0.01910600742343171,0.12034485010018643,-0.09681949195051752,-0.03722478577638647,-0.0756830069858017,0.057791881161776984,0.1646463453920029,-0.04777202606741977,0.04311348868858937,-0.04666607605059182,-0.014313053376548252,0.2025908303888794,-0.21875954063600295,0.19938460430103985,0.19742967608315734,-0.10897485587797871,0.12271794317237048,0.31504757628343155,-0.020538774556713348,-0.05132180310521516,-0.03848041911031564,-0.2580300106138909,0.16720871034254953,0.23519172996189744,0.0775617758243766,0.01008638169090876,0.14860789428193288,-0.019546970066941238,-0.005406701807895367,0.16801395160218177,-0.00421438338036251,-0.24654369906560195,0.12885738312898723,-0.06703265826079148,-0.1840494907120604,-0.027713367542264354,0.1848136223377056,-0.16819711478740543
defining-dilations,-0.0994533946244363,0.1268388010793794,0.08466292232769272,-0.1617161018553155,-0.10042238105266119,0.21776592694837166,0.0881463863192725,-0.2180581615245178,-0.1757327844375676,0.12049153587608545,-0.044003063551133696,-0.022982853601897023,-0.0112779970670219,0.18807696964945256,0.005209958674429788,-0.06454346312701904,0.07722434730169785,-0.11618288844467267,0.0030165706988341512,-0.15207883364941435,-0.2240199059860017,0.13850410094416699,0.03405474126376897,0.4088451218592182,-0.09928997433015326,0.12466348594234616,0.30042048916446784,-0.11096055369108852,0.16913927232405762,0.1633861402822714,0.0024115259759390382,-0.1211213056365899,-0.11024840932630753,-0.15119004312928178,0.04833001745463383,0.05377423569014987,-0.07994416472035752,-0.05285125048820474,0.047586792768353404,0.015298280272097146,0.028568194396682046,0.1905714050159592,-0.07296430468370614,-0.19165773367020578,-0.022694976418119354,0.13801728439014024,-0.14359838079547094,-0.13245117669133835,0.24662846229551902,-0.11147016067283488
defining-dilations-2,-0.11009092184568839,0.09940169884607661,0.06828239687061123,-0.14022088609769473,-0.0827629942898586,0.21335058930606016,0.1013565371439977,-0.23903610656317134,-0.15750650705974964,0.13124218502479776,-0.06002152340001334,-0.01729371474018432,-0.011189226888040655,0.15257628931696288,0.00893524113386526,-0.07100350058749791,0.10401283301179833,-0.12431722432893984,-0.014994613556018955,-0.15178883745533517,-0.24096146055512113,0.1517345459955125,0.04844996093519205,0.41256138903707384,-0.05380522328037974,0.13140608703317097,0.31201251058850304,-0.10852189577561035,0.1657406381687915,0.15981041264914697,-0.014314844238243534,-0.0983579736227103,-0.10977903167095965,-0.15711999373928903,0.050006237684039834,0.044443451924054946,-0.08536011025753057,-0.059706526328547886,0.03361940785368591,0.00875344025497579,0.009132027267204502,0.1813641125947431,-0.08390908863939685,-0.20279954878016654,-0.0040535080272862236,0.1560415980453832,-0.1314725947917544,-0.12775348093176958,0.24869414717446517,-0.09919509741609156
defining-reflections,-0.09743405224305053,0.12840703206310303,0.08339437324895159,-0.17380763053787512,-0.12398091328228629,0.23008466261086025,0.07859290435959426,-0.21307632227359263,-0.18493759748177221,0.10044260191194229,-0.035728125099252925,-0.025460108904083394,-0.009569907266237954,0.20882450616248663,-0.0010690502102564448,-0.06653694294109797,0.0737111931338286,-0.07506106128711885,0.03812554354583906,-0.1656648559870197,-0.23322238365338996,0.12543795320927867,0.01787569062284073,0.4018868931207142,-0.1308782535471382,0.12631596206014917,0.27846820611065715,-0.10897356502400163,0.15340528184787622,0.13560021877278575,0.013695860976378838,-0.1610225710642055,-0.1193659672783705,-0.16153230340052943,0.06141613460347471,0.05336418869286536,-0.07451056545850504,-0.06031466521770833,0.04494179039486904,-0.004849354149947618,0.06257279568630644,0.18237294193041825,-0.04380403371278511,-0.19253503888385282,-0.03949573322739124,0.10368255686176515,-0.13522592046993553,-0.15680238941432112,0.24393911139674015,-0.10540128765033024
defining-rotations,-0.11287321307599704,0.10296322759910316,0.09726244950465385,-0.1514558963205722,-0.11737578275156188,0.2209632757716566,0.053365637987837916,-0.21961594280010027,-0.19523754256485257,0.08969593889428844,-0.0328463222017878,-0.0354799662225808,0.0028943963268932057,0.20058210727662498,0.006073757714350049,-0.05270607189740296,0.09727772418019857,-0.10849976905797921,0.011875545359328386,-0.162332946708063,-0.22308807256588314,0.13937126133843378,0.009351207065776771,0.4236107431984606,-0.10173688162000469,0.10830549794802025,0.27986688693692396,-0.11371991426593543,0.15229753003979468,0.12169416206105177,0.01611637023619959,-0.1658169999343539,-0.11958358309018854,-0.16789898066584713,0.05241095721690499,0.05626900513800159,-0.07902053048325246,-0.027446232102331485,0.035791477919508444,0.01479045545805015,0.06422964483216693,0.17756785931858957,-0.05097865603984214,-0.19638817456972515,-0.04568000568395021,0.08656213732042045,-0.1359866064147415,-0.1682434602794332,0.2457245094184578,-0.11396360450653027
defining-translations,-0.10619176817125853,0.12536059043237452,0.0827569393722871,-0.17890855541278472,-0.12183376553412267,0.22810706185516222,0.07330278728256447,-0.20577872643141304,-0.1763617606616311,0.10547658277352723,-0.024671210015678704,-0.027238336911891776,-0.005018578295958867,0.20531275549642658,-0.01187413835744253,-0.06891802090095187,0.062081534698557886,-0.08385951320168124,0.035436997005451956,-0.1619780652340974,-0.23285007951513295,0.12423774832017474,0.01828373732418695,0.40489135115361974,-0.125653462728386,0.12915186892368863,0.2774955744682131,-0.10194934277062556,0.1553293819546201,0.13268986173357697,0.018262066067492738,-0.1515809390700547,-0.11545517169160713,-0.16459817385263464,0.06186946811058107,0.04500355464467683,-0.08142153973103429,-0.06395336529771325,0.04609210272657608,-0.0032509459488423496,0.060859023565101804,0.18479010933383114,-0.05050150397259916,-0.1936622368078157,-0.03601116257257949,0.09817346306526342,-0.1477098008303406,-0.16724052250106414,0.24916549636173113,-0.10885797735427095
dilations,-0.09989830369732446,0.1357949454678821,0.18768543205412055,-0.13672836675799063,-0.05590421078988376,0.17709658405228937,0.05421734258371387,-0.17681691063201307,-0.21312248056150696,0.10382144481887452,-0.1098391061408641,0.032649206988558326,-0.03723330648608742,0.198614576571301,0.018202928040890857,-0.026638409885608984,0.032497469955013666,-0.2873176958479104,-0.010030583088761152,-0.12750409386091355,-0.16703549869441278,0.20095644771833895,0.08900612225260963,0.369076637160921,-0.014531295947921217,0.026434861621280413,0.32189355992257607,-0.1604428531201979,0.1828224079602105,0.20060878249461153,0.03172587548520803,-0.07354310568856744,-0.08370650921850407,-0.09012880966115637,-0.028906966603010446,0.06231521207760886,-0.10343363841563291,-0.05316276650919309,0.08139594805086302,0.0390404611221994,0.00836678516243599,0.2017836696083104,-0.15200497890618045,-0.13889845137535767,-0.048425129988286506,0.18794782275951755,-0.0704741441172196,-0.061209097231702696,0.19229527632810636,-0.08338976022639763
direct_and_inverse_variation,-0.2050008174980821,0.3390788264293345,0.05250247260643036,-0.22210053016198747,0.17099485303324286,0.1855854373159749,-0.008368748620777154,-0.16643274801646846,-0.23512576239018262,-0.13609350939017592,0.14707471890228294,0.07201337935851959,0.11288871806720846,0.12026824219463453,-0.08624207712535917,0.013015705915646318,0.019014417662976547,0.14230842364680119,-0.04326932747649624,-0.05253526106775663,0.01299512930406946,0.14986595322691246,0.007760409781200889,0.2258352470327273,-0.01073530643027638,0.11552082553122142,-0.005100896106695852,-0.2493356198841526,-0.005713169449866939,0.1707521775456161,0.1949726192395842,-0.08460861908103198,0.05413768375411438,-0.05477594749320407,-0.0799512716950019,0.21220210625762861,-0.15488510410390374,-0.03164597759966162,0.2618406051198199,0.13015849133652793,-0.001955290219930555,0.08579819391001829,-0.046730375014105555,-0.038166998391418995,-0.09772379285594665,0.10397863571798911,-0.22060288813218396,0.03825896766242192,0.2426423542926349,-0.08280163893030924
discount_tax_and_tip_word_problems,0.1416941454999326,-0.08718511649734188,-0.21922480839079309,0.1621305910735792,-0.08747493820901366,-0.1474605069030949,-0.11616982339133135,0.17981245140132876,0.023379482773944204,-0.025767629544948146,0.04158563057069357,0.09756578150271816,0.09755642452249022,-0.11178962224055704,0.24389624397593976,-0.005609394723356052,-0.3644271838372953,-0.21813763405575173,-0.03940105372769137,-0.06861018356623651,0.1764607395630093,-0.03511001451489728,0.10253776345927113,-0.005278477276860892,0.12483291161562826,0.04716986821487895,0.008533289781257853,0.03439500628329589,0.14566804462256852,-0.21089371501884663,-0.0013456387864704898,0.053203433684558266,-0.014344183959772024,0.3205817387398729,-0.08717748707368535,0.015830140261782023,0.08773812737474346,-0.03086678339125511,-0.10338620875360005,0.26912199537392395,0.027639279533936818,-0.08350794189825744,0.049713888040821,0.30724577310686385,-0.022819368895703986,0.023978581598332188,-0.04948284032460632,0.2884635111439726,-0.13242695372727473,0.010446901600357463
divide-polynomials-by-binomials,-0.13494337953016794,-0.13094970357645683,0.11182181756865973,-0.07169974311826227,0.1511947567612417,-0.12435095178428612,0.10498606813803905,0.05590859374363768,0.06041552017389593,-0.12459830383303463,0.2482435552869616,-0.08049375643934967,0.04542521111383271,-0.24154905311400748,-0.008774437828289055,0.07853976532495151,-0.10260051919685721,-0.2961468834722904,-0.05478915618912218,0.010145619309393547,-0.03318441484422557,-0.09199964266902802,0.00025027306622959914,0.19461841421243586,0.024746813575684985,0.05966549537472119,-0.10780847493485614,-0.14570922689986307,0.06192184494685481,0.08655890251776166,0.1571430863329574,-0.23550076738018652,0.09319728542454722,0.14583380735331805,-0.192336707128669,-0.04343294366747556,0.011858499121796635,0.13151299540687295,0.12762719588310142,0.13067456359554128,-0.14255194313963906,-0.15439302641873645,-0.094018499585972,0.29545984490082294,0.20188378606604612,0.22766766715515518,0.3052989018321244,-0.05313949615555731,0.031206251653018022,0.11741517919681348
divide-polynomials-by-monomials,-0.08935053764867,-0.18391919727498351,0.11120567445358355,-0.07662180275321813,0.18563050705255107,-0.12403808956516128,0.14677140287059806,0.054166076432291294,0.03531133243439243,-0.13498989860494578,0.2106218911775027,-0.10718045325110141,0.09701504692640173,-0.23916272250583026,-0.01804250044655164,0.1520917316138632,-0.13734626283229145,-0.19705389947145935,-0.05273785927418229,0.03984912032881369,-0.03023224556319948,-0.1635839484305176,-0.02426628011955374,0.25209654428356226,-0.022586077179445854,-0.025274068772899637,-0.1369871369981037,-0.15608780859911373,0.10748900646153098,0.034288753823565866,0.1714969163190815,-0.21449437259948956,0.08817233969144334,0.19073518918492238,-0.22423917217944578,-0.060280234556489176,-0.02448957718649304,0.15633598202597734,0.029205335720850392,0.2045641400657532,-0.1632295598189187,-0.08992916799910405,-0.07655552916763524,0.21384404224629303,0.134914324853277,0.25537476568928247,0.2547353515446603,-0.015525587547127042,0.01949425122339963,0.11348666297368311
dividing-fractions-by-fractions-word-problems,-0.18043566126349753,0.10778552225856669,-0.014957950533726724,-0.002715215001612818,0.15958164049334211,0.023751329016146776,0.0023028057784217565,0.20826118637786337,-0.06459747535604857,-0.06742166843766913,0.12699632250221923,0.012626999314785082,-0.0696985672868606,0.060716219156045144,0.31914216058020933,0.08966330805211328,-0.26421001806012184,-0.2751292478604552,-0.09687424821828315,0.13713056702162765,-0.057068416697554504,-0.07124586596728974,0.1542329280743813,0.0591299809978786,0.040243728965669766,-0.023335851655872885,0.1679006288053752,-0.05439280913451128,-0.2486694276426194,-0.056874207641965185,-0.04346363972091877,-0.058102675677636016,-0.07500591382300488,0.18228367648284266,-0.029466565945739955,-0.0051940583442841035,0.037152689823580554,-0.0037844428916862863,0.18485110809114214,0.19469181355080992,-0.1745717167320526,0.08156914626353386,-0.06271626365966694,0.24372049725296463,-0.20125383024539778,0.048752409252138564,-0.16266675605322034,0.3828442772016496,-0.013438278280938574,-0.003839496407871763
dividing-integers,-0.29427152061083783,0.138031912407416,0.04443931565440085,-0.17036826603312166,0.0708217144647261,0.09295119939423804,0.11613956824334293,-0.1581852925753071,-0.14237405601726857,0.048155848244089104,-0.10317487441685977,0.15628895171438187,-0.172847527796573,-0.06226735406111393,0.2093840888197538,0.17569883331642033,0.08211900561588678,0.11741581626086145,-0.10700917505575591,0.18833024292348544,0.13853001641521634,0.050520811623996825,-0.027805130308075215,0.29102688389014997,-0.021530867310733393,0.036762332552051795,-0.024778931019771147,-0.2212597856135724,-0.1802818989017715,0.13953017635013448,-0.021141966015132074,-0.009070950090163859,-0.09276224131680631,0.10185134847040032,0.0347251522857303,0.06150051953972337,-0.04743125999626654,-8.076099946678865e-05,0.3395085862332124,0.1160170672799632,-0.15872446069506532,0.08906011232074287,-0.18468773413570008,0.1703262715557089,0.08668450521861285,0.08498326796839926,-0.16959082193136035,0.24180758098609095,0.11546296210014963,-0.004912500844472808
dividing-mixed-numbers,-0.07257837851183949,0.22259079189593534,0.15996739957718517,-0.43245445537644767,0.07870010124092186,0.25018506154830455,0.09031100204638759,-0.16968411057257157,-0.0019139888903646385,-0.05060675377818669,0.03957086691890369,0.017721639206096113,-0.055389979217258724,0.04975784151823449,0.05574959956613301,-0.04745189282067179,-0.0690559066599162,0.13935866818200177,-0.015985329080083835,0.04899764049632095,-0.12733998391522208,0.017909679611900136,-0.007471847071975325,0.29941065701156605,-0.14649783742470263,0.10565143883673005,0.08106658511454826,-0.22588776975902294,0.010097825209483139,0.30191687314572807,0.13882378710952936,-0.09814270762640864,-0.014136039907127706,-0.1506808406852918,0.025612109035008615,0.055230705691374206,-0.09958095086273436,-0.012490334842565443,0.2226451898933504,0.001815564460285014,-0.056159776832452206,0.10310019229922965,-0.03858712603468939,-0.08327363058286374,0.012738610435476824,0.06946711594931164,-0.27362976793041294,0.05864647002120155,0.2227743820838884,-0.16320873368719174
dividing-polynomials-with-remainders,-0.11909826314508457,-0.12225546805652045,0.12348101571593022,-0.09699802453220313,0.20443694470346968,-0.11261776746723536,0.21256751667774648,0.09152942676605377,0.09005633152054852,-0.13142777737686448,0.26190234934540885,-0.05668844615765493,0.07051723196438198,-0.20069646656890255,0.01703071598693463,0.15217707945813833,-0.16182316038818823,-0.18865362323913357,-0.04110004479354226,0.05055434542759055,-0.05680812766390512,-0.14999161007058612,-0.029411372509424074,0.13134996745641217,-0.023614115548114753,0.008669591463982608,-0.19832542496348043,-0.13392052592579262,0.07126560467713561,0.058470499644491664,0.17152480907640902,-0.21092874970012276,0.06551398029013451,0.21567453742817844,-0.2466749614660036,-0.050755929141090596,-0.004004998640157412,0.10199720274341938,0.040542981782632284,0.19737307791890438,-0.14276655161028606,-0.08733577022213276,-0.1042498353291944,0.23834976680701117,0.08847103909828115,0.2589874364245124,0.2464574189634191,0.0027981281569854897,-0.002990144455957304,0.15971810613034673
dividing_decimals_0.5,0.28724780159601965,0.24764798300020788,0.21924689688130466,-0.2448810889337318,0.13722709541108075,0.1908382169841648,-0.04873490984066357,0.03531897543078418,0.20328793199192552,-0.08800304457498591,0.056755912761020474,0.0594726224765658,0.004415442528757656,0.017104818386413406,-0.3071778290041597,-0.08054422654877258,-0.020098937424380174,0.10466661680698101,-0.04465954663561718,0.04993020110930757,0.03823134936580918,0.13507049083299902,-0.02284560985667559,0.09254414529131953,-0.04672449615905556,0.07559080784914018,-0.09253773181943804,-0.22411689778480226,-0.2211856425032348,0.14968259818614912,-0.022112938241868683,-0.16372630981623273,0.0027536813900639018,-0.3069435595235043,0.03879552158300251,0.009994981753529543,-0.09796237716593695,0.207392568216635,0.05130484561683686,-0.09412654504818933,0.018602399622136598,-0.02814681009001439,0.2098695050953871,-0.14168467167709084,0.04685244918925875,-0.22399812768024754,-0.1488417650034252,-0.0990496241862715,0.08551707764158911,-0.07402528789520457
dividing_decimals_1,0.2044657183627142,0.196793596629813,0.2432181636279106,-0.3870388194522178,0.11657303225901139,0.22080755191951926,-0.01385925670909895,-0.004672261119247096,0.11016638644103628,-0.1830782690980362,0.035632990549700226,0.0508630171012182,0.06868780225929555,0.02574881167155336,-0.22809717511966643,-0.061994869525192,-0.047370650131043406,0.09670565542816724,-0.0010007985843971704,0.0518415285534199,0.01679976616960727,0.09184429214410121,-0.061080416414027665,0.2347319528890142,-0.09731521257115185,0.10049259752060218,0.021507390106021835,-0.25340132671247795,-0.1534348944365008,0.17155977571533804,0.036269696515198006,-0.17274395274713167,0.02824792384268229,-0.30015217600101174,-0.027599746543728244,0.026888263919631845,-0.09280982287686555,0.14524772995655963,0.10694899940889607,-0.11398279174782205,0.01812202350804636,0.032580676676833904,0.06547003284937346,-0.1511360526286292,0.059567790284367185,-0.12188004678528018,-0.16581813852710164,-0.13384458049634512,0.15819744325167162,-0.15201845979831952
dividing_decimals_2,0.1846411217670859,0.17460235326203177,0.22705181006934,-0.3870896221762099,0.10569141952819826,0.22492421043078317,-0.011864576690540344,-0.029397343974230664,0.12123265610482295,-0.21561288640491302,0.05881192068892991,0.051587763075286855,0.07957806012827702,0.023605723794079485,-0.21184938398127762,-0.06608302968122091,-0.05674668715873554,0.08698138687148027,0.023004159046665234,0.05810275639127282,-0.011730576788719202,0.12466141771534549,-0.05052124791517579,0.25592662439486374,-0.08833693571928795,0.12825858383028454,0.008328554947379045,-0.23453619674157666,-0.09986361759824211,0.16775348977661514,0.033364967308050546,-0.1628148785743603,0.03729167372460608,-0.3174737806249434,-0.020756795864811203,0.03546326528337162,-0.09755112126229995,0.10449755021291694,0.09782712531695933,-0.10783464405184122,0.024827882357433544,0.023003023206918903,0.08295739186108693,-0.15751489353539577,0.06989423403840274,-0.12780927831747113,-0.13970308495155695,-0.15273050301787638,0.1986656903777007,-0.1498700015320739
dividing_decimals_3,0.31304616041194805,0.08338211143274173,0.21266862778587808,-0.3307314578524376,0.17083975537025992,0.09415589124250583,-0.04159776519407064,0.014234126162930887,0.18486825540988078,-0.2766893427265322,0.07054609680838896,0.06885563168714594,0.12229723798745945,-0.039075887295156084,-0.2957631332484649,-0.005686812734358483,-0.03279134163387689,0.14424071571312178,0.0013635687509826258,0.07869499699810857,0.08310080173435556,0.12039245062098211,-0.10934216335401137,0.13309015561762788,0.00154762131396731,0.02726397982232288,-0.17504507543030098,-0.22896344010413894,-0.15918015770973645,0.12205585549430875,0.04467153494358825,-0.14319193672993386,0.07463615799838474,-0.25827245814406474,-0.05820580559891724,0.0059088077667895636,-0.09313911703704135,0.13849799752291542,0.04806843200277911,-0.1307270769087863,0.04076864173878151,-0.03669973327779077,0.17288236959945796,-0.10923347516951648,0.10977990415316927,-0.15765352269789734,-0.0460593013366836,-0.14162246267773135,0.09509664266696959,-0.12003548910837417
dividing_fractions_1.5,-0.09451277521107132,0.18531844732886707,0.1762106588525089,-0.3945290424836404,-0.028861424397885065,0.2684411623756399,0.06013257240331777,-0.14242814285606065,-0.03793012030135275,-0.012413120131977085,0.07957897436966503,0.02568194438882691,-0.05691179928102149,0.10510484662167732,-0.026130672560652424,-0.046862928880547154,-0.048425813849514714,0.04602953622951094,0.00799511651624327,0.022646079980634667,-0.12400385758020459,0.026838966867609004,0.013163562438350016,0.33478100527119153,-0.1858478224020423,0.13334073444402522,0.12440510526815023,-0.19253189246749086,0.020614057751605363,0.2732008308831618,0.14572811959964652,-0.113447786376437,-0.002451316194801911,-0.26459915613261104,0.03485833220391213,0.06694291232353464,-0.10398348925546007,0.012457016162544892,0.13062323070401743,-0.008674826226249991,-0.005264950104537768,0.09594136389393061,0.028638697524545103,-0.15494408811707586,0.012934635001680368,0.059359866116784885,-0.23877534549333845,-0.03827648113041151,0.263167274554843,-0.1753384322052657
dividing_fractions_2,-0.10757141446540622,0.22895244931608733,0.13751237013545892,-0.3728575212347262,-0.03668880857297942,0.2829873027832976,0.015984170410301396,-0.09484570849986171,-0.02167750298044009,-0.03773973253563215,0.05471149772413482,0.024061585582723567,-0.03971396061036379,0.11144547520507196,0.023950592628560707,-0.0687650527458153,-0.04167003995304611,0.05749878409540576,0.07820654554249247,0.06608294144598516,-0.08431276253226379,0.00711843519108285,0.061751576752103826,0.29461878136647596,-0.12249793360340205,0.20699076266795732,0.18642086054503526,-0.1895938357962567,0.114157367940352,0.26314641198588573,0.05306670878956192,-0.15023556522530232,-0.008511601463437287,-0.24172668254762092,-0.020518464384550152,-0.02538036792794374,-0.07416835926919371,-0.05079735483455758,0.06111085638996626,-0.012962587184660486,0.003357495525838832,0.08853134603855611,3.6380904785022934e-06,-0.17829229852837727,0.013250506545466676,0.09345492220084713,-0.1955056130213695,0.02736073080690362,0.3001386660114304,-0.2529124745697666
drawing-polygons-2,-0.08576302183834922,0.18963385900220542,0.10785194018730328,-0.15703491386000692,-0.1295076607348284,0.2956841153109061,0.06370004781816503,-0.16135528239124702,-0.1661178677076015,0.15406401006028614,-0.044658497954601216,0.020695450248902212,-0.03318737342014964,0.23305919216039353,-0.009948770662091355,-0.07680319257114805,0.004654776150312858,-0.1569868238522936,-0.004942452228529556,-0.18247576418734712,-0.20955366401072562,0.16967124613218015,0.034263495514346744,0.3599864008477743,-0.12001453137624674,0.12169246693165896,0.30394224517016294,-0.09789477990362791,0.13830577203848876,0.1643026637824275,0.012227671163742706,-0.15967908882022264,-0.11187020367125612,-0.10373923867231159,0.03429454779088611,0.04815821483107768,-0.03804530990452046,-0.05655037634071762,0.06538576049097329,0.050331149298555825,0.06934775225989444,0.17196138243313308,-0.05177036556118026,-0.1533612148879688,-0.05020512515705232,0.055700597021197944,-0.14088957319140466,-0.11443239297915384,0.2364333822038127,-0.11511948781476268
equations-in-one-variable-1,-0.1458972035906061,0.04850667486775814,-0.038294392535923774,0.07336943639900574,0.18670113044902395,-0.22844336660524334,-0.007610143342143779,0.18010821572363592,0.09071718243917001,-0.006459415143938452,0.10898160571263701,0.04320017810290978,0.012522093641701858,-0.03534109534008331,0.14997441090601452,0.16173147376789146,-0.2065613039988565,-0.21856230168825552,-0.21478257703427306,0.12326564318206969,-0.029574147359038065,-0.14922123694194392,0.17737324673913135,-0.0961850292926968,0.1811611448855927,-0.07342838866835717,-0.02117940244907629,-0.05329169612852091,-0.2501247776100508,-0.20615115891014232,0.006704050590631802,-0.006896692217324196,0.053132370316017176,0.13549896475640386,-0.03721201588470882,-0.01595008837474217,-0.022532879332138652,-0.10967171201569914,0.08142483814400467,0.21242643414861023,-0.1483162518132445,0.03434374544955951,-0.0027281519719033155,0.30521543460715256,-0.13890581200992586,0.0035125014003687762,-0.049226152272298235,0.3715738047978463,-0.08497512255175362,0.21250597292471932
equations-of-lines-of-best-fit-to-make-predictions,-0.09283275899755877,0.26349419410703073,-0.035527792532450836,0.06922175012281735,0.01779131883468347,-0.018394710677550972,-0.0938591125109921,0.012022272492154009,-0.009335570512704625,0.038852165227401335,0.004098368069068527,0.07176338128622309,-0.15923456867986818,0.1572078356318945,0.21930480788092785,-0.015472548011791381,-0.14704407574519288,-0.23384841406898912,-0.14481264401527486,0.12340388851610372,0.03402742979368613,0.04831174904257219,0.11378640843833755,0.11334583594399134,0.017445558778380235,-0.1252641211561494,0.0026006343747110366,-0.035916846084567904,-0.2874938116288674,-0.3219714932493685,-0.059583666705350216,-0.024091977685771284,-0.03234850389476488,0.30526501307665643,0.016311236349830085,0.0817484323593384,0.1254315431530512,0.12332850889383525,0.12210777425777315,0.10989615892753808,0.08743954087572392,0.19705370946675305,-0.10945682581146693,0.14524755986005794,-0.2569479887316827,-0.036623140751440665,-0.013199177362956328,0.3025318555978453,-0.20067523634437287,0.11657147150302778
equations-w-square-and-cube-roots,-0.20859899068832596,0.12722963911933163,0.019476526900210456,-0.027143481180608366,0.17513865223932268,0.051242860730932295,0.08019960175134921,-0.1706758776927755,-0.13003378044312894,-0.03596981480093332,-0.2719117957865775,0.13862046218246066,-0.011693844520600311,-0.007823641021588919,-0.06380297492763859,0.12209466570745736,0.15660113070947265,0.10783915502357408,-0.18295458657773703,0.057062992151108216,0.10170124517229552,0.15003986073579403,-0.06240116260504252,0.19781012983360477,0.07196915936582135,0.013419561606331752,-0.23422500525835532,-0.45538057247661134,-0.2120442668943721,0.05626908384087946,-0.08265749459845284,-0.01913407838376859,0.06692151518268226,-0.03017944248674603,0.10423821093491294,0.1670325132361837,-0.13019282255336953,-0.003509866633437571,0.3153709829585346,0.08675648522911454,-0.1441773194921488,-0.14236770012761443,0.041163679029335716,0.09928078516291344,0.09477637053857403,0.03551211927632739,-0.08800833422267515,0.16452676962356447,0.011766614484354072,0.04696335419453141
equiv-expressions-w-neg-and-dist,-0.1113651691277327,-0.028225508854862965,-0.02881525177692431,0.14777085448437904,0.055571100572560546,-0.015876330034622993,0.0395644320434005,0.007388420085108565,-0.10841556748386044,-0.010496240461277307,-0.14642225434699524,0.11740792401416769,-0.1626931916791747,-0.10991148911258826,0.21193438712826057,0.19135077323982366,0.222405697410379,0.07254398385289135,-0.08454451312220176,0.23982057204454688,0.30737600008394417,0.13250703624665416,-0.153825799362389,0.10658356765301169,0.1964879743750588,0.020873423546185415,-0.14701336813911242,-0.2699497422904325,-0.2625200835444652,-0.0110710390517434,-0.11325262871628168,0.03175971601806281,0.05702221356632591,0.05679270707114404,0.09347706208634737,0.03920136987701867,0.03131632355438926,0.03319946893423309,0.2576820680789659,0.011285712934519623,-0.22585194377163806,-0.16407708500054513,-0.04208801901754237,0.12279943498466366,0.18233797461780138,0.10608340840111899,-0.019296511384955153,0.2582047996471212,-0.03172621706106103,0.12829658358887436
exploring-rigid-transformations-and-congruence,0.0027774506207141154,0.01931118435098587,-0.10433502392216287,0.0608759987706052,0.14238727348984834,-0.21479238603144388,0.02994562158023314,-0.16047206117293428,-0.30911152120638496,-0.006739222956976107,-0.01701855943137557,-0.044361365714746054,-0.011629368847294957,0.2542226446055785,0.20917194602336428,0.12154776373807884,0.16308915046346567,-0.22778089935939388,0.019795854352710848,0.19423625900008024,0.20941828050071365,-0.03285349273212593,0.12401366537448275,0.10974127412324533,0.21390273784081762,-0.02820326617638424,0.1406739914561267,-0.18398689889747785,0.10928085491545676,-0.08506917572774164,-0.02956432064238949,-0.07647900950065722,0.06857869714564079,0.05205902917137997,0.09067716416370439,0.06968037669563631,0.1875912875264885,-0.005909674179306194,-0.06624336188886706,-0.05444274780489883,-0.07667477588449415,0.10804786907173548,-0.14448433889509518,-0.07136345797532777,0.13394293601243606,0.26263381291619853,0.3482625913660518,0.17725352301313257,-0.013890225620885653,-0.0967859387184674
exponent_rules,-0.305059670791582,0.04527429116134912,0.05149748811251006,-0.1300640713454823,0.1252161530843408,0.32364501686433406,0.25855692591372653,-0.18091679786836035,0.14721413756740323,-0.021968447912592743,0.13931880347638254,-0.04916723740718153,0.07113434184914522,0.07795415126586737,0.032810843994630155,0.13445468443421496,-0.04232729211741677,-0.09274115516511525,0.08022106641340129,-0.05892469732656455,-0.2535966093387524,0.05317935867009996,0.020744882486808933,0.2162145300930397,0.006932105666353758,0.10131492214043603,0.09754887361969652,-0.07999052901164234,0.02294526256617466,0.2671492964502078,0.18745981276875978,-0.09594197483806716,-0.10824538174053377,0.048059566556144545,0.024170736187858633,0.09662056598932219,-0.0618844728301338,-0.15180599428332198,0.30560310196329993,-0.06775070945530776,-0.050113292518369046,0.26792212837918994,-0.17119608465833838,-0.00507067810100579,0.0049365108869134046,0.05576681475909846,-0.17253191530983364,-0.01398641950001562,0.16462767510562012,-0.036342736555504074
exponents-with-negative-fractional-bases,-0.023374820375146325,0.16479038688017683,0.13492782203209763,-0.155841143182965,0.09791027589909164,0.33541845730476133,0.22171713279215519,-0.14021871415232723,-0.0015961573302832926,-0.11179350182613637,-0.05559254229244671,0.015736471712784108,-0.016621425717955628,0.020782997200016994,0.007686522857423178,0.01182731569655639,-0.06206002743102205,0.20988938238842444,0.07810678826477946,0.0059241650716881115,-0.045031713997841866,0.1102462106898347,-0.03174634633777609,0.3001251164278258,-0.22938687217258594,0.174095244446396,-0.01655391200371763,-0.30894808444099936,0.10963424379000862,0.19203012124138588,0.12110306106995146,-0.16202860850012782,-0.02110512511637631,-0.12311886393851285,0.05686308246128462,0.12402731733151535,-0.13138684679227994,-0.12913758727077881,0.2084922137297256,-0.10037617259594594,0.05074758233182636,0.010716088056992775,0.04316970926754594,-0.06362904852595228,-0.046954156525595724,0.040222290223706346,-0.2914014524535538,0.11636086840538987,0.21104611027891856,-0.1313558142801232
exponents_1,-0.0033252742359208922,0.15510565345472144,0.07048967839986987,-0.21970549112776974,-0.04180595507513903,0.3071760662697085,0.1579019802717449,-0.08632812932847722,-0.0025819058752525868,-0.004058671941313042,0.0027211240508633818,-0.038000200237331125,-0.052041789945111175,0.0983533684160736,-0.16789174391284123,-0.026544368366723123,-0.010358263882714611,0.15078759755845,-0.05101849486141665,0.014850126391501352,0.0728366886742258,0.14899916785426864,-0.008778551253615681,0.3382324927840256,-0.203652028294003,0.20003380474072047,-0.04060398492705876,-0.21517884984742167,0.013147838243416005,0.28966700957980335,0.10640147986774759,-0.11836674687130551,0.08399686271386393,-0.20991556858796537,-0.17236194242810612,0.12572263772012546,0.020654056844555835,-0.042208353404717416,0.20463391643320084,-0.08847514047233426,0.09424930381966666,0.16099328177264569,0.08612350125912469,-0.12519696673229874,0.04123218723972131,0.014406372147691032,-0.11452362141832849,-0.09239729369788809,0.22599301235388713,-0.2527417733922899
exponents_1.5,-0.043891741758794865,0.18763743187030296,0.05791974908971036,-0.15322580418237233,-0.07758181482380955,0.2950404974435833,0.17891388451772164,-0.08246191207097606,-0.005991103483351639,0.04489258763961388,-0.0031841189194926015,0.007519799731603558,-0.06794771966206062,0.12720976820431984,-0.06554502893482674,-0.010604415027350864,0.029331696619881404,0.12542767459293094,-0.03531624379444332,-0.038984175343938436,-0.010673842724534689,0.1411110186091625,-0.013998602789301911,0.35148056303521935,-0.22064716908131443,0.12485100263579178,0.029744612483347824,-0.27269405202493424,-0.021026396522570247,0.28723835092841965,0.13651345793556757,-0.15061881550607753,0.0010672711423435858,-0.1662978653987903,-0.0733112534175921,0.18451361290826185,-0.08881645470836189,-0.0231780756060262,0.3017074939179574,-0.07088212487568876,-0.02622527615775537,0.08421104305239452,0.07082622855571764,-0.14885605217475112,0.07069338642567517,0.07058436117589745,-0.18555953650507384,-0.014423516981878924,0.25868153197560906,-0.17853866224952042
exponents_2,-0.003573944850026296,0.16219720286338193,0.02797979386191917,-0.2435234063867218,-0.015921867075186225,0.37784040555977594,0.22919558653238675,-0.22442711969985357,0.07885587065305232,-0.05058231478672265,-0.016232907951557435,-0.0514320735795449,-0.008843617501993127,0.09857447045521066,0.002414526635199988,-0.0419597422033274,-0.024416848101462777,0.07273597933446682,-0.017101806292604348,-0.033181074848661576,0.004606652762790184,0.169625843683164,-0.04293807014149809,0.34773141801622054,-0.2489202669333341,0.1828989501136836,-0.04171836589352143,-0.1649258340957323,0.08576771923106276,0.301693138614874,0.04637055838200893,-0.0777114406987659,0.03259775446922848,-0.15393885032674223,-0.0805190349910601,0.1046343183047253,0.0011363665825368488,-0.0034396103780929485,0.1771565186451118,-0.059380592561277125,0.03083327614571752,0.12607411859946388,-0.015143257153724702,-0.06740843631059817,0.04606690318471343,0.023415559874402848,-0.17715806975176968,0.024960831959844706,0.268668904763165,-0.22154443359700535
expressions_with_unknown_variables,0.06269801342146691,0.21119058051877238,0.028298993884089862,-0.21060069309174093,0.12523793390344898,0.16292783299221525,0.19453008076191514,-0.12098482841949984,0.06260881399156258,-0.05010030524459322,-0.1308615962679917,0.07080824127804863,0.22950911740620106,0.017605601677660843,-0.052995356253437376,0.19359351766167399,0.06306258374216513,0.05129854002622321,-0.21343331156565304,-0.25790198752959564,0.12164729250912401,0.2782592776805392,-0.09986523158504768,0.18206026720282684,-0.03833470700843513,0.1100876240391031,-0.14188509658345153,-0.3396079763868665,0.08133848614616492,0.12997122714917442,0.0594100706767361,-0.1913403112683366,0.10426474460935667,0.11583812112128385,-0.13284057116319367,0.06812795695282056,-0.030426754470607397,0.10972521768120583,0.14016900342230665,0.07811196461497551,0.13390840289668945,0.038402403714099226,0.09383963741961114,-0.05653243294406348,0.30178377911692433,0.02626782773913003,0.03184317632195411,-0.01923107558432894,0.01298355488896816,0.11412843152352947
factoring-monomials,0.08126668707696215,0.19595905252103835,0.064829396997285,-0.01012950384661264,0.16411805103866495,0.13146349244995556,0.12880869269283263,-0.024920578541357378,0.006321636364581608,0.02401294299315281,0.10109128086875926,0.08598194385441363,0.0568900040258279,0.20484982513125655,0.039519657207956985,0.2770834181894965,-0.1629683370085503,-0.10351060369425352,-0.2657006407859144,-0.045806698231549065,0.026370424618041594,0.3617924792860139,0.030758589961027774,0.10945871621545371,0.09699226850838595,-0.08995509493507355,-0.08490823091278897,-0.2754564846092392,-0.08635300234757237,0.16017897739199302,-0.016994955969140572,-0.046962635612826834,0.002904414173983104,0.2443597564126339,-0.15333807787155385,0.03350369463598067,-0.14110979400328358,-0.13415038832926757,0.1680329086522396,0.1354205954695209,-0.1950164448439167,-0.007829840117529765,-0.058204262896219085,0.15894183727315786,-0.07210829625482251,0.276615851184015,-0.007955349305153554,0.16641373097628898,0.07524857949506113,0.07810711003692712
factoring-perfect-squares,0.25662597140606624,0.08540841794208046,0.21398123184090545,0.048806894590979935,0.008564847371776393,-0.030334460714638627,0.299282924228028,0.04433421061379532,0.10213062397844865,0.12503333093362437,0.18774794686926774,-0.006909373052185198,0.09154985516473176,0.17274403371114813,0.073049803619317,0.47576244599073625,0.0036360580059683805,0.06852488560261161,-0.05819570571774762,-0.09920607953348556,-0.05173279144086987,0.06473466676397348,-0.04187973091205993,0.09967473985621231,-0.009517186864059323,-0.10217891523745193,-0.27239162143767526,-0.17252250978413053,0.014553242421698642,0.11401697329919958,0.08451427022313787,-0.030823269269996692,-0.20969739560708284,0.10823287266756583,-0.1964032135637134,-0.1091602583383644,-0.04051129218449325,0.05800075134598515,-0.10894874220780547,0.13142110351214353,-0.15732325733900004,-0.19380355839463834,-0.12563519273853077,0.005750208583933334,0.057736517431066225,0.19748347300681982,0.041664402039918766,0.1306600636473472,0.02594291843228615,0.048207389091580705
factoring-polynomials,0.13760886750393417,-0.015992076532464535,0.13513382137814992,-0.020953562435309596,0.09703114082834041,-0.01994392517826387,0.25482718125562703,0.13666885996184625,0.056205118183031866,0.17007429402212332,0.20050879549060274,-0.08963664453545274,0.11925989247241114,0.20682124892695827,0.05515742370246254,0.23940031801065614,-0.17448269515689308,0.03791417089604728,-0.02738949928011602,-0.08710817669083959,0.10668057554118489,0.2087880270170637,7.93173488754768e-05,0.02526117544590988,0.0428488833159319,-0.21474594427693872,-0.1818291885847278,-0.23682861180261192,0.08081201560069533,0.11225342700689078,0.06351194662365191,-0.03495339865507951,-0.08370395561839308,0.20855777685284807,-0.3172794096778785,-0.16653002625232585,-0.031008700595807633,-0.1289109119443788,-0.0012453698571069538,0.24033937469727018,-0.2228793370670599,0.003597253679867485,-0.12475695155502066,0.07718685354585017,-0.10541130617456765,0.24117199691632274,0.08590119346988849,0.07582010615678036,0.07108886914011939,0.027791882401800257
factoring_difference_of_squares_1,0.09929228162594668,0.2527457692211182,0.17534796307543746,0.06268659475633277,-0.046127460998506745,0.08275174944121663,0.255324463425422,0.04320101927317019,-0.023355273527086162,0.3981406031417338,0.17232318812423045,0.04230812888925441,-0.13838621338742124,0.15407792328923262,-0.018265047135694382,0.1659978946308685,-0.09089078928211462,0.25665738030574115,0.18469697537311336,-0.2961427558065367,-0.033783454116947435,0.040188367698271214,-0.021700008714747768,-0.10342690333340454,-0.06511792671843314,0.06297368820755435,-0.2915097517680049,-0.05476271137545908,-0.019816690550042648,0.33447386688033803,-0.016176944319714417,0.005257061341936661,-0.1572642738397748,0.02074617047368082,-0.08962277337214156,-0.12134129668469662,-0.16314158254676428,0.061312573680205956,-0.10586482505710548,0.02380721142665356,-0.0808802273960358,0.050705370613724474,-0.08236681364930025,0.0023526311217094277,0.10465038257016737,0.07730993026158273,0.0837896220179993,-0.02930210198766548,0.01172650587031125,0.06856143416213559
factoring_difference_of_squares_2,0.12242929147316162,0.2714535868334836,0.1261163577913106,0.14682019413159902,-0.07968950301037858,0.08821761953068533,0.3014912260162675,0.07105664264667462,-0.013213105484733114,0.3750573735493239,0.10353852155706186,0.04793379298826991,-0.11886647334854887,0.12487337453931806,0.0074518587444762615,0.192892461393618,-0.043453428351845784,0.2616235196925712,0.21978118982757083,-0.2691419218553192,-0.03518806832681559,-0.019454995908449894,0.037565730856022675,-0.03605668946876016,-0.07899254756541066,0.0450846030031114,-0.2475876410174628,-0.05743462434891381,0.030445264434544886,0.3168777300235333,-0.021952022710586126,0.01029671361365884,-0.23612177771260123,-0.04097554557852071,-0.06461996427555282,-0.09943427363889099,-0.15245408441729974,0.042453286008692644,-0.10431848406966965,0.09570703149268454,-0.12833504420073993,0.0226220010543979,-0.08847118391556504,-0.04572298664961965,0.05084653660589951,0.13509609009766782,0.07516840248122433,-0.04752182038135745,0.02241536068940086,-0.0027235036884964243
factoring_difference_of_squares_3,0.09669095313600305,0.2707479288906756,0.11892517385835419,0.12492846023210992,-0.08129707795622165,0.11834713620233793,0.33679800948407673,0.044363310873639546,-0.005186244445795213,0.383626500016375,0.09719726096436619,0.045802644232615736,-0.12551099159202558,0.13401593766002987,-0.00897061718467063,0.17597630299065348,-0.06694386356553536,0.24561788434154966,0.2158012602282846,-0.2818377418423443,-0.044679700778431614,0.000408270610343444,0.03521393083282352,-0.027770716236829515,-0.11945574768777406,0.06157100701522622,-0.23257787756482065,-0.05033043029773285,0.015326661156210782,0.3382831712560991,-0.024758883023855198,-0.02095833663430581,-0.2299803399095055,-0.041091227746022856,-0.0442168676936132,-0.0822854423453466,-0.13965267776342133,0.05853310847795348,-0.07392327819369982,0.10324303125679046,-0.10286981073112646,0.05605020078907528,-0.06565159955844035,-0.040746122336640885,0.05095539032585927,0.1028338758333867,0.04532998393304028,-0.05165188127999081,0.05160791664905378,-0.015436904236300036
factoring_linear_binomials,0.12652607095519255,0.1816689650172286,0.09895063875843439,0.21650656877933136,-0.04811946333747178,-0.0008460951845271559,0.3044309979092747,0.11491433609235363,0.026702530951316396,0.3232267005061465,0.11806949158215427,0.0646501730518664,-0.1416128126709995,0.06231888569734438,0.01615879455423853,0.2190302225640454,-0.0916096001286954,0.2846890058845539,0.23840516409909027,-0.23689562253398233,0.054838896853166286,-0.04883930768916852,0.04276505289817387,-0.18300014878829912,-0.03886265864674061,0.01393396043491637,-0.34333417433012153,-0.017209680164655954,-0.01970856075192163,0.24605940445943747,-0.057124969013183584,0.051949386398325144,-0.1900994995154731,0.035883257040222424,-0.07812584663572088,-0.12853644000637074,-0.10807396923309157,0.07460519781217755,-0.13238838240556838,0.1101732461208112,-0.11110677840449636,0.01742573699219831,-0.06599236649210906,0.04461438318963833,0.07870016034734971,0.08813112139472076,0.13576276238178658,0.0034920277928572737,-0.04516534821313548,0.018926170636908077
factoring_polynomials_1,0.1347775687159969,0.2945587069914799,0.14309891264794697,0.024798070163590653,-0.022676013505568682,0.059350654193936855,0.26545514300319834,0.04937726500051281,0.008777975503146306,0.40392209291949754,0.1533044382087389,0.04163348320503269,-0.11484376706559825,0.13913033688504303,-0.037641212824914345,0.16699255841565536,-0.09163344850991738,0.25967139754719215,0.1719651721628377,-0.2990848618072037,-0.011605963508355683,0.07050475893737446,-0.023439401573295948,-0.10415621728005352,-0.07966296995463641,0.08185930207160069,-0.2954289739842919,-0.07135598144001908,-0.018999977079409265,0.30574365679874693,0.016077579616680267,-0.02780400731450241,-0.16123118342008305,0.019110144976262206,-0.09397811734293415,-0.11483152250995686,-0.16223152934369095,0.07468725612275609,-0.07148819459997889,0.04662200630647551,-0.0438062998554058,0.052815921008995445,-0.076651993218801,0.006319875116270394,0.10716196749118448,0.08481667382529615,0.0830753063998161,-0.028868111387094116,0.01197014946337522,0.10168191349822023
factoring_polynomials_2,0.1662006584064765,0.29379110743545944,0.10844815287009534,0.10300660004618543,-0.059622429305502725,0.08828316035828322,0.3304793570984213,0.05544882140834496,0.03001523125329815,0.36523898619087797,0.09875204203336901,0.0650477921062809,-0.07615727921435751,0.10925421205326011,-0.013856731658241998,0.21233927634541075,-0.056145972409330794,0.255564311588057,0.18582237684483383,-0.2717880373762076,-0.024849518338754414,0.013636244179093308,0.03573834865764713,-0.011532651646611153,-0.12297619682606717,0.06815557540483895,-0.25450351450156167,-0.07971222425908785,0.04188861735388917,0.30270731649351973,0.013942379629407068,-0.03958066661296566,-0.23576455070043706,-0.026923275455208198,-0.06782621360551835,-0.08683316531414088,-0.14423733039219563,0.0730493046950538,-0.08604704886124122,0.10805626985447814,-0.08449060760202019,0.02296007013474883,-0.07288828885968514,-0.03539117544262231,0.04438519142533462,0.1497433246073897,0.0674896252555184,-0.051816559442123336,0.043789303760467246,0.046697460568097406
factoring_polynomials_by_grouping_1,0.03317392083900039,0.28990626806798697,0.14741765827627318,0.038556604969023786,0.018491629586882663,0.08174161056514027,0.2695599930650043,0.045055704681722424,0.03313071930964196,0.3686061979417745,0.13317826496632137,0.04390545416895389,-0.13390625069389994,0.1128670667219418,-0.010379456339570634,0.1896936532380598,-0.09547157996524708,0.280969866404223,0.17617721566260566,-0.2908352341421565,-0.04617177161222928,0.015492063335262193,-0.0391264945667222,-0.0919675864986217,-0.10323322752845354,0.08946742138636533,-0.3011385716826175,-0.07814919264070945,-0.07031237723697618,0.341123255933328,-0.0004354802387426235,0.01654013721677471,-0.1956855815689676,0.0014517928931966958,-0.10325348069374037,-0.12638831491383157,-0.14752571694383057,0.08125540140529329,-0.047778995429422065,0.04212544773896794,-0.05039714208499437,0.05666127765828518,-0.060972569344635554,0.04380818021397572,0.1376783851000906,0.042245670058017715,0.03979955386674051,0.008845138041250278,-0.0026067476394183034,0.04791837011309221
factoring_polynomials_with_two_variables,0.026398622919207998,0.2836746465578011,0.22307256987880605,-0.16649788581236874,-0.08982428316921073,0.10530599142724942,0.1832586457714576,0.008296665711709358,-0.030748151525199097,0.2921665136192893,0.09769714699037542,0.14296789140709618,0.034109252943287725,0.2284256235885441,-0.10179516995281136,0.07714860079352913,-0.013856749356854443,0.2199527410724224,0.02026618312753707,-0.2737311478733251,-0.19400640157401727,0.1356815354368469,0.015137386244824117,0.19885582952466435,-0.13193675469820404,0.09932914687341197,-0.05914056449734844,-0.17092689429568994,0.11742041584972507,0.26512986710160713,0.15108457620229068,-0.10566524265924628,-0.25220125599542126,0.08565237277842226,-0.11703521354340277,-0.0900152746319685,-0.20113884550728817,0.04309609414916949,0.028392020916407065,0.04220491374930252,0.03434590005118719,0.10334630079946944,-0.048336232035364524,-0.03167581949746525,0.012772828322456471,0.039387446624851066,-0.018303559621223504,-0.12934725667858737,0.1629521939954684,0.08138145323364142
factors-and-divisibility,-0.04345819006990662,0.08674753150054675,0.0021495017651027362,0.07486589245302784,0.11936179732953212,-0.026806363961629883,0.06852227766531735,-0.020054844241150005,-0.17120063000032298,0.015683253948519334,-0.1340145572215996,0.14908137305581992,-0.038255129569647786,0.08262425833239914,0.21209295691779678,0.2798778471288606,0.15632698284093072,-0.04005041253731419,-0.2053805135020227,0.16826132318777665,0.17353010884447567,0.16610391167190988,-0.01955753430415811,0.1581565519467034,0.08941422481987953,-0.05419547157022814,-0.10628474664692814,-0.29828433682271516,-0.2029528646427773,0.1176833172730246,-0.09977967200459723,-0.02441832864415453,-0.09908943361111221,0.17506663524849378,-0.04379663522030002,0.1366601965280523,0.0128714226045827,0.041986733251109326,0.26377063740277057,0.10221341743951473,-0.26212643638432004,-0.032549960682406676,-0.1435679102332495,0.09812284236511161,0.10040720276259778,0.20453454736039156,-0.08286846216165002,0.25295966685736887,-0.0767018374030787,0.1883152893894956
find-missing-angles,0.08045879060925014,-0.032183337756720616,-0.040801696426748205,0.23501820025807305,0.07742684465991954,-0.027654377919963058,-0.07122955288877136,-0.24200939975749822,-0.08028737242107689,-0.17089077387565094,-0.12679958892582546,0.002440815150392546,0.059796183582672836,-0.12856483104312783,0.11729303074270682,-0.09138057381953144,0.3266305361805422,0.06623445633870002,-0.06940600502485253,-0.22562575592860706,0.12613561736231566,0.14642101012436162,-0.08805864248987808,-0.09381296256575342,0.2743552225174311,-0.0036304439382481186,-0.3467617232611449,-0.06419833224946822,-0.1693615351360452,-0.1072494800498331,0.10261291848337566,0.021644379664037153,0.18749673118982244,-0.03506840011422648,-0.0697273522757538,0.11454145661757875,0.15609650063739203,0.10265476572766373,-0.12782058157348658,-0.09715940492911773,0.1255826376029832,-0.11647045906585075,0.12115077645023777,0.0309149020708325,0.03469434618845649,-0.042411501714795345,0.22886222557186806,-0.09673895911534229,-0.1943646038443131,0.19280420351654803
find-the-mistake-two-step-equations,-0.03645562705355685,0.12819259570757396,-0.12615090543301166,-0.21152378662929577,0.2389388584279248,0.04656201417865684,0.022216536483661915,-0.24266087678366802,0.012044572544078485,-0.07020249069189953,-0.16639451863796287,0.07326187913551782,0.18726245878816677,0.02307194592196052,-0.11690837829272017,0.18171818140764312,0.02893836119446347,0.08994560574498334,-0.1629516359814159,0.20350303262060968,0.002799227758330232,0.023866662464567444,0.07314920008368335,0.16900654050263367,-0.119171335229881,0.05552520678336357,-0.07962154630738408,-0.3709607906081412,-0.07547530286928976,-0.05046070631310778,-0.005621595579340582,0.05309999552943569,0.10152101140319594,-0.15460862936744946,0.1458628108206593,0.09142394664569377,-0.10883971236196655,-0.07998016302909396,0.3361868146625039,0.032539731747726675,-0.07389433944946933,-0.09802929911817315,0.12211257662098195,0.02230714278448801,-0.31148659373159754,0.12195254391847836,-0.13347588503312582,0.09771964968090037,0.03990511337246697,-0.1769464598718539
finding-special-products,0.14035361164115706,0.06616880528785372,0.016827853838289383,-0.14321206613864548,0.17377701249145258,0.05082539083859356,0.36409710534272466,-0.07350573422300698,-0.004633265043267911,-0.04667235574940839,0.03144167489478141,0.013169461512235206,0.024414081655694926,0.2818807080471094,0.10746967511895028,0.3092575807757715,-0.2741670103748783,0.05885801468383525,0.08400026346996264,0.03575861508825275,0.15539975341613133,-0.06326010247115474,0.11503375706939518,-0.19914043094843908,0.04692474798862135,-0.0447267894241793,-0.1487620087833474,-0.2548876684693454,-0.06507265979890377,0.0360692432509389,-0.0023465121154855437,-0.028931413045285233,0.014132086904068874,0.15176795967847598,-0.22978059190111683,-0.035811277082185226,-0.04156876899382773,-0.05099758592546118,0.20815361683924052,0.23028156587754275,-0.007073222261192076,-0.102566565188747,0.007691046726441492,-0.03843040047828511,-0.04272042900138151,0.30470238252255627,-0.0809843314143987,0.17331148902801535,-0.05893149529122274,0.05695981204217347
finding-the-product-of-a-monomial-and-a-polynomial,0.1553540912345256,0.009340634474996593,-0.07255623862451113,-0.11678303696552328,0.18921986676644942,0.08928847364228301,0.35752378528611317,-0.11143302283309892,0.05854642976813115,-0.051358957864484835,0.015979422240417696,-0.009888634446042873,0.03428727695059865,0.23273497782955604,0.11344990313769969,0.30737894827042833,-0.3416226810112079,0.009264562631569778,0.11981643381183514,0.012515737437809253,0.14711503581896954,-0.024782499882084877,0.14083154547223084,-0.16433036462220885,0.047521519831454695,-0.031108809444127535,-0.11193795553184417,-0.24471281758763844,-0.07824000756982535,0.0033682509042984483,0.05464273268006436,-0.01591328443019756,0.01172476223585912,0.14561969627859336,-0.2865013628733435,-0.050065161850542515,0.01230085945594211,0.012460088541410178,0.11654738652988689,0.21897447305978313,0.03595205983363877,-0.05709206602697102,-0.04234305969125535,-0.016627479496297837,-0.012657090335992523,0.3054273917037082,-0.0905025153107947,0.1805706871498994,-0.06417957281658788,0.07469127076561952
finding-the-product-of-two-monomials,0.01334123926232591,0.05487497631055954,0.034996622322449,-0.11477686941294488,0.18641027653065906,0.1361896414125222,0.27421074420512853,-0.18857438677854946,0.02604518608084629,-0.03963813547655223,0.0023035103184797863,0.09189002776169146,0.0068409923252889145,0.20272940741012838,0.0896890844669679,0.2808478660132463,-0.25974664626751476,-0.052853430335836664,-0.05873220563516163,0.030377042897007024,0.10902382013891339,0.12266440897122587,0.1526045540957758,-0.09974331510107046,0.11161089499718625,0.0023252881221201985,-0.07781565469420809,-0.39994346641619427,-0.11024018419540008,0.03950090491444249,0.05941304127842139,0.03933028240940781,-0.00020861591630097116,0.13537499976729214,-0.22028357695229409,0.09374339970916051,-0.03269018603166167,-0.05781451616289488,0.3181120302260583,0.1610368071677157,-0.0020216009827540996,-0.04408083223484955,-0.02978816744694114,0.04819213083426107,-0.004918897562267854,0.2508959946653783,-0.14392280775547367,0.2068200726211055,0.027576702315267394,0.0893106887697046
