skill,0,1,2,3,4,5,6,7,8,9,10,11,12,13,14,15,16,17,18,19,20,21,22,23,24,25,26,27,28,29,30,31,32,33,34,35,36,37,38,39,40,41,42,43,44,45,46,47,48,49
Add/Subtract,0.19786775,-0.10385892,-0.113384284,-0.09780065,0.18957561,0.20201147,-0.030940948,-0.029552922,0.08043932,-0.091470666,-0.16581567,0.016418464,-0.014093029,-0.06326403,-0.12819576,0.043381557,0.16510262,0.077477336,0.13236937,0.0021519568,0.14201955,0.21759994,-0.31244487,-0.16292605,-0.10180532,0.11315881,0.0036233468,0.15847099,0.15246475,-0.049129218,-0.13435178,-0.21933971,-0.026199158,-0.109674945,-0.0428762,0.15039782,0.024669314,-0.04319909,0.06667006,0.36001652,0.25070384,-0.26746842,-0.16735624,0.022997946,0.06982571,0.11462676,0.19524993,0.05060085,-0.06827407,0.03690977
Apply Exponent,0.07551258,0.1708711,0.033415034,0.21978784,0.020232271,0.015071471,-0.03880324,-0.17973569,-0.14857703,0.3095942,0.030062614,0.08959995,0.259925,0.028245065,-0.09220714,-0.003716601,-0.017195439,0.073843576,0.0864974,0.053493664,0.08530946,-0.09520971,0.1000826,0.069547065,-0.13221654,-0.2194254,0.46019334,0.18025501,0.1563264,-0.18577488,0.21819918,0.07406237,0.0971945,-0.08538372,0.13329892,0.18536127,0.038581315,0.18217316,0.0015246281,-0.08953888,-0.039381687,-0.09732991,-0.13294002,0.21151245,-0.1143888,-0.036153957,0.06519133,-0.031891506,-0.03729743,-0.047151785
Apply Exponent - whole,0.23719005,0.07152417,0.020366292,-0.056547564,0.10328623,-0.14810957,0.023701178,-0.05181615,-0.2661949,0.14636931,-0.016386982,-0.0321105,0.3667518,-0.038529173,-0.22105809,-0.08246521,-0.22112441,0.11866931,0.12627664,0.02119949,-0.019757908,-0.022587607,0.055692505,-0.019338723,-0.09818024,-0.10884573,0.3513731,0.198725,0.1605998,-0.2686844,0.029730316,-0.09470003,0.015985124,0.09079662,-0.09850336,0.21235842,-0.010981332,0.09722893,-0.019383458,-0.061881028,-0.2272856,-0.23419343,0.03483671,0.06372291,-0.051962588,0.03077376,-0.15966126,-0.073672116,-0.044107214,-0.11190983
Bogus skill,0.037096255,0.053066373,0.23673406,0.070817195,-0.015543167,-0.009970895,-0.0023189986,-0.071042046,-0.07645299,0.19201267,-0.09757503,0.028134612,0.19146797,-0.009650739,0.016260117,-0.21812421,0.010430237,-0.064584576,0.061164178,0.14587754,-0.23938856,-0.2124638,-0.17976621,-0.046643466,-0.19158295,-0.08997096,0.20111392,0.1788634,0.019980004,0.114787675,0.14405501,-0.35315427,-0.11469897,0.04431592,0.08716029,-0.0786089,0.098700024,0.0554262,-0.31996632,-0.13812536,0.1282388,0.015727611,0.037434988,0.12411424,0.2604318,-0.06447441,-0.020689895,0.25507626,-0.021428235,-0.12088378
Calculate Eliminate Parens,0.10576658,0.21245635,-0.07528849,0.048130766,0.045959093,-0.05500099,-0.04592737,-0.06622888,0.08189368,-0.08005952,-0.06844115,-0.060383722,0.08865821,-0.1792341,-0.025931118,0.24077287,0.16644241,-0.16425276,-0.051539015,-0.07209771,-0.20584925,0.07697342,-0.24263337,0.23125282,-0.13175768,-0.059483934,0.06827915,0.078315824,-0.008456923,0.3427715,-0.056654852,0.18367493,-0.057483014,-0.19696638,0.13560988,0.15570973,-0.0733865,-0.0011977395,-0.20590049,-0.12471016,-0.21230015,0.025931949,-0.07753367,0.22313678,0.036635045,-0.016468862,0.2158082,0.0905506,0.030306326,0.2960986
Calculate negative coefficient,0.10853981,-0.06896775,-0.0985787,-0.21064433,-0.20003793,-0.01711922,0.12927614,0.062744476,0.13026029,-0.10546382,-0.103728384,0.049573626,0.20928368,-0.11733482,-0.09275084,0.010115864,0.2660103,0.04492304,0.15545507,0.0046926355,-0.124398306,0.12802303,-0.20350562,0.17418024,-0.32809943,0.19916765,0.0767006,0.07690877,0.06047695,0.14850673,-0.14079446,-0.22671711,0.019915482,-0.13832776,0.18723065,0.17244363,0.1331684,0.17826538,-0.13206562,0.014106608,0.019846093,0.18808523,-0.14000797,0.098769076,-0.026615188,0.15198305,0.10317391,0.19456598,-0.12236731,0.017749576
Calculate part in proportion with fractions,-0.09230971,0.03778,-0.1549688,0.04580328,-0.027216766,-0.18851776,0.16697156,-0.06462532,0.17286427,-0.1228163,-0.113537505,-0.28152502,-0.068567485,-0.05758704,-0.018067317,0.104941025,-0.07358056,-0.05619112,0.28559482,0.16755731,0.05782077,0.039406333,-0.07208426,-0.028556447,0.16752763,0.08922883,0.19834182,0.032873023,-0.18244565,-0.14802884,-0.07142521,0.2006202,0.157737,0.075591296,-0.028666051,0.22231819,-0.10715547,0.0136488825,0.17376186,0.069412805,-0.10121717,-0.34312102,-0.16550459,-0.021193618,-0.030079346,0.20669799,-0.13537665,-0.25692594,-0.14693944,0.010938886
Calculate product of means or extremes,-0.2663336,0.03990224,-0.14317086,0.057439163,-0.07389511,0.017768193,0.1076873,-0.12967318,0.2427902,0.12631242,-0.031433538,-0.02229435,-0.1563514,0.13938294,0.25542167,0.28078493,-0.13009305,-0.16108796,0.2207078,-0.071656175,0.15991879,0.054419618,-0.0551928,-0.026720015,0.3357589,-0.018129734,0.08632115,0.05601839,-0.07825462,-0.06337382,0.022846572,0.09245175,0.16589592,0.04483826,-0.01180382,0.06324812,-0.042239983,-0.078815505,0.18671562,0.13817398,0.21284509,-0.22093727,-0.027586218,0.04635769,0.07401883,-0.06988929,-0.04894897,-0.18506595,-0.30535978,0.019208498
Calculate ratio denominator from given,0.105508074,0.032914642,-0.13481873,-0.053317763,0.11767032,-0.035077672,0.28793624,-0.012741054,0.23069783,-0.2133859,-0.17016166,0.07478298,-0.034470487,-0.14911924,0.0051780897,0.04933448,0.119810686,-0.1350011,0.072442725,0.07718484,-0.16410019,0.04420177,-0.15715173,-0.20415434,-0.07167488,0.16120142,-0.186189,-0.048088662,0.14565001,0.0151494555,-0.035240717,0.04437442,-0.15129544,-0.047313683,-0.13139316,0.08776492,0.0021091895,-0.12318568,-0.11093225,0.12805186,-0.0955986,-0.07147994,-0.017704967,0.1505966,0.23312347,0.14705412,0.45967564,0.12294109,0.2034062,-0.051479902
Calculate ratio numerator from given,0.11876532,-0.05336805,-0.12837192,-0.019632418,0.057190664,-0.006265916,0.2693555,0.0951781,0.053024493,-0.06834041,0.07107282,-0.2657723,0.17497191,0.11423834,-0.017009828,-0.06907429,0.011809113,0.020659503,0.07063375,0.183719,0.020753857,-0.0044438536,0.15012601,-0.2739682,-0.026284076,0.16855009,0.08704763,-0.042535234,0.15201424,-0.2285255,-0.035045307,-0.33627227,0.16628808,0.21954076,-0.0034618783,-0.103239365,0.072793506,0.08064956,0.03971484,-0.0065060924,-0.0039212606,-0.13859163,-0.096699625,-0.009081032,-0.026422668,0.30235973,-0.24924415,-0.16576818,-0.024709918,-0.2700999
Calculate total in proportion with fractions,-0.03030852,-0.041123964,-0.1623971,0.052376103,0.05485862,-0.13983496,0.19552337,-0.06951256,0.17451486,-0.16759145,-0.16036557,-0.27785018,-0.03512443,-0.0403247,-0.01632041,0.20107289,-0.002963948,-0.11353596,0.249321,0.11497762,0.050419856,0.08142766,-0.09710814,-0.0012497699,0.15112112,0.17769763,0.14664328,0.032173738,-0.13506936,-0.15479687,-0.09392834,0.20098384,0.07086592,0.09556406,-0.009519175,0.24620737,-0.1532548,-0.046904296,0.113062285,0.077102415,-0.12839018,-0.3185136,-0.16874151,-0.0009936101,-0.048330676,0.2072047,-0.14396003,-0.22462796,-0.19877547,0.026854645
Calculate unit rate,0.14700216,-0.05578585,0.059652876,-0.13099924,-0.07193092,0.0062065143,0.25093457,0.032983027,-0.0019167191,-0.03988536,-0.105814524,-0.02968514,0.12023053,0.019344695,-0.043809846,-0.05572142,0.26869026,0.09160473,0.27696106,0.16792332,-0.00729756,0.106937066,-0.12713115,0.14918365,-0.252775,0.2073352,0.21616092,0.21075718,0.10917416,0.06121464,-0.03601582,-0.08807752,-0.17039323,-0.058153965,0.116448194,0.22374794,-0.016583743,0.16667618,0.045262568,0.18203336,0.059595685,-0.045892917,-0.16307314,0.053185053,-0.12451125,0.1476574,0.03368922,-0.030629575,0.04782604,-0.39697868
Changing axis bounds,-0.21846303,0.16910572,-0.14457612,0.19039938,-0.25396985,-0.009294966,-0.010772852,-0.07892302,-0.10461361,0.012213455,0.12676378,-0.14216775,0.032610152,-0.08946236,-0.170783,0.020807443,-0.039897345,0.11662384,-0.27174205,0.04857298,-0.027572244,-0.11504788,0.1637817,0.070062,-0.059007682,-0.23926388,0.06656244,-0.25324222,0.07666636,0.02533895,0.18420477,0.078928776,0.18019119,0.17560948,0.12133176,-0.19892494,-0.010417033,0.029121188,-0.09056975,-0.3648767,-0.16271687,0.13894159,-0.074220225,0.092103854,-0.06966953,-0.0052167154,0.020299613,0.12096797,-0.041158095,0.23487118
Changing axis intervals,-0.14740413,0.061549548,-0.06568671,0.18904647,-0.18033056,0.024437929,-0.061550386,-0.0501112,-0.154769,0.12485092,0.13438338,-0.107276514,0.118152596,-0.048475534,-0.1887774,-0.07419206,0.040451106,0.24543746,-0.3454446,0.03720099,0.03536285,-0.11475529,0.25035474,0.011284513,-0.14755449,-0.2672936,0.0914177,-0.20093459,0.15161724,-0.141748,0.16177018,-0.03725162,0.14657928,0.16188371,0.14162645,-0.1631868,0.037596148,0.07323338,-0.09241512,-0.2519737,-0.068925306,0.15728936,-0.078556724,0.11965097,-0.15362528,-0.033359084,-0.07222049,0.13706651,0.05773178,0.14434643
Choose Graphical a in A problem,0.025176434,-0.043558594,-0.05886414,-0.1659937,-0.34744015,-0.1544591,0.16590567,0.21560371,0.22681363,-0.1460172,0.004389263,-0.11108545,0.101850525,0.011335066,0.039125085,0.0205243,0.062034894,-0.0075395545,0.1838604,0.19225709,0.04899631,0.016294317,0.027577236,-0.12166103,-0.22839639,0.07344314,0.02299739,0.041276474,-0.14027967,-0.19051887,-0.044150658,-0.16956507,0.086908184,-0.11116935,-0.0887607,0.015548285,0.114687,0.0452999,0.351767,-0.12196101,0.2936671,0.0015644408,-0.29760453,-0.15269025,0.038462553,-0.07117584,-0.11586299,-0.012439534,-0.090564795,0.05114858
Choose Graphical a in G problem,-0.012984311,0.0017228251,-0.089184515,-0.114760704,-0.38225147,-0.14245656,0.12750961,0.24637836,0.20234977,-0.16838378,0.020598548,-0.14266023,0.10711106,-0.030746525,0.01254178,0.017104425,0.06545093,0.043514505,0.08122264,0.18945841,0.064601965,-0.025587013,0.0550876,-0.13825868,-0.26674446,-0.005635722,0.021162398,-0.03288172,-0.0995313,-0.17430651,-0.019124815,-0.15633121,0.14320102,-0.1305874,-0.10318435,-0.03972979,0.11192489,0.039524756,0.31103304,-0.18632647,0.2581365,0.015228956,-0.30891442,-0.13209389,0.05156509,-0.06351897,-0.10279284,0.02681039,-0.05242546,0.152091
Choose Graphical a in N problem,0.1564704,0.025435884,-0.09412297,-0.15928644,-0.43984842,-0.16159908,0.20464282,0.02785945,0.15838312,-0.069017954,0.047068223,-0.03809175,0.15882778,-0.08263154,-0.18433022,-0.053313583,-0.027709205,-0.060037177,0.19258839,0.19042358,-0.01656541,0.040950414,0.14753367,-0.022218753,-0.23978761,0.0706205,0.00320709,0.084579155,-0.118315354,-0.182028,0.004287562,-0.079623215,0.13417055,-0.01413005,-0.014478644,0.1005356,0.05476661,0.050489787,0.3201523,-0.21123809,0.15498564,0.059175797,-0.26136997,-0.16689552,0.0262488,-0.09944192,-0.10198343,0.035799522,-0.095423564,0.12122777
Choose Graphical a in V problem,0.04855647,-0.015406576,-0.066597976,-0.1592518,-0.39201498,-0.112843566,0.15047184,0.18327399,0.19491018,-0.12998405,0.016064221,-0.08522551,0.120793335,-0.017773936,-0.020172182,0.008991918,0.090718985,0.015634295,0.1441381,0.1847082,0.04196013,0.021516211,0.06307754,-0.09121028,-0.296877,0.05704299,0.024581585,0.04580278,-0.13535886,-0.17770238,-0.013175119,-0.1462387,0.09058845,-0.1218336,-0.04814973,0.020166093,0.10614628,0.045300815,0.35048404,-0.16632614,0.28514108,0.045299057,-0.29635254,-0.14717408,0.013961973,-0.07847122,-0.11647366,0.030279508,-0.08379727,0.11587912
Choose Graphical h in A problem,0.07849367,0.12870777,-0.056358576,-0.05776429,-0.41149032,-0.088665,0.085558355,-0.056215685,0.09693527,0.027682638,0.07100286,0.09166225,0.22180878,-0.11536243,-0.16975191,-0.046230827,-0.02876262,-0.08569782,0.04444058,0.09330447,-0.06231463,-0.058970213,0.18951224,-0.021138748,-0.27692845,-0.022397118,0.051609192,0.11787395,-0.08596719,-0.20907864,0.069211185,0.030042486,0.15375337,-0.055596247,0.013795059,0.08179589,0.04244994,0.08981684,0.18741585,-0.33134457,0.12183521,0.13314849,-0.16541271,-0.03643141,0.031327438,-0.21185246,-0.14685638,0.09129127,-0.13206708,0.3317312
Choose Graphical h in G problem,0.13083935,0.08858544,-0.083687566,-0.073007114,-0.39497906,-0.15296346,0.12712716,-0.040166836,0.14487591,-0.06067315,0.017182255,0.067398615,0.1889381,-0.14351612,-0.18831539,-0.08044291,-0.054224357,-0.13085178,0.106261365,0.16117619,-0.07475005,-0.06330761,0.16596365,-0.03240016,-0.26083082,0.0069648316,0.030818965,0.11108352,-0.06173198,-0.21725915,0.06361212,0.03607758,0.17843726,-0.06078308,-0.008944405,0.09629392,0.07396322,0.093663186,0.16869523,-0.30194297,0.10968211,0.11375768,-0.24397317,-0.036161464,0.074368395,-0.16259466,-0.06943721,0.065962516,-0.14177375,0.28059113
Choose Graphical h in N problem,0.17078747,0.029551962,-0.033074696,-0.1321802,-0.4489061,-0.17906944,0.15802497,-0.0163373,0.10519239,-0.05254731,0.002571412,-0.020578904,0.18299314,-0.14706202,-0.22770655,-0.1456765,-0.074601375,-0.049871843,0.13904968,0.21105316,-0.06786969,-0.0032935147,0.15152563,0.009544609,-0.2597691,0.032532368,0.042442046,0.11403186,-0.1076961,-0.16289087,-0.004072471,-0.07809154,0.13299672,-0.016132971,-0.007541754,0.1405801,0.05956861,0.078205615,0.231444,-0.23935716,0.11296301,0.11045069,-0.22325271,-0.1159112,0.043002546,-0.13560879,-0.1258419,0.062216166,-0.103839,0.16026197
Choose Graphical h in V problem,0.1467337,0.08936368,-0.06492877,-0.05354215,-0.36689287,-0.10062516,0.12279353,-0.05216238,0.082750335,0.0038020767,0.04308366,0.07427573,0.22202699,-0.10267968,-0.18453151,-0.11838591,-0.076739535,-0.073663354,0.10589171,0.15998514,-0.08712482,-0.07832876,0.19347519,-0.11898822,-0.2724994,-0.027707996,0.06948937,0.13720497,-0.015729584,-0.2713893,0.06984735,-0.048154976,0.17216589,0.0008264374,-0.052842665,0.09670731,0.090708315,0.09351005,0.15213495,-0.31492966,0.134992,0.07229466,-0.19627446,-0.019236706,0.08729731,-0.16822562,-0.088539876,0.094550855,-0.1489312,0.25923276
Choose Graphical k in A problem,0.10572611,0.06713277,-0.08326743,-0.05877801,-0.15762919,-0.09667083,0.07068874,0.06566553,0.22995432,0.15962161,0.043446705,-0.032289278,0.09468005,0.16377252,-0.00019380206,0.15694478,-0.07509043,0.014296932,0.22150671,0.08561777,0.26341137,0.20884459,0.02897718,-0.012629593,-0.0074631907,-0.15736823,0.07843299,0.21731175,-0.08965105,-0.18248579,0.08073776,-0.017952224,0.1006332,-0.13233575,-0.05157199,0.15138473,0.007983095,0.09697111,0.43172035,0.1497649,0.19993058,-0.21502158,-0.21437874,-0.16179964,-0.15882662,0.009237688,-0.08257024,-0.14032991,-0.05965781,-0.029739458
Choose Graphical k in G problem,0.083941996,0.058399785,-0.14100218,-0.09932737,-0.17407207,-0.12951131,0.12526387,0.10835324,0.27366853,0.09528941,0.067936465,0.00069382373,0.14625998,0.16658078,0.035009455,0.20587562,-0.054132283,-0.039038952,0.16429712,0.07641274,0.25972593,0.21772328,0.050127402,-0.043618757,0.0072685913,-0.11077916,0.05980353,0.12613559,-0.049737852,-0.20964766,0.050829463,-0.0025603767,0.113137834,-0.153589,-0.03511974,0.09606485,0.03903872,0.11457168,0.44020405,0.090615146,0.1832521,-0.12451883,-0.24814858,-0.14878179,-0.1642946,0.003995613,-0.069317564,-0.18590221,-0.05904369,-0.020118274
Choose Graphical k in N problem,0.19581816,0.067359224,-0.09190923,-0.10486791,-0.41828987,-0.17149413,0.15117508,-0.052952316,0.067706056,-0.056290742,0.05832591,0.0018574804,0.19538967,-0.14596283,-0.27038386,-0.108469255,-0.05435371,-0.07113976,0.12459087,0.16745792,-0.08087673,-0.015937129,0.20115907,-0.021496078,-0.26115793,0.016620541,0.011351199,0.06670977,-0.105903655,-0.2062356,0.03823517,-0.020023443,0.1419655,0.02843627,0.0038786507,0.10723741,0.06690659,0.050648447,0.22054705,-0.28501895,0.06591256,0.093553625,-0.24479654,-0.11270746,0.02549792,-0.1077533,-0.05377621,0.075696506,-0.051561046,0.2132843
Choose Graphical k in V problem,0.13040261,0.060859308,-0.09878231,-0.07562005,-0.17590337,-0.07743839,0.102331415,0.049201604,0.23969689,0.080093466,0.014278902,0.047561135,0.12429145,0.08647702,-0.045412116,0.12826423,0.005107742,0.019835955,0.2146142,0.12610702,0.21008141,0.1673212,0.005870885,-0.08303567,-0.13819666,-0.06976067,0.09508846,0.24000853,-0.00258594,-0.24799722,0.04966189,-0.014645305,0.10154354,-0.16469413,-0.046184395,0.18282333,0.04552309,0.14678654,0.40687847,0.067470066,0.25229493,-0.17539454,-0.32141164,-0.08342224,-0.11293255,-0.026230333,-0.030024592,-0.11059678,-0.10926617,0.0075290487
Choose Graphical refl-v in A problem,0.022244418,-0.030067937,-0.09027682,-0.13578174,-0.35961872,-0.16255641,0.16633883,0.20966902,0.22870211,-0.15597643,0.046334032,-0.1468259,0.09856949,0.013129667,0.0057384,0.05120758,0.058359075,-0.02419838,0.13741924,0.18338919,0.06391348,0.018443733,0.07621789,-0.099604204,-0.20689629,0.074057944,-0.009510249,-0.01286821,-0.18009053,-0.19759102,-0.032177225,-0.13047706,0.12075714,-0.07947011,-0.06713451,-0.025183033,0.084601216,0.033922248,0.35940075,-0.1482699,0.23856215,0.016134156,-0.31075212,-0.1924114,0.0021991367,-0.044788204,-0.15989669,-0.027064651,-0.059652004,0.09423408
Choose Graphical refl-v in G problem,0.0015473978,-0.041134126,-0.09574012,-0.117470816,-0.36028594,-0.15718451,0.17188269,0.22708227,0.2245523,-0.14434,0.026855212,-0.15249649,0.10238277,-0.0058782455,0.017138612,0.042535797,0.07144469,0.03418223,0.15351865,0.18649684,0.0685944,-0.0064660013,0.049573135,-0.12168746,-0.24154194,0.045444157,0.026152737,-0.008077364,-0.115041874,-0.20643619,-0.039236218,-0.15970708,0.12543812,-0.09929009,-0.093523055,-0.0013465224,0.10542404,0.030042851,0.33512682,-0.15044251,0.25312078,-0.021405686,-0.32749906,-0.14561734,0.041207295,-0.062117375,-0.10606295,0.007467896,-0.067590974,0.07386353
Choose Graphical refl-v in N problem,0.14264022,-0.03980722,-0.06518953,-0.08888661,-0.50206274,-0.1608884,0.18413903,0.005924467,0.09841632,-0.0950502,-0.006907357,-0.07782273,0.11009955,-0.120073855,-0.2269723,-0.11350869,-0.12657124,-0.04023227,0.1390146,0.21330808,0.032083705,0.015646793,0.21863404,0.12592915,-0.18073551,0.022761129,0.055843756,0.024251968,-0.113645144,-0.086625166,0.030649057,-0.0095991315,0.1721646,-0.020832416,0.054405645,0.11565228,0.03956938,0.059498336,0.2538023,-0.20115353,0.05358534,0.1675301,-0.2483627,-0.16336009,-0.030254815,-0.06174388,-0.1234399,0.0005205625,-0.15820321,0.10874436
Choose Graphical refl-v in V problem,0.068917766,-0.051657587,-0.06886698,-0.12403482,-0.4102342,-0.13245197,0.16572033,0.13409126,0.19069974,-0.119118676,-0.002564399,-0.09601539,0.11997794,-0.06182039,-0.100640826,-0.04250664,0.056036122,0.037153415,0.15810363,0.2123045,0.050347585,0.007526284,0.11020461,-0.06243399,-0.2923846,0.0535737,0.0588966,0.054110058,-0.09472569,-0.19360475,-0.016595365,-0.13001215,0.13385163,-0.099037856,0.0015502283,0.07041614,0.11041715,0.06893794,0.31681877,-0.14012009,0.26183927,0.06462454,-0.33077615,-0.1190556,0.011507229,-0.056552872,-0.10036498,0.025388077,-0.107589535,0.08968015
Choose form of compound inequality,-0.21310902,0.18301265,-0.18394136,-0.09532155,-0.19300589,-0.09992563,0.14871265,-0.010876787,0.1751624,-0.022691121,-0.14172347,0.07554909,-0.10585354,-0.06272574,0.24150942,0.044321436,0.09383162,-0.13152863,-0.002918298,0.011891536,-0.17112713,0.079453744,-0.22119747,-0.30235302,0.12612596,-0.1288872,-0.19265525,-0.13792625,-0.12089916,-0.0045892037,0.052441556,0.018491056,-0.14404945,0.14637737,-0.17972997,0.037912384,0.05885393,-0.050500564,-0.026154468,-0.273434,-0.039838605,-0.15952429,0.072820105,0.06273264,0.21830462,-0.1001057,0.21400245,0.114630766,0.039584287,0.23633991
Choose mean,-0.13836719,0.13889624,-0.13128553,0.0847175,0.11268236,-0.0049179024,0.16289271,0.017312184,0.19675957,-0.146772,0.107562415,-0.16541101,0.060442492,0.019961698,0.14847997,0.3537945,0.30263105,-0.34694853,-0.04501636,-0.027646268,-0.27345666,-0.01249378,-0.15231031,0.05636556,-0.03124462,0.25993115,0.005835638,-0.10598097,-0.06840719,0.13167706,0.029368576,0.23198962,-0.11790653,0.058663912,0.13572927,-0.16251436,-0.14239453,-0.09700945,-0.09225475,-0.16736482,-0.13229363,-0.010719729,-0.10824371,0.062352385,0.012549364,0.040759854,0.06009942,0.025930228,0.017987682,0.080863364
Choose median,-0.10661549,0.13841604,-0.12142328,0.090600505,0.13092774,0.01911937,0.16312465,-0.007982183,0.19712661,-0.11253716,0.10568559,-0.13537566,0.088077396,0.01742429,0.1264298,0.33454153,0.33211258,-0.34736001,-0.03773987,-0.020981599,-0.28502503,-0.010895592,-0.17690508,0.047956277,-0.066899806,0.2683094,0.015426718,-0.07414197,-0.038942844,0.13261999,0.0447664,0.2028115,-0.13396248,0.062526375,0.15621279,-0.16013567,-0.14662378,-0.0834676,-0.12550384,-0.16807787,-0.11618834,-0.024147827,-0.12008981,0.07206842,0.02696722,0.037787117,0.057893254,0.06211793,0.014215668,0.074207924
Choose mode,-0.13901821,0.15289554,-0.11530554,0.08638531,0.13789058,0.011518594,0.15703502,0.008795439,0.2082843,-0.12119176,0.0998076,-0.14358968,0.078795105,0.020102197,0.15488619,0.34799275,0.3222443,-0.34893882,-0.04685969,-0.024002405,-0.28112146,-0.023060316,-0.17297992,0.034822468,-0.05557113,0.26242986,0.013353156,-0.0708369,-0.03942844,0.1257491,0.04339761,0.2095019,-0.12587485,0.04556324,0.14136231,-0.1690817,-0.14051946,-0.08540047,-0.10701481,-0.1620244,-0.10104286,-0.029627463,-0.10526645,0.0892962,0.027657712,0.033581804,0.05003268,0.042257037,0.008317914,0.07288964
Choose non-perfect square,0.15779361,0.09562422,-0.0069466685,0.18397814,0.052919753,-0.024317067,0.02402417,-0.09296647,-0.16205002,0.257401,0.109778106,0.036200963,0.38387942,0.00074773614,-0.08542448,0.09580883,0.057751406,-0.023187801,0.01681901,-0.05242319,0.02649884,-0.05987036,0.0935329,0.023864705,-0.16608362,-0.054902844,0.45981616,0.12170555,0.11612085,-0.27367514,0.1328223,0.17857496,-0.08584235,0.02966403,0.014644425,0.17815384,-0.12020435,0.006920196,0.021735601,-0.13009529,-0.1718796,-0.21864398,-0.15202117,0.06257492,-0.124583855,-0.12916476,-0.14377452,-0.02535498,0.050357133,0.044090807
Choose operator in fractional identity,-0.056728248,-0.07768959,-0.047274824,0.02097196,-0.1227641,-0.0017992188,0.26950094,-0.08331954,0.26476857,-0.054078292,-0.12068753,-0.12530655,-0.24898683,0.07642503,0.15654314,0.14667164,-0.04944542,-0.16959824,0.30130696,0.114426345,0.025465164,0.11504796,-0.12170611,0.09078927,0.20577621,0.14302711,0.12646724,0.12476239,0.0077408557,0.21319754,-0.053893197,0.08281505,0.022047943,0.0109475665,0.06506765,0.17305315,-0.07482338,-0.045900244,0.10120097,0.25706398,0.10639389,-0.14295153,-0.18450463,0.013916131,0.058196507,0.07650317,0.12634324,-0.18247277,-0.21796407,-0.2525866
Choose table size,-0.049251407,-0.015001382,-0.16057017,-0.07132194,-0.029287381,0.08789829,0.051406953,0.16011877,0.14843608,-0.34364077,0.017953139,-0.01716124,-0.055207007,-0.097983144,-0.010989018,0.19610298,0.28953898,-0.19694242,-0.23926334,-0.10310366,-0.0602017,0.10789274,-0.069609895,0.00017042783,-0.08424847,0.22971025,-0.29306003,-0.24918213,0.023901952,0.20154516,-0.040794503,0.1024289,-0.04238727,-0.033976395,0.18503596,-0.20207033,-0.030599903,-0.08374438,-0.103663564,0.042580906,0.041280206,0.21686688,-0.14850356,-0.020070177,0.0046647065,0.16307087,0.15595606,0.022603326,0.13450433,0.16307847
Classify equation as having no solution,0.34614745,0.033326562,-0.070842184,-0.052727908,-0.18246397,0.066605784,0.16758321,-0.08671025,0.02001485,-0.22007112,-0.14155942,-0.012999639,0.089776605,-0.18447319,-0.11123731,-0.14980763,0.28755993,-0.31122902,-0.0052747624,0.10712573,-0.2133475,0.114288405,-0.022620788,-0.013828967,-0.18847461,0.08518049,-0.08864071,0.0885272,-0.038216442,0.22529715,0.05361996,0.09696218,-0.28831053,0.06388773,0.043873165,0.08252257,-0.015143767,-0.05961076,-0.10929882,-0.046439048,-0.044920664,0.04816157,-0.14015447,0.0072949952,0.018583111,-0.026051478,0.13790967,0.0906574,0.13648304,0.3064914
Classify equation as having one solution,0.3318108,-0.09665423,-0.19526076,0.07389272,-0.008311034,0.15055571,0.26867843,-0.14486355,0.12410113,-0.08243421,-0.05647964,-0.20861134,0.00011923061,-0.003423448,-0.040741675,-0.09028657,0.14621066,-0.23502089,0.12004401,0.080685526,-0.035557557,0.14392735,-0.010246883,-0.2543879,0.017978523,0.09405982,-0.115966514,0.15923691,0.04981302,-0.052009523,0.031488035,-0.03866757,-0.181022,0.2892012,-0.18119702,0.05587822,-0.074944116,-0.18433167,-0.029949624,0.11292579,-0.0172796,-0.342563,-0.120014384,-0.05159865,0.059465643,-0.03360864,-0.052010316,-0.027977496,-0.017440336,0.23147191
Classify equation as having two solutions,0.055663,-0.13441467,-0.20747645,0.08790919,-0.06701386,0.052777577,0.11169498,0.044802856,0.11131128,-0.049276233,-0.036382683,-0.46707422,-0.1291961,-0.034118723,-0.09684918,-0.06940043,0.01578872,0.067446455,0.011682654,0.07549613,0.08719321,0.17179774,-0.06512749,-0.23483583,0.119192004,-0.084422454,-0.13706382,-0.06732978,-0.051211078,0.0089661535,-0.020079236,-0.16993646,0.012498045,0.323836,-0.13012777,0.0070272014,-0.09491581,-0.17695543,-0.021550335,0.04351103,-0.060613032,-0.38336113,-0.047178883,-0.16407162,0.10221295,0.09580601,-0.20359372,-8.517719e-05,-0.05253416,0.21876688
Classify inequality as having a line segment,0.11323287,0.14744204,0.109318905,-0.089360535,0.15548283,0.0221861,0.039861333,0.078906134,-0.05709703,-0.12072123,-0.054924335,-0.08876767,0.15178733,-0.10063776,-0.12223151,-0.08548178,0.109937236,0.029384961,-0.073533475,0.06290669,-0.23319046,-0.051627323,-0.21692386,-0.27674347,-0.24324195,0.032946914,-0.011586657,0.15905347,0.2411952,0.07699544,-0.0653071,-0.4000444,-0.055757437,0.048334993,-0.00089489145,-0.034637805,0.0037517461,0.08862442,-0.27994066,0.048028395,0.087125234,-0.1010099,-0.0048547667,0.22112457,0.23260602,0.17322038,0.084635004,0.18103927,0.1449851,-0.06940099
Classify inequality as having a single point,0.25885153,0.05295313,0.025651256,-0.076756895,0.015204133,0.05491544,0.15747759,-0.11318734,-0.0758822,-0.056504905,-0.043261904,-0.061296463,0.10650392,-0.13869947,-0.26443067,-0.12595469,0.3139653,0.05418658,-0.079168834,0.06074987,-0.18998772,0.1235951,-0.11796207,-0.065224245,-0.25053358,0.049769334,-0.1000155,0.1143238,0.09085049,0.15727517,-0.044208627,-0.1605134,-0.28611723,0.1611677,0.1644562,0.088215016,-0.11220816,0.05214166,-0.23280086,0.102463305,-0.06979019,-0.016434157,-0.050411046,0.10517104,-0.006131537,0.16336198,0.09022099,0.2133934,0.31609756,0.008355888
Classify inequality as having all real numbers,0.2914866,0.124492444,-0.06456531,0.0374371,0.053287342,0.021761872,0.19472411,-0.15529975,0.035888333,-0.05910565,-0.03307031,-0.08696117,0.15218724,-0.13714752,-0.22581607,-0.03314024,0.23498333,-0.026319599,0.012452408,0.09281209,-0.2325229,0.09015001,-0.18543717,-0.13331644,-0.23279265,0.049959734,-0.030054916,0.1042673,0.116731055,0.11593737,-0.09204973,-0.18690884,-0.1032402,0.104754984,0.05184602,0.15858413,-0.068446994,0.057831325,-0.29381594,-0.017315729,-0.15382366,-0.09382498,-0.11454541,0.17207772,0.13871333,0.15688176,0.18894581,0.20849478,0.22161599,0.108107835
Classify inequality as having all real numbers except a single point,0.2938106,0.06497016,-0.012378869,-0.11742259,0.10564468,0.0053910124,0.15080258,-0.038971473,-0.03719983,-0.1156981,-0.04229358,-0.081456415,0.08676746,-0.121746324,-0.2163926,-0.11261069,0.23578356,0.012870444,-0.017973028,0.07924875,-0.21565026,0.19654524,-0.23815484,-0.1653717,-0.18652835,0.10125954,-0.10729757,0.09351271,0.083155796,0.12490894,-0.08594158,-0.18401095,-0.27843338,0.17034455,0.06321535,0.11959433,-0.1146545,0.036505703,-0.1898992,0.08110763,-0.11335082,-0.11290359,-0.059583265,0.040753584,0.08070096,0.20353019,0.14342661,0.16498753,0.28931376,-0.04672002
Classify inequality as having no solution,0.2943441,0.05909967,-0.017817032,-0.12853195,0.11286369,0.043876454,0.1572623,-0.07034366,-0.030238621,-0.10083739,-0.04088542,-0.07475999,0.14616686,-0.13424435,-0.24214943,-0.09942421,0.23541018,-0.013876687,-0.027100582,0.033725906,-0.20882297,0.13794494,-0.20662607,-0.15445058,-0.23298602,0.16116643,-0.15030475,0.15644006,0.091226555,0.079326615,-0.07788287,-0.21688055,-0.24019194,0.20397377,0.048084017,0.061839353,-0.13843045,0.034434106,-0.2439426,0.10131967,-0.08944538,-0.1453822,-0.014666281,0.059930533,0.07673292,0.18067557,-0.04948849,0.1616623,0.21097402,0.024586257
Classify inequality as having two rays,0.1644775,0.14004546,0.090390995,-0.006557408,0.22772439,0.045699295,0.02712114,0.0459454,-0.062138215,-0.088883825,-0.024354601,-0.10712884,0.16642405,-0.067580454,-0.09375516,-0.04961035,0.12011091,-0.013586634,-0.08605164,0.03086963,-0.23705159,-0.046847004,-0.23406386,-0.2663922,-0.21009131,0.029778333,-0.018235406,0.13805842,0.2307526,0.07843516,-0.057914086,-0.37045243,-0.083234,0.08299066,-0.052651696,-0.044162225,-0.0259755,0.034957957,-0.32721028,0.06321806,0.012280248,-0.15200342,-0.0023155133,0.20180075,0.2190304,0.15510169,0.10510576,0.1899323,0.18416221,-0.03028361
Combine like terms,0.0037052282,0.08821446,-0.07306342,0.056476843,-0.24555255,0.10499599,0.054902386,0.035592914,-0.0931045,0.086748786,-0.056816462,-0.15942283,0.13621658,-0.14043568,-0.2107832,0.0131068,0.1374308,0.26542237,0.044158824,0.056935985,0.12078929,0.039739627,0.08510003,0.16009355,-0.24686049,-0.1220029,0.3186456,0.018495748,0.25752538,0.110218436,0.01574271,-0.17315395,0.25152433,-0.14269592,0.25089598,0.21493103,0.080861636,0.15661527,0.012402172,-0.029425843,-0.022381052,-9.738501e-05,-0.14764163,0.19432214,-0.09759842,0.15477753,0.1466183,0.045376536,-0.016239107,-0.09039803
"Combine like terms, no var",-0.010968503,0.13200004,0.058503784,0.07994783,-0.12361864,0.13153107,-0.114414096,-0.046426486,0.0009435367,0.11293125,-0.13541247,0.10460656,0.10735035,-0.19814338,-0.12628226,-0.057995953,0.22729719,0.087435484,-0.15730081,0.044743042,-0.06242621,0.00421383,-0.13677272,0.1465159,-0.32618684,-0.12056675,0.11376137,0.016368505,0.14155757,0.22989042,0.078306556,-0.082746655,0.047050074,-0.2489147,0.28317848,0.09450986,0.073077895,0.10640589,-0.22400446,-0.029062632,0.11602959,0.1932436,-0.07188301,0.22118925,0.05808125,0.021865768,0.24315321,0.23118585,0.103956446,0.09707811
Compare differences - added internal,-0.13585141,0.053475857,-0.18204992,0.07302648,0.13605005,-0.18940097,0.22151406,0.029909428,0.24344899,-0.21691146,-0.0117300805,-0.20233859,0.071474746,0.0002928948,0.13945556,0.40927598,0.14500973,-0.29661053,-0.06255988,-0.058243543,-0.18972537,-0.051326774,-0.08101725,-0.031243859,0.070579216,0.09784415,-0.042749252,-0.16146581,-0.1101816,-0.079999916,-0.04633339,0.28588715,-0.10976943,0.046238888,-0.034976464,-0.04937736,-0.08165941,-0.15042323,-0.117876664,-0.098593146,-0.19504955,-0.0611123,-0.08463804,0.11362641,0.05453494,0.024942148,0.057863656,-0.064338945,0.056002818,0.205468
Compare differences - added outlier,-0.22571437,0.02628173,-0.14730182,0.01759981,0.1002379,-0.20534539,0.19118986,0.0881312,0.3059831,-0.2756481,-0.102131,-0.1352027,-0.04038518,-0.035810195,0.20153284,0.35275415,0.1609643,-0.2824798,-0.061910287,-0.03649751,-0.13431615,-0.035972606,-0.1601531,-0.10602608,0.09105374,0.11780834,-0.07918258,-0.16622828,-0.080220036,-0.08085943,-0.040174797,0.27515146,-0.12275135,-0.025518041,-0.029130796,-0.010258745,-0.024615591,-0.11999739,-0.07716863,-0.02889794,-0.05403046,-0.041899934,-0.12499069,0.14985971,0.112131245,0.025402216,0.16315931,-0.082497306,0.034848973,0.14488523
Compare differences - removed outlier,-0.15251252,0.09331689,-0.23650351,0.12120682,0.05432015,-0.17553556,0.20964941,-0.052156527,0.19018126,-0.18077636,-0.011099102,-0.14608698,0.089521766,-0.033873353,0.08886646,0.34389624,0.18748596,-0.2536925,-0.07305571,-0.04226537,-0.1581674,-0.081217475,-0.028124105,-0.020904636,0.04916451,-0.0059832167,-0.00308105,-0.22668636,-0.087846406,-0.0951984,0.004848182,0.3134784,-0.06577605,0.047259137,0.033786394,-0.04961991,-0.005074959,-0.081000686,-0.17881815,-0.15236206,-0.18632978,0.017905027,-0.12011122,0.18510407,0.032929443,0.018919032,0.18940157,-0.03541298,0.1005319,0.28033993
Compare large quantities in context,0.1510194,0.15634573,-0.19066146,0.075521156,0.15372369,0.3189064,0.099916965,-0.027060581,-0.0948186,0.041809198,0.13201621,0.09385667,0.21164484,-0.08076123,-0.21525359,0.17684574,0.17889789,0.17414424,-0.17031889,-0.069227844,0.075766005,-0.016620705,0.12518704,-0.14367455,-0.37275022,0.13380194,0.05393261,0.13312179,0.30644032,-0.2419776,0.034488063,-0.006903252,0.02671693,-0.022376822,-0.052454382,-0.04476916,-0.05111766,0.002945369,0.11697768,-0.05395362,-0.07554016,-0.20400164,-0.074308984,0.13885266,-0.123970605,0.06476886,-0.12953821,0.012872605,0.06652178,0.029412977
Compare means - added internal,-0.1258556,0.10001896,-0.18184835,0.037061036,0.13636497,-0.17245093,0.18007624,0.0139900325,0.20241228,-0.19453083,0.02054976,-0.1316248,0.112661906,0.005959794,0.139407,0.4269212,0.21667142,-0.28083536,-0.05891729,-0.10358361,-0.18217051,-0.03260102,-0.12401405,-0.02339424,0.0164981,0.1089393,-0.06086028,-0.13893946,-0.12343673,-0.09508037,-0.032042146,0.291428,-0.12469102,0.039104532,-0.03202306,-0.04253722,-0.093953274,-0.101092756,-0.11622507,-0.1510355,-0.17962438,-0.0770982,-0.093828425,0.114969954,0.017225683,-0.0070696,0.022573922,-0.05167903,0.060640093,0.26359853
Compare means - added outlier,-0.22917606,0.091620676,-0.09842427,0.014830469,0.12461985,-0.20568939,0.16351274,0.084120385,0.2751071,-0.24279591,-0.08580972,-0.12168754,0.02122527,-0.030288951,0.21362042,0.37322822,0.21860419,-0.2623033,-0.076877154,-0.0425606,-0.19913854,-0.07344244,-0.21054073,-0.08286879,-0.003859453,0.10680918,-0.054633774,-0.09472317,-0.08345641,-0.08087641,-0.024608983,0.2477771,-0.17424396,-0.045780778,-0.03793617,-0.020487,-0.025411475,-0.08883164,-0.09945161,-0.08286826,-0.04990673,-0.0510427,-0.11487555,0.19799696,0.094587594,-0.01905632,0.14565098,-0.025948938,0.05010233,0.15544869
Compare means - removed outlier,-0.074166946,0.10761653,-0.23928799,0.05819953,0.1007524,-0.12668093,0.18798763,-0.043544535,0.1510251,-0.18293099,-0.047143854,-0.07730182,0.12848821,-0.058930315,0.10634898,0.2861252,0.25831077,-0.2652557,-0.027431047,-0.07726163,-0.21014951,-0.049160782,-0.103855394,-0.05880685,-0.0038818321,0.007438155,-0.003475894,-0.17895769,-0.005341282,-0.021083139,-0.0129278,0.23289253,-0.12153148,0.010024795,0.011458199,-0.0339658,0.05482643,-0.08188043,-0.24750184,-0.087916404,-0.1525226,0.0024979888,-0.08450453,0.23167744,0.08665262,0.02155001,0.32858956,0.017986579,0.1521037,0.2669251
Compare medians - added internal,-0.17338403,0.09322184,-0.13239753,0.029315498,0.13331106,-0.21818744,0.17780383,0.057791,0.1956856,-0.23780273,-0.033375837,-0.15380806,0.110523,-0.002546644,0.17549413,0.38425952,0.15324132,-0.2931935,-0.06175704,-0.05504505,-0.21457376,-0.09286777,-0.1478084,-0.0542755,0.028342785,0.0896895,-0.015328686,-0.14373691,-0.111136325,-0.09260882,-0.028668633,0.2612015,-0.1355653,0.017191647,-0.07783847,-0.068814136,-0.057779346,-0.10348755,-0.14441273,-0.18249057,-0.1660831,-0.047260012,-0.063190356,0.14046147,0.080190964,-0.022670887,0.03505081,-0.05117387,0.02174467,0.23300874
Compare medians - added outlier,-0.22855888,0.06370713,-0.1607615,0.04255473,0.10026649,-0.17522036,0.18135431,0.09598811,0.26273632,-0.25079563,-0.07976899,-0.1500812,0.004745401,-0.03720501,0.19062127,0.36327586,0.2562411,-0.22619003,-0.077511586,-0.031164985,-0.14678463,-0.03939898,-0.20900954,-0.09111604,0.0032873056,0.0969804,-0.065399975,-0.174369,-0.08339436,-0.06000779,-0.019304937,0.25710568,-0.15324329,-0.0106016705,-0.029779024,-0.0375254,-0.04473466,-0.0910847,-0.12939116,-0.08699948,-0.07132632,-0.070155844,-0.13636363,0.15283398,0.099632345,0.016226362,0.1367198,-0.03308966,0.08009021,0.18382302
Compare medians - removed outlier,-0.14137727,0.0772962,-0.25298002,0.05829704,0.10016166,-0.17030843,0.23196983,0.0008594949,0.22358236,-0.23640348,-0.07091431,-0.16112436,0.046714336,-0.04168994,0.15041074,0.35129857,0.19936574,-0.26066265,0.034371343,-0.042889155,-0.14786129,-0.039044786,-0.1189945,-0.046470586,0.07469269,0.0634029,-0.0066913404,-0.19224289,-0.0642988,-0.042572077,-0.055014316,0.27083686,-0.07028582,-0.0025363322,-0.034229983,-0.007360447,0.010489742,-0.10740083,-0.14704293,-0.038656686,-0.15622433,-0.06767596,-0.10103759,0.18111119,0.08653874,0.061292272,0.2606881,-0.07160109,0.09841397,0.20169507
Compare one large number in scientific notation and one large number not in scientific notation,0.108168446,0.15460913,-0.1827289,0.12581263,0.098928176,0.33074692,0.07509027,-0.03908809,-0.119607836,0.08008495,0.12578508,0.066201985,0.19940667,-0.08059709,-0.21887146,0.15726447,0.13755172,0.21585701,-0.183007,-0.053805918,0.12058419,-0.042325653,0.17953226,-0.1148546,-0.35981688,0.059987754,0.11055523,0.12395132,0.3048959,-0.23724768,0.06501644,0.0038059158,0.07135715,-0.033123184,-0.03939236,-0.042979453,-0.03995515,0.013337986,0.13439508,-0.07751413,-0.06850215,-0.18599586,-0.06999764,0.14893152,-0.14212623,0.036827188,-0.15453668,0.0026461254,0.022439465,0.058842983
Compare one small number in scientific notation and one small number not in scientific notation,0.14560497,0.17962843,-0.22178371,0.0033907646,0.10938343,0.2768336,0.11838225,0.04723393,-0.09055483,-0.00062376057,0.107231565,0.10569014,0.20696692,-0.12288959,-0.18931103,0.14783475,0.1266535,0.16559064,-0.21074945,-0.08307407,0.07410743,0.017336736,0.15714148,-0.18809903,-0.3457067,0.12717181,-0.010989362,0.09278381,0.32609642,-0.26220024,0.019599115,0.020615373,0.011734809,-0.032606345,-0.13304888,-0.022049056,-0.040348805,-0.022986773,0.17288062,-0.06717333,-0.12178946,-0.20139858,-0.007062823,0.11577491,-0.10801034,0.050335575,-0.11185962,-0.016033154,0.11146041,0.029020496
Compare point and original mean - added internal,-0.19661336,0.059590906,-0.14848584,0.042290628,0.12976155,-0.20234078,0.22514422,0.051083352,0.23738572,-0.21192157,-0.007033863,-0.17128412,0.09432729,0.02851597,0.18680874,0.43382227,0.17020558,-0.28907236,-0.05902067,-0.06811715,-0.18445997,-0.06851547,-0.11269554,-0.016226951,0.05728705,0.13404134,-0.006214976,-0.1430305,-0.098977774,-0.09645858,-0.04173739,0.27867562,-0.12874855,0.02384097,-0.022526825,-0.060684543,-0.07238669,-0.11117571,-0.095178925,-0.1135586,-0.16733855,-0.043062676,-0.090285845,0.13293004,0.017668582,0.014527938,0.02561822,-0.082980365,0.020594934,0.14754987
Compare point and original mean - added outlier,-0.23032825,0.039349448,-0.14661114,0.027963338,0.07631158,-0.21429119,0.1726806,0.10576699,0.2873864,-0.2677525,-0.079404436,-0.17453285,-0.025978286,-0.06270989,0.16457504,0.33050767,0.19743024,-0.26177627,-0.08981372,-0.034086436,-0.16937414,-0.022532394,-0.19062617,-0.0826968,0.04463602,0.11392313,-0.09923436,-0.18109289,-0.11524561,-0.046226554,-0.018312354,0.26365632,-0.15647238,0.01966693,-0.008828499,-0.028982757,-0.04033484,-0.12205046,-0.10745313,-0.07205433,-0.08546632,-0.03711752,-0.12353433,0.122965954,0.11594751,0.019561997,0.14226872,-0.03299009,0.0694673,0.16827315
Compare point and original mean - removed outlier,-0.15365839,0.0795432,-0.25565764,0.12059737,0.0647809,-0.16120054,0.21932392,0.00902983,0.15444341,-0.23917687,-0.02339944,-0.2572348,0.05946454,-0.05940409,0.09768561,0.2830914,0.15721191,-0.23050565,-0.09324905,0.011282025,-0.17780405,-0.07652493,-0.005152388,-0.06855786,0.071432725,0.0035173409,0.029361723,-0.2842755,-0.060114518,-0.045558717,-0.018294634,0.26277706,-0.04574076,0.08497897,0.0067959693,-0.08706042,0.008166336,-0.11794005,-0.17240119,-0.1444598,-0.20410486,-0.00056917616,-0.091971815,0.17087111,0.06874399,0.06816986,0.18422893,-0.073733844,0.11723824,0.2306884
Compare probabilities -- different trials,0.050096225,0.10684132,-0.015735144,0.12731153,-0.06753733,-0.16095982,-0.00086254126,-0.028314572,0.11620418,-0.29803792,-0.21718569,-0.11982901,-0.15655637,-0.3020348,-0.09467964,-0.18988924,-0.11768181,-0.20435289,-0.065268494,0.16471982,-0.15266934,-0.15513836,0.029809749,-0.17392522,-0.024954347,-0.10877456,-0.064974375,0.033481326,0.071566135,0.050380867,0.045037504,0.20444447,0.12149011,-0.043435365,-0.0887873,0.090665415,0.04212974,-0.040858205,-0.20113237,0.023786612,0.0032315068,-0.044369545,-0.17700744,0.20008653,0.29679558,0.010591013,0.24741766,-0.0675344,0.07229149,0.26300353
Compare probabilities -- same trials,-0.105685614,0.173702,-0.14779,0.11122366,-0.017727904,-0.03882995,0.08586941,-0.0886135,0.22700512,-0.12793441,-0.24845646,-0.009477617,-0.13711,-0.23181352,0.06596466,-0.015911764,-0.043589585,-0.06722435,-0.068573266,0.18767345,-0.013546865,-0.1126232,-0.13499741,-0.30784747,0.009038358,-0.11719373,0.11766161,-0.033354253,0.1981831,-0.046938308,0.033578046,0.078267865,0.15650126,-0.12203376,-0.15492225,0.06189977,0.018435642,-0.040687572,-0.037563033,0.10554244,0.08134415,-0.28525075,-0.22633888,0.25939637,0.24755326,0.04680922,0.23692854,-0.06360229,0.0324932,0.19455959
Compare small quantities in context,0.17331912,0.16715388,-0.21316758,0.007937974,0.1518773,0.281595,0.12106164,0.0145016955,-0.07605559,0.02059008,0.11199876,0.11371591,0.22330359,-0.09362427,-0.18679547,0.16498783,0.137272,0.15050112,-0.1653773,-0.09101081,0.06215412,0.019317452,0.1108626,-0.19776687,-0.34427306,0.13770588,0.008687751,0.13984367,0.31810868,-0.2695231,0.006566698,7.173922e-05,-0.002957578,-0.023169864,-0.14129114,-0.012175257,-0.048650622,-0.019974636,0.14256033,-0.03203814,-0.10202584,-0.24040718,-0.020030076,0.11805264,-0.09683065,0.05199471,-0.119931474,-0.0042224214,0.08997224,0.034740318
Compare two large numbers in scientific notation,0.16566895,0.124229774,-0.21630487,0.059843842,0.19541852,0.3108609,0.14426196,-0.015068485,-0.050414745,0.012809958,0.13203108,0.06397248,0.16906875,-0.069873154,-0.17865396,0.21495159,0.17816932,0.13315868,-0.14878877,-0.0898852,0.070518434,0.00991008,0.12315146,-0.16240367,-0.32057685,0.19491129,-0.0017325844,0.12892324,0.31993306,-0.24981624,0.003655214,0.015217276,0.0020328416,0.009966394,-0.07926297,-0.037186354,-0.07914774,-0.042429723,0.13242964,0.0092785545,-0.088288784,-0.25126746,-0.076655075,0.12709132,-0.11943179,0.07697728,-0.118540816,-0.021447372,0.06923217,-0.021495549
Compare two small numbers in scientific notation,0.20499773,0.11613254,-0.21202168,-0.01702945,0.16925354,0.29256982,0.123266496,0.00052452815,-0.059481077,0.004138664,0.09047822,0.14372931,0.2048018,-0.08142882,-0.18933168,0.1528378,0.17329621,0.13502584,-0.12461036,-0.097550504,0.08383365,0.054585665,0.069317386,-0.19827412,-0.34190354,0.18167922,0.004437205,0.16609639,0.33032677,-0.27302727,0.0071579744,-0.001850594,-0.03366873,-0.022350011,-0.110488035,0.012591714,-0.043527987,-0.0070613935,0.13701698,0.01931797,-0.058946643,-0.2410162,-0.065365694,0.110184394,-0.1053226,0.0647688,-0.0967306,-0.013249701,0.0536859,0.014056065
Compare unit rates,-0.033335768,0.07337138,0.04111721,0.17189056,0.042128634,-0.04346245,0.04270155,0.19246006,0.18087538,-0.056486674,-0.14582564,-0.21689999,-0.14769074,-0.03061101,0.12986645,-0.059308194,-0.22110476,-0.010934974,0.03103435,0.19624038,-0.08126342,-0.11445705,-0.10415232,-0.24835774,0.06716476,-0.20466097,0.07054271,-0.020601965,0.16020072,0.2018215,0.0639458,-0.19671088,0.13320936,-0.10723151,-0.19372405,-0.025383843,0.10668718,-0.0763782,-0.09053329,0.10347475,-0.029286534,-0.21058229,-0.03180588,0.08030632,0.27880734,0.22834107,0.33995783,0.07538214,0.026353113,-0.15059148
Compare units,-0.15580764,-0.20922574,-0.08991524,0.19099084,-0.12889405,0.051879082,0.0637114,0.1205876,0.029525854,0.06344382,0.04068033,-0.27416566,-0.207442,0.102004275,-0.063752025,0.043365,-0.04385189,0.2101674,0.08173983,0.07291058,0.33856818,0.12788789,0.082330935,0.03839483,0.17231971,-0.0236741,0.10817272,-0.17456143,-0.09268767,-0.04213862,0.074621186,-0.035399742,0.13995488,0.15884571,0.18883526,0.04876476,-0.06121632,-0.0014447483,0.19568203,0.13539916,0.0014207757,-0.12855767,-0.19433527,-0.21776788,-0.11855467,0.24444261,-0.08500186,-0.13470522,-0.047012694,-0.27404565
Consolidate vars with coeff,0.30142856,0.03611751,0.04473923,0.015711425,0.062187348,0.054648686,-0.18058625,-0.08478504,-0.23668338,0.114008084,-0.013575046,0.094130814,0.25764698,-0.09229554,-0.2475113,-0.23112105,0.11774396,0.039448846,-0.00024091706,0.054879084,-0.2087918,0.02569784,-0.06338262,-0.095259905,-0.3173753,-0.1039297,0.112076566,0.14135824,0.13728108,-0.10186758,0.09124296,-0.23342256,-0.05354057,0.09127272,0.061702296,0.094316676,0.1674507,0.09228727,-0.19772628,-0.11197924,0.07589855,0.016296115,-0.12486552,0.09002922,0.028868271,-0.029762505,0.24796815,0.25162038,0.07681388,0.07192962
"Consolidate vars, any",0.16349849,-0.06522261,0.041713692,-0.16445325,0.117561944,0.06820011,-0.13712783,0.1333508,0.036456015,-0.028248254,-0.11499609,0.16053915,0.17807558,-0.023435885,0.001220408,-0.07542645,0.33439663,0.0018537804,-0.023187026,-0.08316766,0.006489743,0.17749882,-0.3968142,-0.16677268,-0.25104156,0.0834153,-0.13062997,0.107831046,0.083682805,-0.016954284,-0.018626072,-0.35536477,-0.16096936,-0.104465306,-0.019915367,0.047902428,0.10792943,0.031678416,-0.13804483,0.1118838,0.2121048,-0.054806072,-0.081879824,0.004187817,0.11115528,-0.0024471022,0.11871229,0.21082161,0.13840078,0.094291314
"Consolidate vars, no coeff",0.095445424,0.2012668,0.13503604,0.016803676,0.05888509,-0.03821821,-0.15250085,-0.09127432,0.09214551,0.052443773,-0.2378064,0.17025718,-0.023726463,-0.22644138,0.0019131221,-0.24139279,-0.1224284,-0.14986153,-0.03509839,0.09358893,-0.18432812,-0.08326864,-0.09363742,-0.22551861,-0.067951046,-0.1674476,0.014715904,0.26678747,0.09524862,0.011020326,0.05723282,0.0046932767,-0.0029732026,-0.18741015,-0.15238847,0.1650665,0.12027253,-0.00014882343,-0.08422236,0.17265174,0.16066773,-0.09726694,0.056467693,0.23050258,0.24804975,-0.10428907,0.2911638,0.07486785,0.0979357,0.15165819
Construct square from area,-0.05686544,0.109617494,0.039066583,0.17945568,-0.029090084,0.021412775,-0.070305504,0.061346482,-0.0015897688,0.29785135,-0.07026832,0.055597454,0.1657546,0.0027699263,0.096320935,0.008521261,0.14101851,0.038154442,0.061350446,-0.047534976,0.1519937,0.053673595,0.047812194,-0.18844768,-0.118966244,-0.20215133,0.4118978,0.15448567,0.16003056,-0.17379881,0.29660416,0.15469924,-0.036597997,-0.08193307,0.023856992,0.20961627,-0.084308214,-0.04224442,0.1599853,0.06290708,0.03459195,-0.39262992,-0.16053917,0.05729668,-0.027269967,-0.05795287,-0.029204808,-0.06268317,0.10106565,0.074177936
Construct square from side length,-0.065075845,0.16986477,0.12598601,0.055655845,-0.014917732,0.015119306,-0.15470196,0.11415119,-0.02187009,0.30540887,-0.10993032,0.08477337,0.105691575,0.04145332,0.18512821,-0.01145488,0.14483306,0.011156458,0.13464613,-0.088467084,0.059842974,0.07050063,-0.11684679,-0.2477527,-0.11343425,-0.24850622,0.2673868,0.21005626,0.023200259,0.017902486,0.26770684,-0.041745376,-0.11878225,-0.09440914,-0.065075554,0.14417456,-0.01861718,-0.09859982,0.10961704,0.089754045,0.16448599,-0.42859396,-0.012192842,-0.008715258,0.13267888,-0.0811478,0.02021452,0.025501596,0.17925975,0.092292786
Convert across system,-0.1584129,0.01506064,-0.16054527,0.20869191,0.0034238668,0.06352667,0.19103822,-0.00096923806,-0.015446601,0.003732437,0.16102305,-0.2672001,-0.024508946,0.19311537,0.08466483,0.2872753,0.06918332,-0.15037322,-0.15686199,-0.068495266,0.02759443,0.0676115,0.024405435,0.06785374,0.19821371,0.06168081,-0.0033351777,-0.23950611,-0.040616732,0.020688938,0.14995465,0.13765948,-0.11211698,0.3679254,0.058008403,-0.19526845,-0.20881057,-0.1132085,-0.048894044,-0.05941932,-0.2778624,-0.096501425,-0.042251334,-0.12131819,-0.17274319,0.11136091,-0.12592216,-0.08171464,0.024561219,-0.0908638
Convert area units,0.045941923,-0.07736301,-0.2536325,0.10593546,-0.15998976,-0.03244793,0.13666815,-0.00033508055,-0.039146442,-0.1391383,0.0080506345,-0.38678622,-0.07588333,-0.17952088,-0.34846476,-0.0381482,-0.022218984,0.12705223,-0.030204676,0.1206179,0.14173102,0.13284144,0.12992394,0.07801596,0.031633917,0.013600963,-0.0008631941,-0.23010118,-0.073417716,-0.016354693,0.00895297,0.09944227,0.13802348,0.26246274,0.12367982,0.0447007,-0.11829117,-0.029593607,0.046402253,0.058729228,-0.22579348,-0.1417192,-0.19685985,-0.14969759,-0.10105303,0.2584842,-0.13041492,-0.13422532,0.080950916,0.022387423
Convert decimal units greater than one,0.12019327,-0.10864282,-0.2806339,0.014899255,-0.11667547,-0.00935833,0.16204192,0.010423205,-0.00010055094,-0.09960277,0.0643292,-0.32278097,-0.027009172,-0.09148264,-0.2879949,0.0489327,0.025256975,0.16272154,0.059435353,0.074867554,0.17941579,0.22210819,0.06763101,0.13640782,0.027211187,0.11195388,-0.035088804,-0.17719209,-0.07583674,-0.051094264,-0.07704715,0.022152238,0.14468262,0.2288263,0.10657506,0.09422658,-0.14969283,-0.035111435,0.15233779,0.088965856,-0.22479208,-0.15953924,-0.16961159,-0.21022981,-0.19482413,0.2691052,-0.12772125,-0.101783596,0.060770903,-0.048935458
Convert decimal units less than one,0.09445198,-0.049526952,-0.19694261,0.092090376,-0.116139926,-0.08995971,0.16104034,-0.09961658,0.05787166,-0.09914587,0.0031452784,-0.3475775,-0.12143044,-0.18484348,-0.32179242,-0.016811006,-0.08343195,0.11250119,-0.0712473,0.14544302,0.07039217,0.14154015,0.1336861,0.11518178,0.07489065,0.02859936,-0.14895791,-0.13236503,-0.084629975,-0.030095829,-0.050463248,0.10983449,0.13814694,0.28318763,0.076002136,0.08346734,-0.20853475,-0.0653705,0.07731489,0.09923611,-0.27415577,-0.14722283,-0.1456037,-0.11223836,-0.16894047,0.22594213,-0.13431618,-0.0920723,0.118006766,0.010517772
Convert integer units,0.0026772963,-0.20356478,-0.10501609,-0.110748105,-0.2131696,-0.15725796,0.11866395,0.1111723,-0.048387043,-0.19814739,-0.118667774,-0.31162488,-0.07312916,-0.15639885,-0.2596094,-0.15203477,-0.0012919282,0.2381158,0.022830142,0.2071657,0.08929025,0.1331243,-0.052941028,0.1297186,-0.030826481,0.07295478,-0.079587616,-0.22614338,-0.13890019,0.047672667,-0.08499906,-0.1766988,0.073109016,0.227238,0.14234075,0.037478104,-0.037429597,0.058266677,-0.0049920776,-0.024919873,-0.13022254,0.0012777387,-0.14634167,-0.1939725,-0.069562554,0.26548246,-0.18945447,-0.034075372,0.020769283,-0.15301096
Convert large number units,0.06909039,0.018412432,-0.20321356,0.12717919,-0.1423864,0.043262236,0.10197334,-0.016437162,0.039620038,-0.027686084,0.107364446,-0.35628846,-0.10857808,-0.100815155,-0.27203438,0.0894023,-0.120334536,-0.07742606,-0.0694249,-0.032670263,0.03514621,0.17995028,0.1472242,0.09606913,0.15173195,0.035728488,-0.116476566,-0.13671987,-0.13049862,0.14365345,0.041182306,0.11976329,0.07769648,0.2932471,0.114724085,-0.004640342,-0.23089303,-0.23634626,0.09782073,0.094108105,-0.26258957,-0.15119354,-0.013835613,-0.2616684,-0.029617975,0.19885798,-0.09677845,-0.029132934,0.092188396,0.07926045
Convert length units,0.1769415,-0.10080097,-0.19776992,0.17845932,-0.117206365,0.032563742,0.11852438,-0.10154674,-0.01661602,-0.023790069,0.0868866,-0.33449268,-0.0007109039,-0.11234186,-0.35151944,0.04997479,-0.015204375,0.03312547,-0.06677132,0.07472043,0.02494594,0.1652712,0.16363953,0.2344597,0.0039169095,0.05502568,0.005483238,-0.15321697,-0.05545059,0.056229625,-0.018791517,0.12862447,0.10524621,0.24853687,0.17672437,0.080351576,-0.21701235,-0.081262484,0.00043218938,0.002412472,-0.32821196,-0.041784007,-0.17884555,-0.17307684,-0.18290575,0.17063849,-0.11971754,-0.0012470975,0.033657584,0.07088363
Convert medium number units,0.17686386,-0.033552233,-0.19895336,0.088556826,-0.08493159,0.00534441,0.12864877,-0.14496471,-0.07693999,0.054308012,0.11261925,-0.23253994,0.027788997,-0.08651277,-0.38704234,0.044267844,-0.022188466,0.027414681,-0.06152253,-0.03729052,0.018675765,0.16178802,0.17781535,0.103904374,0.0215894,0.013878095,-0.06449147,-0.046764612,-0.07377139,-0.04115296,0.08660802,0.17300329,-0.0672397,0.36451736,0.12425748,0.041554224,-0.21407378,-0.1478162,0.043010283,0.020994984,-0.3347514,-0.16354005,-0.066602334,-0.20328863,-0.18771875,0.15987362,-0.16814484,0.013232353,0.08527806,0.08469943
Convert small number units,0.11223616,-0.04058857,-0.1718683,0.16934149,-0.101033606,-0.083979756,0.048386138,-0.049538948,-0.050596457,0.0133895315,0.039434697,-0.34310943,-0.030281447,-0.20545407,-0.38267136,-0.06920021,-0.11197554,0.08301416,-0.07276625,0.046804965,0.07778797,0.082814455,0.25637722,0.088221885,0.04837965,-0.06727728,-0.016811278,-0.14370261,-0.11597053,-0.03579187,0.06321164,0.17276639,0.081946194,0.26710656,0.12887275,0.07422518,-0.14920247,-0.1261385,0.04251843,0.06988236,-0.3049255,-0.14907806,-0.08270507,-0.17220712,-0.08729774,0.19689348,-0.1544722,-0.057039723,0.1538168,0.074137755
Convert time units,0.03423823,-0.026171325,-0.06415871,0.17839938,-0.07758172,-0.084308974,0.089527704,-0.056472916,0.19905756,-0.19663776,-0.0808684,-0.3411545,-0.21340835,-0.15863426,-0.1862777,0.08570797,-0.11816107,-0.21349438,-0.09426196,0.11601423,-0.10702165,0.05846226,-0.033667017,0.09935456,0.16070653,0.02308,-0.16444634,-0.14863612,-0.18318388,0.26777634,-0.085277654,0.13654116,0.12354447,0.105766065,0.10728775,0.042278845,-0.21201336,-0.17769101,-0.16686293,0.008981037,-0.21676168,-0.013928762,-0.10850109,-0.11931019,0.1855884,0.14225507,-0.012035868,-0.012090856,0.057756748,0.18378377
"Convert unit, mixed",-0.061085753,0.03881288,-0.2339141,0.22908194,-0.17679052,-0.07497671,0.15160719,-0.092732266,0.14076844,-0.028590232,-0.021609833,-0.38621882,-0.13049553,-0.1607027,-0.29558933,-0.045360822,-0.005551002,-0.010047474,-0.015896365,0.17324197,0.09989447,0.088485755,0.14320065,0.041872934,0.088279955,-0.090949506,0.056146037,-0.09501745,-0.0059798528,-0.010936709,0.1525423,0.2738341,0.14724049,0.25770617,0.15726736,0.052875,-0.15260676,-0.052331947,0.0032975236,0.09691788,-0.16101325,-0.2033619,-0.2024903,-0.038113866,-0.0152878845,0.16182922,-0.07215276,-0.13128707,0.061615158,0.0773691
"Convert unit, multiplier",-0.12849677,0.010144511,-0.0037360683,0.0031976155,0.20681979,-0.0058744997,0.044177696,0.04923938,0.3240746,-0.07180394,-0.13582607,0.012412967,-0.22059481,0.08596022,0.29040602,0.22542988,0.021301014,-0.16759793,0.05881671,-0.05479966,0.053947803,0.10973827,-0.30954665,-0.25224558,0.22538054,0.06500392,-0.095393375,0.08115185,0.026267076,0.07026061,-0.06287229,0.012944852,-0.07954666,-0.10347704,-0.14590769,0.068902664,-0.04522893,-0.0822399,0.03881511,0.31286502,0.16027063,-0.2628299,-0.054182336,0.07760094,0.15516903,0.07779398,0.16330336,-0.104172744,-0.050257053,-0.034023337
"Convert unit, offset",-0.031074725,0.058478918,-0.19528209,0.20077641,-0.20061216,-0.010094474,0.20813386,-0.089747,0.06810911,-0.09094654,0.112292856,-0.3369121,-0.020592762,-0.116660304,-0.1640276,0.18250567,-0.14257093,-0.023228303,-0.030564906,0.060226064,-0.13094035,-0.040081628,0.21539621,0.11214656,0.024135709,0.055922676,0.17352124,-0.16237822,0.11695876,0.08284881,-0.13846461,0.053952765,0.40177637,0.16101275,0.15802333,0.13253914,-0.10323431,-0.034903515,-0.11355086,-0.11013147,-0.19840916,0.03991681,-0.17522928,0.14300466,0.05161181,0.15378346,0.032324526,-0.05703216,-0.12606923,0.028298369
"Convert unit, standard",-0.033490602,-0.051764835,-0.20711839,0.07205843,-0.23882699,-0.051292773,0.116384745,-0.08361713,0.075835176,-0.024396041,0.038412414,-0.3077137,-0.083744496,-0.09129768,-0.2783896,0.061308302,-0.012264013,0.06956764,-0.08534835,0.030495336,0.14954433,0.1643243,0.17482981,0.2574362,0.09414944,-0.062113408,-0.14249969,-0.1755722,-0.16455187,0.14435188,0.036123082,0.15858406,0.105407596,0.19562772,0.18997498,-0.035027854,-0.1891577,-0.1069647,0.063417934,0.0038525956,-0.24262907,0.01375263,-0.02589556,-0.18707325,-0.14643547,0.12214317,-0.2593885,-0.051541034,0.040778033,0.17466179
Convert volume units,0.0037084057,-0.0211934,-0.21095292,0.14994167,-0.08409594,-0.0062557156,0.14686799,-0.05908269,0.03161032,-0.09201741,0.06193201,-0.38365,-0.15528427,-0.121522486,-0.29772317,0.06135525,-0.05222142,0.048401274,-0.043460846,0.07572844,0.10496211,0.124398194,0.12876916,0.07377855,0.13867445,0.031088322,-0.085227825,-0.19187322,-0.11994812,0.02804946,0.003923399,0.17435814,0.099577315,0.2771332,0.0974772,-0.0023988641,-0.22152701,-0.11892349,0.08817774,0.12433601,-0.24425787,-0.19502641,-0.120820664,-0.17658898,-0.10160637,0.24135667,-0.10854357,-0.11944554,0.12835453,0.016541924
Convert weight units,0.09728814,-0.048588093,-0.21866159,0.19942892,-0.10426886,0.034743324,0.13182047,-0.0648009,0.07216482,-0.08198843,0.10422352,-0.36940652,-0.06795905,-0.10646607,-0.2962572,0.11726939,0.010955514,-0.020677457,-0.08998003,0.05416783,0.05031293,0.13469501,0.15456514,0.18599907,0.04872954,0.06398263,-0.065785766,-0.20451638,-0.10258763,0.09528756,-0.030839026,0.17874339,0.15241942,0.19917502,0.17542793,0.019050881,-0.23116477,-0.112925686,-0.0071060904,0.03981383,-0.2825228,-0.049403172,-0.16294812,-0.16995136,-0.112594575,0.20448682,-0.120659,-0.05043974,0.09240677,0.12102391
Convert within system,-0.013855186,-0.04274039,-0.2885737,0.17771089,-0.14175533,0.046653952,0.12800603,-0.05061891,0.031496566,-0.14039315,-0.010960287,-0.32457283,-0.08615797,-0.12853803,-0.25017014,0.1013731,0.12625752,-0.09356293,-0.16804014,0.058249697,0.09006771,0.16275369,0.092062175,0.12303992,0.057913966,0.046635617,-0.081304625,-0.23372714,-0.06448952,0.07004179,0.07669623,0.2044858,0.09181564,0.26598772,0.24504584,-0.008555228,-0.17751326,-0.040126797,-0.07712301,-0.0082619665,-0.21236236,-0.023072286,-0.21896811,-0.12823363,-0.087447286,0.20793551,-0.1066337,-0.09372885,0.0469314,0.1384141
Correctly placing points,-0.1990832,0.12157597,-0.16408062,0.21097292,-0.1651276,-0.00840798,0.064764895,-0.073352695,-0.10215871,-0.0034424264,0.16095805,-0.2225327,0.0692189,-0.036306713,-0.17392884,0.08784466,0.041066356,0.1400015,-0.2646832,0.06812475,-0.017755585,-0.11368748,0.17937116,0.111401565,-0.07048964,-0.1676746,0.10131791,-0.28870383,0.11235905,-0.0028744868,0.15494257,0.07743363,0.15695481,0.22242154,0.16701865,-0.22957559,-0.06167638,0.032077223,-0.11637698,-0.29377216,-0.19935872,0.110713966,-0.11905767,0.09557219,-0.14614233,0.0808952,-0.032182213,0.089313954,0.008522102,0.1116244
Cterm-Expression-Gla:Student-Modeling-Analysis,-0.14711955,0.048684094,0.14352672,0.0040344247,-0.21188813,-0.11369473,0.04785435,0.042039648,-0.1614913,0.36539334,-0.0064168302,0.030537417,0.19902086,0.10078551,0.05209758,-0.15235852,-0.06742314,0.26368088,0.053450834,0.10986748,0.05385031,-0.15875502,0.06785178,-0.039088517,-0.106743954,-0.2993904,0.21868938,-0.033437308,-0.067348436,-0.17792,0.2111843,-0.23126285,-0.09030026,0.110416315,-0.025091011,-0.050024148,0.042398095,0.08569086,0.024757937,-0.23690782,0.011673906,-0.096769564,0.119451195,-0.06436651,-0.007276009,-0.09025688,-0.23140348,0.15182374,0.07263585,-0.2059281
Define Variable,-0.23815338,0.2916433,0.029916497,3.7871685e-06,0.11833628,-0.12257827,-0.08585039,0.01118218,0.18305503,0.043510225,-0.049691178,-0.030270496,0.050122436,-0.11644199,0.14842047,0.098052405,-0.04958907,-0.14428806,-0.23805723,-0.058654632,-0.20216809,-0.12529136,-0.11938819,-0.18566796,0.033607043,-0.1640529,-0.16294087,-0.0044718734,-0.103482306,0.0023585183,0.056537326,0.06733069,-0.0648988,-0.059031155,-0.17100812,-0.15816028,-0.07001409,-0.13657436,-0.08575502,-0.14495084,-0.052200418,-0.10397859,0.2989055,0.15012665,0.22210789,-0.15457131,-0.10826679,0.12518626,0.10822997,0.34776363
Describe-Cterm-Gla:Student-Modeling-Analysis,-0.22049963,0.09872393,0.18440576,0.022455819,-0.19145344,-0.11553345,-0.0025941352,0.048963476,-0.13904484,0.3475353,0.001341791,0.04705566,0.18563299,0.14885338,0.1187747,-0.08641608,-0.08364119,0.1876653,0.075412214,0.079218276,0.027147526,-0.21094336,0.014673799,-0.04909196,-0.07790614,-0.3072535,0.20535173,-0.010610986,-0.12481814,-0.15461515,0.229256,-0.2559567,-0.057896078,0.072253436,-0.023811046,-0.10073366,0.081748985,0.090758145,0.007825611,-0.25555944,0.09231812,-0.07402075,0.12564905,-0.038609874,0.04100838,-0.10367455,-0.187928,0.15625079,0.02487963,-0.16794664
Describe-Product-Gla:Student-Modeling-Analysis,-0.16312166,0.06677588,0.17275466,0.078412086,-0.22530249,-0.08860423,0.011273964,0.04997739,-0.12787306,0.3225512,-0.0070163165,-0.027541686,0.15998986,0.114838876,0.052025028,-0.15307611,-0.059730206,0.19214323,0.0003448463,0.1430723,0.024450326,-0.19229043,0.052394234,-0.024374453,-0.08410907,-0.35115132,0.16523884,-0.08408666,-0.0865056,0.011178101,0.22790897,-0.34282738,-0.01270017,0.07077608,0.05780556,-0.16171531,0.109605305,0.081467465,-0.08546122,-0.2602425,0.05790266,0.02455645,0.10416328,-0.04175951,0.07549104,-0.038621362,-0.13009559,0.19275214,0.10106479,-0.15968086
Describe-Proportional-Constant-Gla:Student-Modeling-Analysis,-0.06318548,0.047445253,0.17166117,0.03540431,-0.22309868,-0.019228132,-0.010464515,-0.0055541634,-0.2455137,0.37854284,0.0013609236,0.08347844,0.20238549,0.079204656,0.004148169,-0.18706632,-0.038683463,0.2966732,0.06123711,0.06939054,0.0688411,-0.13035642,0.07566955,-0.016264563,-0.1608546,-0.30651656,0.3140647,0.056178514,0.031503942,-0.15131052,0.19937538,-0.19856605,-0.076185,0.06916819,-0.0060132802,0.064060815,0.03676774,0.1316653,0.007206625,-0.18432546,0.03526458,-0.10375333,0.053034153,-0.0071984446,-0.06276399,-0.11686481,-0.14983112,0.14878291,0.03114309,-0.15496017
Describe-Sum-Gla:Student-Modeling-Analysis,-0.19109891,0.06273789,0.16860259,0.08859991,-0.2116923,-0.092291705,-0.0046863146,0.064736605,-0.15629023,0.3253543,0.018442502,-0.059320718,0.14722878,0.114613935,0.046200015,-0.14248975,-0.080680154,0.23877168,-0.0002958404,0.14650828,0.03469102,-0.19000392,0.070041485,-0.027734613,-0.07342441,-0.33900997,0.21690534,-0.09853375,-0.09827856,-0.057551976,0.20592849,-0.299504,-0.0034810111,0.09331276,0.039832894,-0.12928449,0.08105745,0.07729528,-0.02603803,-0.2611295,0.043723907,-0.014221995,0.09583183,-0.05763982,0.039700165,-0.04201562,-0.16039543,0.16812418,0.092514135,-0.18779242
Describe-Variable-Gla:Student-Modeling-Analysis,-0.14408822,0.027393928,0.14497812,0.09398913,-0.26483312,-0.10747064,0.025633506,0.01602289,-0.16616571,0.3856455,0.048276015,-0.05495081,0.16298927,0.11877014,0.003694919,-0.13042095,-0.07767448,0.25821647,0.0830183,0.11975547,0.06801207,-0.14274263,0.1069006,0.044684745,-0.07174541,-0.3308445,0.29367846,-0.056644965,-0.0963805,-0.08555106,0.21169749,-0.20241691,-0.014552147,0.12164103,0.084679395,-0.02496734,0.030088466,0.09140778,0.011907199,-0.21129112,0.015946541,-0.057282597,0.02933045,-0.09099515,-0.0342315,-0.05076759,-0.17225657,0.14036839,0.060647536,-0.20372277
Determine that data value does make sense,-0.2794389,0.06328493,-0.11471726,-0.056727707,0.037914783,-0.22863287,0.1437795,0.14333116,0.23975597,-0.21362935,-0.10286573,-0.17224474,0.029271573,0.024752695,0.28012702,0.42278594,0.18561542,-0.27991757,0.025383478,-0.1115579,-0.13623944,-0.052595776,-0.20871031,0.08416856,0.0785824,0.057297826,-0.076887675,-0.06946036,-0.16871078,0.06327947,-0.005910213,0.22164097,-0.14981784,-0.0666476,-0.0156996,-0.06943379,0.0035510857,-0.12494136,-0.06999627,-0.03465734,-0.09582993,-0.03502886,-8.3672705e-07,0.12728293,0.025705729,0.00018994244,0.084720924,-0.048872303,0.013918755,0.11893132
Determine that data value does not make sense - above range,-0.24470164,0.061392054,-0.134855,-0.036026914,0.05363105,-0.25810105,0.09223142,0.13979715,0.19636577,-0.20130838,-0.07944727,-0.18954818,0.11571196,-0.017169142,0.21841855,0.378627,0.23308566,-0.26036572,-0.046991035,-0.11143771,-0.19705382,-0.050661318,-0.19121246,0.026625475,0.012625705,-0.0022391705,-0.037222993,-0.10290484,-0.17348282,-0.02983711,0.0017497136,0.203715,-0.17062294,-0.028752271,0.01991394,-0.047896486,0.070995085,-0.10673985,-0.11880167,-0.122533895,-0.10430836,0.0091950465,-0.036047745,0.18088818,0.023525279,-0.04272387,0.13081588,-0.0028927973,0.06440216,0.21537285
Determine that data value does not make sense - below range,-0.17644235,0.09402152,-0.14284793,-0.11101859,0.15180315,-0.23257367,0.09521239,0.11527278,0.18804678,-0.1870537,-0.037163228,-0.12425378,0.123669714,-0.0006235022,0.21455842,0.38747,0.2107427,-0.26212502,-0.062773325,-0.15062936,-0.2367669,-0.0061203754,-0.21897627,-0.020972716,0.027002174,0.0842292,-0.14051127,-0.06280957,-0.14647289,-0.052404363,-0.0728744,0.18100375,-0.18226884,0.018128343,-0.07801362,-0.06601658,-0.018656416,-0.12386231,-0.1227019,-0.11010794,-0.15797101,-0.060845513,0.05662898,0.12858273,0.038931593,-0.04981646,0.015717281,-0.0033778986,0.0931762,0.20725006
Determine that mean does make sense,-0.2582342,0.07274489,-0.14881347,-0.04263188,0.03830037,-0.24585162,0.15272371,0.12317602,0.24662353,-0.23863864,-0.10579496,-0.21388271,0.013810992,0.005061462,0.23511472,0.42795494,0.14657554,-0.28393272,0.043931916,-0.087018766,-0.12812062,-0.04362642,-0.17322986,0.081218995,0.10230252,0.06207952,-0.07727737,-0.06653456,-0.18022102,0.024552474,-0.024181096,0.25031802,-0.0926659,-0.050315056,-0.02898161,-0.03661733,-0.004870789,-0.13151413,-0.03173325,-0.039792124,-0.13272355,-0.065481335,-0.018029895,0.118965164,0.01328511,0.026047282,0.08081601,-0.08556286,0.003848735,0.13571273
Determine that mean does not make sense - above range,-0.28969634,0.06469506,-0.13282607,-0.02821732,-0.009334343,-0.23897353,0.07345044,0.12759252,0.20095637,-0.20233867,-0.08409859,-0.17532617,0.082063444,0.00324073,0.23087987,0.37900022,0.19806688,-0.26724625,-0.045065925,-0.09328591,-0.15214235,-0.040161982,-0.18048538,0.071164235,0.049877778,-0.03413756,-0.012618798,-0.12369279,-0.21339089,0.005699326,0.03428658,0.23428681,-0.14759062,-0.059702784,0.05119102,-0.06946641,0.0741929,-0.09950506,-0.061047785,-0.14267717,-0.076392286,0.06454818,-0.037601195,0.14666423,-0.0036984766,-0.050577186,0.13733467,-0.015354456,0.007816288,0.24552906
Determine that mean does not make sense - below range,-0.20122628,0.08804818,-0.15237008,-0.11249575,0.14594854,-0.20176771,0.13119222,0.11977761,0.23327412,-0.21128567,-0.07455562,-0.10715609,0.0796318,0.005728445,0.25803092,0.39601305,0.20359142,-0.28403243,-0.035643674,-0.14133817,-0.19806686,-0.010721737,-0.2156964,-0.05779527,0.052407853,0.09484257,-0.120140955,-0.037605163,-0.10436957,-0.055299714,-0.054578625,0.19850634,-0.1825799,-0.02892553,-0.08283986,-0.055009726,0.011402688,-0.133764,-0.07472099,-0.044292122,-0.09903804,-0.073764995,0.040839314,0.16699067,0.05038636,-0.03416444,0.08406261,-0.041606665,0.058589082,0.1719316
Distribute,0.10521886,0.10119436,0.17110993,0.06416643,0.18323961,0.21750121,-0.07140418,-0.12771271,0.049016815,0.21934998,-0.11976744,0.18038975,0.1259743,0.14498207,0.09910449,0.018094743,0.17906594,-0.08898763,0.05277613,0.019723985,0.04922737,-0.012565514,-0.29528478,-0.18790321,-0.15339997,-0.107108384,0.11729866,0.29072005,-0.0034604764,0.07263366,0.17543477,-0.2687818,-0.16750284,-0.15316331,0.051024836,-0.034538712,0.016493073,0.05916486,-0.14713147,0.0073023043,0.29739884,-0.14531393,0.02518843,0.09394338,0.18544914,-0.049017753,-0.11261501,0.1205434,-0.07588228,0.13840988
Do Combine Terms - Whole,-0.00913712,-0.04679694,-0.013937316,-0.07303832,-0.21927649,-0.058191724,0.13333637,-0.12761435,0.07347819,0.05318627,-0.10293164,0.11623558,0.16721353,-0.102469645,-0.17975304,0.085974984,0.16809429,0.07666413,0.12962131,0.019141007,-0.19966331,0.01067509,-0.15252532,0.21205898,-0.2829109,0.07924449,0.1254166,0.07932596,0.06078317,0.100555904,-0.076261654,-0.15797444,0.019781599,-0.045000304,0.27059847,0.19072597,0.086237125,0.15595107,-0.22682141,-0.10715095,0.00831161,0.23340614,-0.14699918,0.18418838,0.0034899386,0.07388862,0.19071127,0.30451962,-0.1791654,-0.016649736
Do Eliminate Parens - whole,0.18869074,0.10293399,-0.11245355,0.010194581,-0.07230763,-0.19380301,0.14662029,-0.12898728,-0.025517076,0.030314304,-0.049556956,-0.28255585,0.15170677,-0.24904925,-0.38388085,-0.10694337,-0.09191129,-0.049612805,-0.0791144,0.07436268,-0.20226468,0.050312296,0.08909602,0.06698212,-0.081943326,-0.034615587,-0.07040322,0.040297844,-0.056109555,-0.050666,0.040440045,-0.0055609155,-0.009649842,0.32621405,0.056734953,0.11278423,-0.11903387,-0.09463945,-0.19450517,-0.062647894,-0.35341132,-0.13053395,0.07250336,0.01760686,0.07416399,0.09277493,-0.18565574,0.07526966,0.19243303,0.07664288
Do Multiply - Whole (typein-expression-2),-0.1813501,0.32014865,0.035142355,-0.08781578,-0.20237121,0.043479726,-0.054941114,0.037400622,0.087035134,0.08333945,-0.05351657,-0.17517507,-0.20950213,-0.031873077,0.0777582,0.2266187,-0.25321412,-0.09337483,-0.18656746,-0.13716377,-0.0027104537,0.064338565,0.1491472,0.2185381,0.07563687,-0.12450001,-0.15218495,0.17614187,-0.17887314,0.17007974,0.14156957,0.08037244,0.11340066,-0.058344092,0.008401005,0.008768684,-0.093599536,-0.18515007,0.26422814,0.16390139,0.00051821134,-0.054287374,0.2842392,0.040509798,-0.095576346,0.03258107,-0.18411048,-0.09327726,0.013576166,0.009855114
Do Multiply - Whole nested,-0.116318,0.041415475,-0.102296166,0.10522366,0.08388694,-0.023402683,0.13180263,0.1712947,-0.06435627,0.07787697,0.13367844,-0.36650896,0.08867482,0.091802746,-0.050350834,0.1631581,0.124211125,0.16789293,0.10970204,-0.0038465885,0.11149265,-0.044155713,-0.069784746,-0.13317035,-0.01696305,0.021574415,0.08567533,-0.15890835,-0.116325125,-0.10504651,0.065696724,-0.24920806,0.045828454,0.23807745,0.002444723,-0.14188685,-0.07090392,-0.0680855,-0.00077148626,-0.07435003,-0.15030116,-0.40146568,-0.020658866,-0.13477418,0.061228007,0.23415954,-0.23395929,-0.014418762,0.19219318,-0.19275871
Done?,0.17960481,0.20056722,0.096964404,-0.099384055,-0.095588796,0.03468419,-0.111325696,-0.10956009,-0.16551703,0.19882461,-0.057267383,0.24498679,0.25934172,-0.15853293,-0.109197855,-0.1713368,0.14113986,0.08006135,-0.09001334,-0.049119238,-0.15776463,0.012181477,-0.056883395,0.013805887,-0.3281737,-0.1605485,0.1025254,0.25510147,0.10253401,-0.019669555,0.059671834,-0.025250567,-0.17353475,-0.105115816,-0.024827568,0.18559971,0.03451006,0.11116823,-0.08670424,-0.1625181,-0.019807125,0.006746958,0.08379571,0.16282578,-0.024319561,-0.24081695,0.016311575,0.19807541,0.11192034,0.22769107
Edit Algebraic a in A problem,-0.013706195,-0.020524103,-0.043499175,-0.16977936,-0.34343866,-0.13170956,0.14036039,0.22345969,0.222838,-0.13570142,0.0074614626,-0.06394874,0.10021509,0.02270103,0.07038872,0.051894136,0.07562015,0.014234014,0.16129148,0.16527982,0.068144515,-0.005075934,0.01603832,-0.12748152,-0.24510273,0.055149857,0.03432386,0.041400354,-0.11285165,-0.1810201,-0.03384808,-0.1722045,0.09630372,-0.16825062,-0.08841792,-0.0052273814,0.13054356,0.057812016,0.36271995,-0.12437775,0.3260831,0.015352451,-0.29673368,-0.12314761,0.026992371,-0.07643457,-0.08744539,-0.0014188539,-0.100800894,0.05970048
Edit Algebraic a in G problem,-0.010030868,-0.017144682,-0.089020476,-0.11000418,-0.36404437,-0.15310647,0.15925868,0.21219155,0.22351858,-0.14644778,0.024939965,-0.13931751,0.094441995,-0.014135334,0.0032058666,0.025314147,0.054993756,0.024091993,0.13758828,0.20066005,0.065300226,-0.021849997,0.057026993,-0.14295858,-0.241615,0.032589573,0.030751456,-0.0017097141,-0.10334305,-0.20011611,-0.016848564,-0.16080604,0.14550531,-0.0972713,-0.075924166,-0.020491628,0.11287207,0.047231153,0.32745656,-0.16749561,0.27508375,-0.008200302,-0.33174902,-0.1308272,0.059558827,-0.057634376,-0.108467765,0.0014008197,-0.08537939,0.08726943
Edit Algebraic a in N problem,0.13951717,0.04022051,-0.08342357,-0.12923273,-0.4696187,-0.11813543,0.17711748,0.022370653,0.13868895,-0.051202655,0.06297221,-0.00961354,0.14361924,-0.06781801,-0.16855714,-0.052293275,-0.052342784,-0.06588212,0.14284506,0.17582121,0.010963889,0.03381648,0.19382498,-0.009108183,-0.23340674,0.045418076,0.024433253,0.07645912,-0.10411573,-0.17697346,0.038065087,-0.058495905,0.16504335,-0.037899505,0.013249482,0.092787676,0.06708217,0.061520834,0.33520025,-0.22973435,0.17304757,0.11374081,-0.2602957,-0.15147822,-0.00037259297,-0.111646794,-0.095947854,0.018551426,-0.11918148,0.13634442
Edit Algebraic a in V problem,-0.002726489,-0.02752751,-0.08890962,-0.13557918,-0.38758528,-0.17145567,0.16439217,0.19941132,0.21366702,-0.18228821,-0.016435679,-0.08954576,0.11166584,-0.05545348,-0.017459814,-0.00088565215,0.0642017,0.012356331,0.13458039,0.20509091,0.061533585,-0.006912846,0.0372724,-0.11915993,-0.2518578,0.05083912,0.052073456,-0.013182688,-0.108276434,-0.2143327,-0.021014428,-0.08709954,0.11296745,-0.12930723,-0.071202286,0.0380285,0.107424356,0.07133513,0.31616408,-0.18170264,0.23996228,0.037293654,-0.3294947,-0.12106619,0.0379168,-0.06157285,-0.07844235,-0.0012548473,-0.09732231,0.12806284
Edit Algebraic h in A problem,0.13555118,0.11245415,-0.09683387,-0.057433393,-0.38432235,-0.1468411,0.13684711,-0.07817003,0.11340943,-0.05065716,0.032976188,0.052984517,0.18560134,-0.16766667,-0.22557971,-0.093090855,-0.07086964,-0.10677246,0.09763024,0.16963342,-0.08705801,-0.046080183,0.1717288,-0.037360422,-0.24704958,0.016887255,0.05418377,0.11061207,-0.062575676,-0.23121512,0.04748469,0.0697053,0.16821574,-0.011858236,-0.009322227,0.13134523,0.0336686,0.10020271,0.18344386,-0.31157622,0.061024584,0.08736869,-0.22893174,-0.034385107,0.058414593,-0.1586892,-0.08328546,0.048609763,-0.13228804,0.27648354
Edit Algebraic h in G problem,0.106982514,0.09285462,-0.075519204,-0.09541345,-0.39253,-0.18433493,0.13515037,-0.02075997,0.12112743,-0.05807781,0.025188409,0.04392054,0.20763232,-0.14668259,-0.1867808,-0.088123724,-0.07385813,-0.10540891,0.09975569,0.16992058,-0.10066145,-0.067909345,0.15715067,-0.041695096,-0.25416625,0.015341083,0.037271615,0.0894928,-0.0691005,-0.22548813,0.04912908,0.00754298,0.16190746,-0.023735547,-0.025150996,0.08289541,0.06265016,0.09198326,0.17537068,-0.35189566,0.075103,0.10708455,-0.2095215,-0.048274405,0.08080167,-0.16769886,-0.113153845,0.07173808,-0.14731921,0.25038552
Edit Algebraic h in N problem,0.14390497,0.07645111,-0.0022109668,-0.10554386,-0.45637196,-0.14653201,0.09853665,-0.027924526,0.08469977,-0.015144323,0.03351497,0.012551831,0.1726709,-0.13071328,-0.21922223,-0.13321991,-0.085718036,-0.0541581,0.086773105,0.1903324,-0.06324365,-0.041662756,0.1908182,0.024582103,-0.27500755,-0.018155653,0.039059434,0.11415662,-0.11827015,-0.1516831,0.05050992,-0.06745917,0.16402026,-0.052319705,0.025860308,0.089969195,0.071608156,0.077458024,0.24064326,-0.2691997,0.14779764,0.1492881,-0.21261023,-0.102789864,0.023960212,-0.14850925,-0.11545856,0.08564978,-0.09457917,0.19293438
Edit Algebraic h in V problem,0.13544838,0.13964166,-0.063580856,-0.02982388,-0.3512471,-0.12284646,0.07187659,-0.07272191,0.10173818,-0.0012445792,0.040489312,0.06230577,0.19849686,-0.12238207,-0.19308934,-0.08930775,-0.080654524,-0.09921975,0.07704991,0.15618104,-0.09383588,-0.077533305,0.17374423,-0.0902801,-0.25837648,-0.056439698,0.048960645,0.1395284,-0.07640664,-0.24508528,0.07748982,0.008446246,0.19090559,-0.029006064,-0.051254522,0.09269669,0.06873291,0.09649357,0.16037399,-0.32539365,0.10260594,0.060531765,-0.20317201,-0.0276861,0.06893265,-0.16432434,-0.09676502,0.086667836,-0.13122033,0.3360653
Edit Algebraic k in A problem,0.10765394,0.041855056,-0.07029485,-0.04355479,-0.17276196,-0.14098929,0.07888863,0.085539706,0.19291908,0.15757778,0.041688688,-0.054777883,0.14409779,0.16427898,-0.029467026,0.10335444,-0.09814452,0.035019517,0.21395025,0.14061321,0.25867695,0.18399897,0.041561097,-0.027379336,-0.018829951,-0.1739779,0.13503848,0.18055147,-0.07300931,-0.23195939,0.1018906,-0.053250197,0.1134455,-0.09169527,-0.037792314,0.14580075,0.02840334,0.14358981,0.40124407,0.07114353,0.1704777,-0.19247977,-0.24751174,-0.16744967,-0.1588453,0.017200008,-0.1149932,-0.14358395,-0.08045682,-0.06560353
Edit Algebraic k in G problem,0.12852763,0.011594843,-0.14368686,-0.110728905,-0.1523484,-0.10014398,0.16507043,0.07648444,0.24945016,0.07400109,0.02625431,0.010753004,0.12363869,0.15190215,0.011248676,0.15991247,-0.037787613,-0.005608447,0.2610456,0.0938242,0.25754145,0.22427714,0.009185747,-0.06303427,-0.0018419677,-0.06312537,0.08748002,0.16107063,-0.022866238,-0.2194827,0.019428637,-0.019481841,0.08349684,-0.13273072,-0.063713044,0.1662562,0.033559203,0.107232496,0.41779542,0.1287722,0.17952728,-0.18281765,-0.24849744,-0.14111073,-0.13299593,0.028580956,-0.023392513,-0.16892827,-0.083945945,-0.058356564
Edit Algebraic k in N problem,0.17905529,0.08639259,-0.08150438,-0.117742404,-0.420266,-0.159282,0.14554982,-0.04468989,0.0822813,-0.030768152,0.06057305,0.037720796,0.2029591,-0.14393134,-0.25652364,-0.09350643,-0.048258543,-0.062143963,0.12716654,0.14781776,-0.05630516,-0.022440836,0.19790149,-0.039458517,-0.2716039,0.012286038,0.012282082,0.087271884,-0.09109739,-0.2287182,0.044413403,-0.033335704,0.14376706,-0.011442426,-0.0028661313,0.11083122,0.07658214,0.054508556,0.25833073,-0.26406655,0.105745375,0.079289496,-0.23890767,-0.10075844,0.030303761,-0.12604915,-0.038693786,0.083024174,-0.045501646,0.20292722
Edit Algebraic k in V problem,0.13638288,0.01797853,-0.11911073,-0.12466207,-0.19825968,-0.078302935,0.14899656,0.097959414,0.253356,0.044545334,0.04927086,0.003684972,0.09877957,0.120250344,-0.00828791,0.13948545,0.017300759,0.0041284487,0.201842,0.11073494,0.2048913,0.21573766,0.02906208,-0.08092517,-0.10525185,-0.014792152,0.049464326,0.19694443,-0.018492172,-0.22035302,0.025903905,-0.026107375,0.06118824,-0.114440605,-0.050489757,0.14703213,0.023487892,0.108605735,0.44664383,0.09065513,0.23826566,-0.15521751,-0.30781633,-0.14417578,-0.14038932,-0.0129475035,-0.06781535,-0.1347056,-0.08966908,-0.040179152
Edit Algebraic refl-v in A problem,-0.02265164,-0.046486583,-0.07952454,-0.15133801,-0.3697536,-0.16016603,0.16967766,0.22069909,0.23194206,-0.15384702,0.006597982,-0.09823794,0.101534925,0.010795135,0.048712965,0.03601581,0.05714153,0.0035685562,0.15129787,0.18306409,0.092205904,0.013786282,0.042959426,-0.11134038,-0.197099,0.06195481,0.03811092,-0.009606263,-0.12863868,-0.20201716,-0.040708113,-0.1365425,0.11306671,-0.12719457,-0.073675655,0.0061198627,0.115732476,0.06767241,0.35969603,-0.133023,0.27198455,0.034001905,-0.3053671,-0.1449122,0.010508358,-0.06341901,-0.114974275,-0.03710744,-0.1024665,0.06618146
Edit Algebraic refl-v in G problem,-0.015754607,-0.024810951,-0.065557085,-0.123918556,-0.3737614,-0.1763989,0.15015024,0.2267473,0.21309464,-0.13704115,0.032591224,-0.15292366,0.11355339,-0.0052853185,0.0131850755,0.027185855,0.04951618,0.027098525,0.12088279,0.19352335,0.03056139,-0.035680957,0.06181081,-0.123098254,-0.25167346,0.014107491,0.014494995,-0.013196122,-0.12463971,-0.1941899,-0.020834578,-0.18079127,0.12542038,-0.09209564,-0.08953369,-0.041153837,0.11544618,0.024178868,0.31239852,-0.19988507,0.26072463,0.018429628,-0.30107102,-0.13951305,0.05907126,-0.086352445,-0.12013992,0.039723106,-0.07217661,0.09770029
Edit Algebraic refl-v in N problem,0.12870407,0.01727147,-0.02971231,-0.10301067,-0.50436366,-0.13888077,0.10506963,0.02444503,0.068663254,-0.0560973,0.015450626,-0.02957534,0.13351506,-0.10245486,-0.19485503,-0.123031124,-0.13566151,-0.03597053,0.08881387,0.18931991,0.019053772,-0.00662825,0.21837544,0.081768796,-0.2135319,-0.04398376,0.046309028,0.03862315,-0.12694962,-0.10163513,0.06345043,-0.051640518,0.17808919,-0.05957193,0.02877089,0.07346772,0.071587265,0.06309899,0.27002415,-0.2615192,0.11428081,0.1887641,-0.2088534,-0.15902425,-0.012876383,-0.11617977,-0.122706555,0.0425578,-0.14665505,0.17853968
Edit Algebraic refl-v in V problem,0.022926413,-0.020826776,-0.06515617,-0.123150215,-0.41801828,-0.15033165,0.144464,0.19113918,0.146494,-0.13780072,0.016964555,-0.1216875,0.1291959,-0.051218335,-0.064143434,-0.050010126,0.03472175,0.044050567,0.12758443,0.21757378,0.03606436,-0.026423529,0.09529904,-0.09494654,-0.2811794,0.024248196,0.06303615,-0.008134576,-0.1249292,-0.19379428,-0.0036507708,-0.15522556,0.13912694,-0.07635874,-0.045319274,0.010474136,0.11477355,0.06510941,0.2997918,-0.2253919,0.2361009,0.0605715,-0.29429027,-0.146323,0.04688267,-0.06907,-0.12908326,0.029135266,-0.08261486,0.10685258
Eliminate Parens,0.08364342,0.14596803,0.16203044,-0.21187598,0.080803625,0.022224288,-0.047732297,-0.030773679,-0.002348432,0.03237548,-0.20413905,0.16139358,0.07622928,-0.09664287,0.028587215,-0.08654352,0.012254295,-0.1103128,-0.03481298,-0.041673347,-0.186537,0.011170747,-0.31582305,-0.18310429,-0.110066555,-0.04049992,-0.14617004,0.24983111,-0.06365379,0.17989048,0.008234949,-0.24189354,-0.2897391,-0.06265542,-0.1293771,-0.015712144,-0.0004261915,-0.08428636,-0.15535319,-0.0280336,0.11816866,-0.101043686,0.27237785,0.046002742,0.31377298,-0.124148495,-0.08143012,0.17447726,0.049763843,0.17692445
Enter Calculated value of rate,-0.14850739,0.22982469,-0.1313643,0.094858386,0.13800752,0.15625533,0.0015673391,-0.05491432,0.17824166,-0.09390181,-0.11040018,-0.13905798,-0.17843166,-0.09535911,0.15087572,0.23021771,0.14978832,-0.14083858,0.093179934,-0.021610508,0.065419674,0.0717777,-0.29720747,-0.037341885,0.10981524,-0.0039942535,0.10285595,0.09342242,-0.023192495,0.18757996,-0.018318005,0.18589509,-0.008921462,-0.11010417,0.007852423,0.074073434,-0.14167331,-0.043459844,0.03870434,0.29835528,0.1663291,-0.36155057,-0.05936025,0.17371227,0.12522133,0.024947157,0.17765896,-0.13071267,0.008745512,0.15384421
Enter Calculated value of ratio,0.042540886,0.078099735,-0.21334031,0.109544456,-0.0057744454,0.23057626,0.0025495032,-0.06269235,0.0068401964,-0.05218762,-0.04800528,-0.119559385,0.07970064,-0.031628594,-0.014558172,0.1562062,0.204821,-0.26643565,0.18071507,-0.1261281,0.12648179,0.13731483,-0.16030554,0.1435833,0.033225242,0.06578099,0.27196229,0.16819239,0.09832619,0.17185898,0.07968358,0.07860809,0.11165658,0.02480989,0.3051463,0.12247784,-0.031012358,0.092905276,-0.15844728,0.21959044,0.1556036,-0.16640568,-0.19778721,0.15825306,0.04663172,0.055709038,0.07827263,-0.18086074,-0.18616356,0.15831222
Enter compound probability,-0.031087412,0.1317473,-0.04631887,0.18691558,-0.05682828,0.10299472,0.2096431,-0.15758626,0.23030682,-0.059680372,-0.15800197,0.07913482,-0.19850548,-0.14138648,0.061399505,0.19659664,-0.092034504,-0.122100234,-0.21103343,0.17049958,-0.17723267,-0.027981848,-0.17220603,-0.21956736,0.045808777,-0.006151955,0.08039961,-0.15939571,0.06133132,0.07505898,-0.17874655,-0.021943824,0.08703062,-0.081305966,-0.061575167,0.1870449,-0.10421504,-0.09214782,-0.13311942,-0.10646537,-0.044684865,0.0014450946,-0.13830505,0.19624695,0.34449103,-0.020156505,0.28905058,0.10371312,0.08025062,0.09280535
Enter decimal probability of complementary event,0.055559073,0.15930812,-0.07693307,0.12954898,-0.042234663,-0.14837228,0.020488884,-0.07145652,0.13860486,-0.23777717,-0.2167239,-0.13376679,-0.0916488,-0.2784242,-0.10094889,-0.106659964,-0.08278906,-0.1817569,-0.051593214,0.13651472,-0.10740656,-0.09882629,-0.046962544,-0.18846133,-0.007012282,-0.17876196,0.093944944,0.06927702,0.11365354,0.07473691,0.089769915,0.23394206,0.06159721,-0.04747308,-0.12476988,0.10556029,0.035350654,-0.017819371,-0.14172544,0.14245924,-0.046705436,-0.19667651,-0.22118217,0.21259646,0.18074396,0.0932584,0.2704564,-0.05887086,0.03830974,0.30845127
Enter decimal probability of disjoint events,0.16435876,0.13994038,-0.04846507,0.11208798,-0.027831752,-0.02417382,0.0052853297,-0.02215085,0.052701056,-0.25837448,-0.1811216,-0.10088534,-0.028799912,-0.24353448,-0.1503972,-0.18131366,-0.09305266,-0.13239285,-0.0051816404,0.16381156,-0.12389992,-0.08560717,-0.027571863,-0.21841574,-0.11873723,-0.11218647,0.037751622,0.09108538,0.21972941,0.056288566,0.026368422,-0.0028627967,0.20552175,-0.092197664,-0.054994825,0.12775423,0.09506873,0.031706467,-0.2196553,0.000120354205,0.055839192,-0.041036837,-0.18241198,0.24159059,0.3164397,0.101963945,0.33719692,-0.013012274,0.0056801056,0.2155393
Enter decimal probability of event,-0.05554625,0.19897938,-0.05398862,0.1417943,-0.041035984,-0.11355707,0.01288072,0.012251818,0.15161005,-0.19625457,-0.19297493,-0.15815657,-0.11870535,-0.2582088,0.043572344,-0.056266718,-0.04019854,-0.14674452,-0.030116536,0.10834606,-0.1139877,-0.08699453,-0.088152595,-0.260177,-0.04063495,-0.18175825,0.06384144,0.069861464,0.15429373,0.11235351,0.081174925,0.1434689,0.0919367,-0.054120205,-0.098732024,0.106583744,0.028152782,-0.026452318,-0.17375289,0.092392035,0.10131544,-0.18346453,-0.1952526,0.2941037,0.30416164,0.055152796,0.26372144,-0.06550309,0.02614305,0.24377586
Enter decimal probability of one,-0.10431904,0.15279213,0.00071781676,0.157709,-0.064720504,-0.13120809,-0.068344556,-0.02263209,0.19302803,-0.19948852,-0.27035016,-0.13405734,-0.23186478,-0.26619464,-0.012261809,-0.037984718,-0.035353944,-0.19422632,-0.1135891,0.07245543,-0.098150745,-0.072814204,-0.09825179,-0.16421573,0.03967956,-0.17053804,-0.039400592,0.07509641,0.068798155,0.14347148,0.114055455,0.18328807,0.09618547,-0.062357754,0.014837186,0.110250056,0.034508225,-0.01604345,-0.16967383,0.07655595,0.047692537,-0.12505332,-0.20384774,0.2758736,0.24054044,0.026123935,0.2597031,-0.06665109,-0.034354113,0.2696908
Enter decimal probability of zero,0.123364195,0.20045134,-0.045694217,0.1535351,-0.12590578,-0.11899477,-0.0034301972,-0.022489158,-0.009324198,-0.28383827,-0.14470385,-0.16354206,0.008436404,-0.30254573,-0.2404916,-0.13452195,-0.14561616,-0.13714774,-0.09286847,0.15968913,-0.08806197,-0.11807861,0.07507383,-0.086297214,-0.1161318,-0.16643777,0.13862826,0.02667877,0.1039426,0.025013605,0.10457439,0.16807765,0.18018149,-0.06619644,-0.002501079,0.12987661,0.0586511,0.050858144,-0.12433281,-0.049389258,-0.06775803,-0.00944443,-0.24151248,0.2169499,0.19018437,0.0772977,0.23862495,-0.093196414,0.042042606,0.27316943
Enter denominator of converted unit,0.07455038,-0.018404769,-0.093696155,0.001406179,-0.1244344,-0.027722731,0.08302833,-0.10333486,0.0936264,0.06416296,-0.028331012,-0.23839812,-0.16795552,-0.106168196,-0.22418107,0.09277802,-0.046787843,0.05853109,0.08175771,-0.010084384,0.11366116,0.27821994,0.011388827,0.2968362,0.10283349,-0.009955661,-0.12692216,0.044954628,-0.21648134,0.17033668,-0.018729458,0.2191124,-0.11179277,0.09261326,0.111307964,0.19015904,-0.2629407,-0.14969252,0.23584022,0.2562157,-0.1835607,-0.15625338,0.016034119,-0.23111422,-0.16304325,0.07803538,-0.057782765,-0.029766588,0.08467172,-0.018366538
Enter denominator of form of 1,0.25368315,0.010359859,-0.19277191,-0.1387344,-0.009674164,-0.02978887,0.24543943,0.00419061,0.071274824,-0.09873759,-0.1537254,-0.048107296,0.04679786,-0.09752163,0.035376225,-0.030287672,-0.0729866,-0.13150877,0.29858243,-0.0041491557,-0.054386765,0.24548295,-0.116354205,-0.077469364,0.09341598,0.17339131,0.017237246,0.14684144,0.03489937,-0.058788314,-0.15727365,0.061157804,-0.06402065,0.09408893,-0.2661694,0.41747564,-0.0796871,-0.05608683,0.045607693,0.117179304,-0.23701383,-0.29789335,0.11212651,-0.001190864,0.10928527,0.03583376,0.04223511,-0.13253273,-0.037889246,-0.0021184515
Enter denominator of given fraction in proportion,-0.07890596,0.07273007,-0.12846534,0.021515073,0.12319657,-0.061438803,0.13349797,-0.07379981,0.29720652,0.01671077,-0.10685004,-0.2846592,-0.21326904,-0.044945884,0.0942362,0.08459697,-0.05558084,-0.118836425,0.17928675,0.09224625,-0.00092719326,0.17103775,-0.14481668,-0.16991095,0.29451796,0.022484113,0.008376067,0.07785423,-0.08830196,0.100008436,-0.077981114,0.06274009,0.01697697,0.08955914,-0.06730242,0.13225652,-0.16232213,-0.1604556,0.14694393,0.31500712,0.029028136,-0.39562258,0.060020722,-0.008880921,0.17199002,0.11682091,0.022094872,-0.13329901,0.02090302,-0.01826
Enter denominator of given rate in proportion,-0.08362849,0.0768419,-0.13618506,0.13532299,-0.097335905,0.10168403,0.12012037,-0.1925034,0.18434994,0.19439061,-0.05552919,0.028401596,-0.18518993,0.039426405,0.054903105,0.03792668,-0.24207787,-0.13969225,0.15713915,-0.018517036,0.27269474,0.08083748,0.10605603,-0.16320065,0.31140432,-0.07233731,0.008944972,0.14250843,-0.037924375,-0.078401975,0.21088718,0.04861297,0.12879546,0.1463706,0.020753093,0.09692456,-0.04712736,-0.08219262,0.24889204,0.19811898,0.13300723,-0.30560848,0.012103728,-0.006194066,0.092979036,0.040464208,-0.08037262,-0.19193996,-0.2028584,-0.0033262891
Enter denominator of given unit rate in proportion,-0.2747395,0.084898554,-0.109427616,-0.020172536,-0.067966394,-0.070599265,0.18881522,-0.051678915,0.17533557,0.064385794,-0.099836916,-0.06336316,-0.18920562,0.10606252,0.20676528,0.28421643,-0.15566012,-0.15638226,0.2174392,-0.037708364,0.09168486,0.052860476,-0.010524831,0.032527946,0.33105573,0.010055221,0.025125511,0.13847488,-0.10532103,-0.06433413,0.05064132,0.19183783,-0.012700166,0.07646169,-0.06905728,0.10818351,-0.0725683,-0.12968093,0.31169122,0.14717035,0.03146438,-0.26380104,0.086730964,0.0075563323,-0.02002686,-0.03344382,0.016126325,-0.20689248,-0.16558279,-0.17366187
Enter experimental probability for large number,-0.006775655,0.11991871,-0.02024152,0.13882063,-0.048159048,-0.13871436,-0.0029565745,-0.033664513,0.15482827,-0.2665417,-0.22891761,-0.096591465,-0.18361726,-0.2780566,-0.024450552,-0.15852939,-0.11288578,-0.18523863,-0.07253107,0.17631395,-0.12899531,-0.17524907,0.007079893,-0.20688461,-0.00582907,-0.12917766,-0.029414484,0.026211595,0.09895733,0.034064356,0.043404736,0.18270035,0.13999417,-0.08522363,-0.11058483,0.07079513,0.058381762,-0.044345066,-0.1679756,0.04722156,0.056676935,-0.07832052,-0.1874907,0.23696011,0.3045487,-0.0092647355,0.2647205,-0.07222123,0.058912463,0.24374561
Enter experimental probability for medium number,0.013269132,0.11978225,-0.018598013,0.13491534,-0.06219056,-0.13644446,-0.016153727,-0.034245268,0.12404456,-0.2563118,-0.22557063,-0.10252389,-0.16639742,-0.29427367,-0.058900744,-0.19282787,-0.12844375,-0.17396341,-0.07773015,0.17804062,-0.1425059,-0.17606258,0.020385003,-0.2029629,-0.016841969,-0.14366725,-0.035836097,0.017063383,0.09588424,0.04842126,0.04706299,0.15518306,0.14886124,-0.06624849,-0.10588768,0.06471041,0.065390274,-0.048777435,-0.1901196,0.025541889,0.038995445,-0.06654817,-0.16400233,0.22090606,0.31804764,-0.0058429865,0.25914577,-0.049346104,0.0700596,0.25516698
Enter experimental probability for small number,0.008091068,0.10757985,-0.02309881,0.14715967,-0.072892345,-0.16387258,-0.0076127048,-0.04473636,0.14316952,-0.26447985,-0.22741115,-0.118751265,-0.18353923,-0.29540506,-0.06805797,-0.18272534,-0.14152893,-0.18665673,-0.06711675,0.18273468,-0.12159394,-0.1623623,0.032215312,-0.17433943,0.0067043784,-0.13680421,-0.028479503,0.0309002,0.0829268,0.034374297,0.058498733,0.21554236,0.14764933,-0.05687975,-0.089462034,0.09227319,0.043032974,-0.036835298,-0.16564257,0.033629846,0.020173993,-0.072652556,-0.19523579,0.21416692,0.28477088,-0.004474564,0.23660202,-0.08500111,0.038549844,0.2531606
Enter first extreme in equation,-0.23941912,0.049387768,-0.14665616,0.03434342,-0.054957144,0.02977628,0.12135677,-0.13065721,0.25053746,0.09509767,-0.04269603,0.032253426,-0.16403681,0.14513107,0.2632745,0.27638778,-0.08756856,-0.17958733,0.24428532,-0.0747167,0.17182723,0.08453196,-0.10315481,-0.0263312,0.32407472,0.013094841,0.07409303,0.0846623,-0.0443767,-0.031190002,0.03931108,0.12785229,0.11801353,0.025922442,-0.017755931,0.073442645,-0.0555823,-0.052380007,0.18398233,0.18314248,0.2132956,-0.23285466,-0.0518491,0.04578052,0.052456878,-0.040656473,0.01037552,-0.19011529,-0.2879889,4.692416e-05
Enter first mean in equation,-0.2362903,0.041271795,-0.14916241,0.090422474,-0.0050145756,0.07395809,0.09621688,-0.12013553,0.23819299,0.11121943,-0.018346626,-0.021721186,-0.15319178,0.15297697,0.254934,0.28298652,-0.10769804,-0.16952804,0.21309207,-0.06345249,0.18258764,0.06551291,-0.06838409,-0.05228389,0.3267145,0.007555539,0.11574262,0.061660707,-0.042046037,-0.056568235,0.035976708,0.09775862,0.15461746,0.02970115,-0.0027733354,0.044184674,-0.052864738,-0.067876056,0.18601105,0.17363656,0.22273952,-0.23424964,-0.041634925,0.050636083,0.06602925,-0.03317246,-0.025590394,-0.19878918,-0.30502048,0.0036025445
Enter fractional probability of complementary event,0.008951091,0.12108841,-0.13689479,0.28565493,-0.09691434,-0.0736753,0.020055117,-0.03951258,0.13334042,-0.19228327,-0.11334503,-0.3322523,-0.16358167,-0.17655176,-0.07531308,0.04640999,-0.083994254,-0.11932068,0.04731148,0.186025,0.041041262,-0.04899733,-0.042615745,0.012738745,0.050248608,-0.1594293,0.21240152,-0.048123658,0.026790122,0.17846908,0.07658506,0.20263502,0.2446787,-0.08116619,-0.004980726,0.10922629,-0.0020761113,-0.041396942,-0.030584954,0.05348108,-0.07172866,-0.18314707,-0.33079752,0.11308687,0.13059142,0.11765043,0.25625005,-0.14123388,-0.05016546,0.20363933
Enter fractional probability of disjoint events,0.14108485,0.08365275,-0.022731913,0.132355,0.012177093,-0.07299327,0.003849199,-0.04076368,0.09448704,-0.23300144,-0.21087418,-0.11341373,-0.1056861,-0.21656252,-0.13808434,-0.17741069,-0.11773786,-0.12216404,-0.007423034,0.17565122,-0.094704494,-0.07092367,-0.050245974,-0.274906,-0.041165125,-0.14360158,-0.01985347,0.07919774,0.2109731,-0.0022495089,0.03834302,0.016253438,0.16042067,-0.046141937,-0.1020347,0.14280245,0.060911413,-0.015459524,-0.20856585,0.060657345,0.06950909,-0.106199756,-0.20225619,0.21221559,0.3231921,0.079874545,0.36290577,-0.0087508,0.020314675,0.19198002
Enter fractional probability of event,-0.095637955,0.12932473,0.059969176,-0.035729576,0.06659011,-0.13268551,0.026875235,-0.08344046,0.09784773,-0.082973465,-0.18452418,0.01590026,0.02342666,-0.2679694,-0.12410103,-0.14497724,0.17521432,-0.038374487,-0.2260447,0.01796524,-0.15206182,-0.103764184,-0.007635518,-0.29909372,-0.16905124,0.044726506,-0.12791105,0.25585622,0.09347006,-0.25480354,0.08207627,0.11003536,-0.1498405,0.17393367,0.052031156,0.09242697,-0.054117084,0.13137297,-0.17192549,0.049216803,0.0863782,-0.17826629,-0.06315466,0.32132512,0.05712683,0.0006440511,-0.25567162,-0.0318385,0.06275275,0.17861812
Enter fractional probability of one,-0.053117365,0.20120458,-0.080227256,0.14143193,-0.023946172,0.03135982,-0.07528374,-0.06393266,0.1667972,-0.11371419,-0.1622223,0.0005181047,-0.13485356,-0.24009871,-0.03665657,-0.09579656,-0.006546913,-0.17485957,-0.08795152,0.06304986,-0.10721,-0.108568564,-0.06816133,-0.24622549,-0.034854043,-0.17276841,-0.0032855999,0.0074488115,0.13579407,0.13213651,0.106973894,0.09986287,0.1653567,-0.13955726,-0.0053146463,-0.011422344,0.100068584,-0.055580307,-0.17094438,0.11541487,0.13950066,-0.06561184,-0.10080387,0.21949813,0.31702957,0.07601415,0.40053597,0.076466225,0.06930417,0.2899959
Enter fractional probability of zero,0.13938572,0.044680715,-0.18008286,0.1954386,-0.02150169,0.013777588,0.08222254,0.08519442,0.0707099,-0.27182373,-0.08069239,-0.38989374,-0.12409515,-0.15051411,-0.09541806,0.00019104635,-0.16949436,-0.08674742,0.109059684,0.13410546,-0.009083348,-0.015211568,0.0023095896,-0.11200991,0.04168494,-0.10446405,0.0778916,-0.10566853,0.11454875,0.18349889,-0.025009211,-0.020933764,0.24421352,-0.020004466,-0.12984318,0.052330397,0.038857985,-0.1510404,-0.08553172,0.13409726,-0.063031785,-0.17268412,-0.16456415,0.04889593,0.27087596,0.20585483,0.35808945,-0.06055918,0.0045073493,0.108516425
Enter given hypotenuse in context,-0.21384886,0.11765118,-0.067382015,0.019656057,0.14467148,-0.054580398,-0.042831928,0.22063226,-0.19728571,-0.09607237,0.046821482,-0.14381522,0.17359821,0.040025573,-0.0143049685,0.14736387,0.07381014,0.17328565,-0.15522413,-0.03981277,0.2461746,-0.08253112,0.07632203,-0.14664759,-0.02214182,-0.11594405,0.20163634,-0.15686156,0.08801393,-0.39213732,0.14836001,0.021136323,-0.012212635,0.0067876372,-0.041705135,-0.12912329,0.0670358,0.0040398533,0.24222639,0.11136063,0.0377163,-0.1693557,-0.06669057,0.10010903,-0.20703608,0.13605793,0.049400177,-0.18138176,0.2505757,-0.1380298
Enter given hypotenuse out of context,-0.14362185,0.15853882,-0.056240957,0.03887899,0.11990906,-0.13431196,-0.008303786,0.09479027,-0.21479852,-0.11787972,-0.06992977,-0.14252028,0.15909182,-0.064550065,-0.107169494,0.11345007,0.06560227,0.21938846,0.017576018,0.050019845,0.2167862,-0.12466303,-0.014780736,-0.10695234,-0.07768207,-0.16898893,0.35451543,-0.08347648,0.05669605,-0.32501838,0.1327015,0.09485371,0.004286088,-0.08289835,-0.04179304,0.052130017,0.052263472,0.06703715,0.18299899,0.081454344,-0.03890925,-0.2624367,-0.15476868,0.17131887,-0.15388358,0.192147,0.15065087,-0.16693974,0.19894734,-0.06118053
Enter given intercept from context,-0.022622844,0.19122033,0.067522965,0.08059373,0.15172355,-0.039914664,-0.00398413,0.13203381,-0.12771934,0.15558447,0.07904852,-0.1678177,0.27040935,-0.01875558,0.08193672,-0.085411645,0.012207118,-0.021812338,-0.28096467,0.032922566,-0.22511643,-0.12694252,0.07799216,-0.23076351,-0.08172286,-0.102918305,0.06244191,-0.045376204,0.051208008,-0.03149649,0.11234986,-0.2814161,-0.106961116,0.2201449,-0.013771796,-0.2161728,0.026822317,-0.030900598,-0.16020735,-0.22854683,-0.13615663,-0.080875576,0.2202449,0.1195316,0.11199051,0.013444399,-0.25999162,0.078064166,0.22959487,-0.09250505
Enter given leg in context,-0.29132923,0.13613807,0.103574045,0.04444375,0.13028696,-0.07322969,-0.16324133,0.23323376,-0.26972654,-0.008538146,0.05841223,-0.06679006,0.17442024,0.097634815,0.11852616,0.09585729,-0.0019702995,0.17162004,-0.18032382,-0.026336338,0.14176725,-0.21397373,0.0819708,-0.14667194,-0.00010170447,-0.24137811,0.21936944,-0.19281267,-0.03774464,-0.3237986,0.13118787,-0.043282237,-0.021758704,-0.045203477,-0.056619305,-0.22376378,0.08050653,0.02724865,0.16692223,-0.046301026,0.112577684,-0.06461065,0.037715264,0.05740911,-0.10994897,-0.009942112,0.01582869,-0.091842584,0.25906742,-0.09132103
Enter given leg out of context,-0.2481828,0.1451785,0.079661965,0.06756673,0.20853548,-0.041198757,-0.114131,0.16347224,-0.24494475,-0.0061192126,0.02776284,-0.013869064,0.19444674,0.105262086,0.07198899,0.0933363,0.021219283,0.17942339,-0.040543772,-0.00537533,0.1738179,-0.2489423,-0.030398723,-0.26273137,-0.041399468,-0.21719863,0.29366514,-0.13397953,0.058475632,-0.33831453,0.18149333,-0.0799,-0.021148266,-0.07952391,-0.093820974,-0.19767295,0.090741545,0.04681732,0.10257321,-0.04694899,0.14415997,-0.18794829,-0.017263526,0.09025093,-0.0036584197,0.0741517,0.10601794,-0.041330174,0.15982118,-0.06795567
Enter given part in proportion,-0.06662055,-0.103149995,0.0094726095,-0.15882786,0.028430654,0.016314875,0.12956446,0.11993956,-0.21459986,0.107383944,0.03759069,-0.18081075,0.17602935,0.14946812,0.01529812,0.12844823,-0.08476791,0.2746755,0.2227277,-0.067995295,0.14996497,0.029725358,-0.04682373,0.024376867,0.053424034,0.042152163,0.26862335,-0.043343328,-0.04897364,-0.027038034,-0.11961567,-0.31434563,-0.016585762,0.095393546,-0.041034967,-0.013608269,-0.05263843,-0.016766103,0.120668896,0.06481008,-0.08112682,-0.23758523,0.16507916,-0.14644563,-0.09989088,0.18639742,-0.337483,-0.09494301,-0.088344306,-0.29571658
Enter given point,0.12905976,0.15492734,0.07858081,0.29509228,-0.06676443,0.007858132,-0.005457971,-0.08000539,-0.072119795,0.08798256,0.011792448,-0.09590712,0.13842784,-0.10207429,-0.012545454,-0.15768816,-0.06794951,-0.1544313,-0.017552339,0.12740664,-0.21567412,-0.19971694,0.013712674,-0.07941818,-0.12533338,-0.22411487,0.2861859,0.044193164,0.10480514,0.17475057,0.16066705,-0.03755617,0.060001086,0.038020458,0.05675848,0.03203559,0.011102212,0.04055206,-0.36473864,-0.26421434,-0.03810386,-0.015410878,-0.11160766,0.19424836,0.29845026,-0.085730776,0.10555019,0.12329363,-0.012370362,0.18196395
Enter given point from context,0.055463895,0.19286534,0.043400597,0.0953611,-0.0039028747,-0.13924325,-0.03874219,-0.04635052,0.09351305,-3.1426305e-05,-0.09370809,-0.08897052,0.0682603,-0.2381019,-0.039487693,-0.1024305,-0.12708443,-0.24366954,-0.2133015,0.048766892,-0.30469313,-0.10816487,0.0032090128,-0.07879566,-0.0042813634,-0.20105825,-0.08662626,-0.07283714,-0.021627977,0.26366335,0.084027335,-0.019300975,-0.007953972,-0.012145895,0.035823233,-0.06663712,0.019906413,-0.11996435,-0.30965585,-0.14326963,-0.12336036,0.10466544,0.1375545,0.16209303,0.32989466,-0.041701153,0.13992494,0.16623189,0.14834212,0.27153656
