skill,0,1,2,3,4,5,6,7,8,9,10,11,12,13,14,15,16,17,18,19,20,21,22,23,24,25,26,27,28,29,30,31,32,33,34,35,36,37,38,39,40,41,42,43,44,45,46,47,48,49
Add/Subtract,-0.35224873,0.08845621,0.014718362,0.033577263,-0.06301209,0.1064188,-0.07150066,0.03560591,-0.04555302,-0.054485943,-0.16007733,0.12083669,0.13729544,0.07225882,-0.12159895,0.16241235,-0.25778878,0.0093973605,-0.15911198,-0.06743745,0.09123421,0.09348068,-0.4726789,-0.18438385,0.10767378,0.22724028,-0.025681844,-0.045904852,-0.02087995,-0.009055545,-0.13622972,0.28166273,-0.033920564,0.14145479,-0.05557695,-0.12673694,0.057483185,0.006115993,0.0032701665,-0.05257294,-0.0118721025,-0.18376786,-0.08469917,-0.11738554,0.2966836,-0.07715188,-0.007863005,-0.014576551,-0.021583324,-0.057124652
Apply Exponent,-0.10527992,-0.026624756,-0.098247826,0.2750227,0.040254682,-0.15827921,0.029832978,-0.11378702,-0.18373035,0.07272279,0.11385145,-0.14380549,0.0010821596,-0.23613873,0.08972962,-0.20819238,-0.08541396,0.13503344,-0.065124035,-0.039575912,0.044273093,0.02306687,-0.32051522,0.10217922,-0.0651017,-0.052908987,-0.07387147,0.5107083,-0.0891941,0.05152833,0.09478432,0.020195592,-0.17751051,0.093488894,-0.12364287,0.0950358,0.053390406,0.13218725,-0.095219925,-0.17850664,0.21163054,0.095735185,-0.05711168,0.097454086,-0.02777979,0.0353683,-0.06073818,0.068813294,0.18614307,0.06788375
Apply Exponent - whole,0.014476228,-0.018699713,0.013606337,0.08570621,-0.12193183,-0.078779966,-0.014030782,-0.20675534,-0.056064434,-0.08346271,0.17663431,-0.07673587,0.015122519,-0.11971422,-0.018388717,-0.34836656,-0.12613884,-0.033976257,0.045864843,-0.07881999,0.15983354,-0.014044713,-0.20733991,0.08614018,-0.10885286,-0.086420454,-0.2270738,0.233888,0.25090772,0.0411621,0.20235659,0.03464965,-0.12912357,0.2130919,-0.13517387,0.29913476,0.13010868,0.16461062,0.22609288,-0.11808371,0.0707084,0.21820663,-0.18674715,0.0507395,0.052279387,-0.13024716,-0.0016772461,0.065708935,-0.043801446,0.12489753
Bogus skill,-0.24257863,0.097261384,0.08079651,-0.06427839,0.29240885,-0.09772446,-0.03338833,0.12790781,-0.23140019,0.047216196,-0.012878784,0.06995917,-0.019723216,0.20735973,0.027694026,0.3075275,0.023192432,-0.07607338,0.20034964,0.30518937,-0.2803614,0.121825285,-0.26129225,0.28894508,-0.018685663,-0.0039706994,0.1418604,0.06470064,-0.008817816,-0.10995618,0.12727581,-0.069113955,0.047215983,0.023026505,-0.17123532,-0.060833383,0.06515041,-0.059626687,0.039396882,-0.04577289,0.19039066,0.032238234,0.018588845,0.20667878,-0.07569095,-0.023700468,-0.0035698512,0.043375906,-0.1597531,-0.07091292
Calculate Eliminate Parens,-0.24413618,-0.089855246,-0.1287188,-0.057813518,-0.019989444,-0.008261967,0.06377278,0.15934885,0.17841509,0.14980213,-0.1285883,-0.18273735,0.22824898,-0.12601635,0.049550574,-0.0414716,0.19335802,0.073419414,0.07755983,0.116199315,-0.2206976,-0.0748578,-0.2822131,-0.27952433,-0.15112089,-0.08195174,-0.18117312,0.07084434,-0.12776038,0.081338786,-0.054656725,0.031903688,0.18618715,0.21865703,-0.035481818,-0.056744795,0.07880355,0.045116458,0.1157787,0.0037326228,0.16477537,0.00405314,0.26637065,0.23883952,0.048875816,0.0063216705,0.12679598,-0.13358715,0.114581265,-0.15537816
Calculate negative coefficient,-0.0965762,0.051347848,0.03337752,-0.14065017,0.2655237,0.19140421,0.08520052,0.08943599,-0.10983156,-0.26972458,-0.36298826,-0.0064697457,0.2135585,0.13722093,0.07909433,0.24269456,-0.11579234,0.033613652,-0.044605833,-0.086333975,-0.09632852,0.020560553,-0.13139468,-0.13641603,-0.036578044,-0.16668655,-0.15415674,-0.033901185,0.013136738,-0.025059113,0.011192734,0.08669088,-0.35500634,-0.13661203,0.08713163,0.02622454,-0.09883195,-0.07234908,0.07579204,0.009577914,-0.07613443,-0.08873873,0.1404293,0.2242942,0.0924342,-0.16358776,0.15762782,0.03937305,0.19211164,-0.101889685
Calculate part in proportion with fractions,-0.075821094,-0.25715134,-0.10023315,0.24086873,0.051017016,-0.009991061,-0.2446817,-0.07272113,0.044249576,-0.24839146,-0.22652681,0.05335423,-0.09981234,0.100436606,-0.079014145,0.06304128,0.059297606,0.21299219,0.17512542,0.13667205,0.1516427,0.063896425,-0.02529841,-0.071116626,0.040595025,-0.16280095,0.0043707984,0.2058145,-0.31243163,-0.070592314,-0.10614664,0.0790884,-0.097356446,0.14317691,0.091661125,0.078294404,0.001442119,-0.17640233,0.07264501,-0.12938035,0.047123875,0.1503577,0.015370654,-0.14132665,-0.03053406,-0.037236214,0.11635161,0.10602287,0.17758983,0.3480519
Calculate product of means or extremes,-0.15653041,-0.19631329,-0.2068493,0.14038731,0.110687174,-0.26051855,-0.09940602,0.16246353,-0.002641935,-0.19589493,0.099409066,0.011550558,-0.19845396,-0.074994415,-0.19699062,0.24073794,0.07876176,0.074704394,-0.036001544,0.15974055,-0.014633593,-0.004618681,0.11583433,-0.04416343,-0.08065326,-0.1609586,-0.25408763,-0.13226078,-0.21411893,-0.038748275,-0.012599262,0.07464839,0.0050102184,-0.047370262,-0.0018527039,0.048962846,-0.15609692,0.15198913,-0.013432173,-0.27277485,-0.069580935,-0.31947663,-0.09026545,-0.26301974,-0.07543634,0.011419884,-0.03905445,-0.08876175,0.12651213,-0.062983274
Calculate ratio denominator from given,-0.030988092,-0.04202914,0.23400453,-0.15518604,-0.05035675,0.04060431,0.059156355,0.00083983375,-0.26087222,-0.07830233,0.12549889,0.0014840857,-0.015197255,-0.26148644,0.0026946086,0.08150158,0.14140272,0.17615932,-0.27049497,0.04151289,-0.04233913,-0.23198217,0.04825473,-0.07173421,0.16771942,-0.17839174,0.22795233,-0.024013337,-0.09157816,0.18012853,-0.14188705,0.25278482,-0.09447132,-0.23641616,-0.108245626,-0.08600492,0.069378205,-0.032232273,-0.038144067,0.17742537,0.16036849,-0.08754911,0.07419586,-0.07707143,0.24296074,0.0882779,-0.120992854,0.16718401,0.16613115,0.12098773
Calculate ratio numerator from given,-0.16336256,0.026521077,0.15212019,0.17242524,0.11715811,-0.09080807,-0.21128966,-0.1452537,0.050815273,0.027655104,-0.023180509,-0.18355481,-0.18457495,-0.03926073,0.043687098,0.14127715,0.0304777,-0.05882642,0.06186365,-0.11335589,0.1611546,0.25223935,-0.03687066,0.074806325,-0.064766005,0.01722108,0.19054644,-0.06585255,-0.08703817,-0.2957997,-0.12089059,0.02473812,0.0065448494,0.15134072,-0.09726734,0.098583974,0.021242086,-0.11099791,0.08905252,0.120133206,0.12913634,0.3125643,-0.07663362,-0.23074374,-0.23611094,-0.002171962,0.040314212,0.06614357,0.3590505,0.1499959
Calculate total in proportion with fractions,-0.04667803,-0.14355397,-0.09951757,0.11599699,-0.05943065,-0.07562773,-0.26064402,-0.06870331,0.114457026,-0.21520838,-0.12365726,0.0074274302,0.012517439,-0.08527557,-0.09777285,0.15122065,0.10707013,0.28870082,0.16308501,0.17906962,0.11973713,0.13161866,-0.09693111,-0.18294923,0.22735842,-0.12511002,0.048995305,0.13433743,-0.29794088,-0.08353793,-0.123706676,0.0074267103,-0.11204627,0.1577484,0.08379239,0.12010187,-0.027700083,-0.09505989,-0.032210253,-0.100142956,0.068936475,0.10852385,0.08365584,-0.15254611,0.1152067,0.09758044,-0.04131953,0.07885342,0.22045372,0.3529298
Calculate unit rate,-0.16689613,-0.014535418,0.097049214,-0.27610677,0.11542969,0.16525699,0.13326764,-0.23533244,0.03853609,0.0053563095,-0.078968786,-0.06971434,-0.28845647,0.291196,0.059143018,-0.13042194,-0.25320235,0.2825213,0.2481563,0.008484913,0.05164063,-0.114200816,-0.23996878,0.0059539424,0.23597932,-0.14682706,0.19991413,-0.00057179265,-0.08074704,-0.0267112,0.03750649,-0.094119705,-0.08011385,-0.107721776,0.009870056,-0.034367267,0.094333164,0.035393097,0.006540198,-0.021426357,0.023859724,-0.06695498,-0.2318253,-0.10783366,-0.104367614,0.010720893,-0.15416682,0.0122135095,0.13406627,-0.06699746
Changing axis bounds,-0.2120432,-0.08241715,-0.023531167,0.027394941,-0.19380413,-0.14631371,0.1446866,-0.029548982,-0.0033972182,0.11500947,0.0609243,0.1316656,0.09348857,0.22137783,0.14703554,-0.20799284,0.0294988,-0.047663722,-0.071651906,0.10228874,0.36138707,0.07343019,0.30229473,0.2183751,-0.10764539,-0.049262416,-0.19402115,-0.03282802,0.09387433,0.12262563,-0.12933885,0.23659424,-0.10416796,0.12580483,0.0444531,0.0024341797,-0.16235638,-0.11215965,-0.2786414,-0.09652669,0.07047908,0.056102958,0.0705049,0.054450374,-0.057778925,-0.20882277,0.19195291,-0.10151621,0.022942917,-0.030446513
Changing axis intervals,-0.060140647,-0.022856459,-0.17251854,0.037698966,-0.13295114,-0.05590514,0.1290259,0.027457587,-0.04756066,0.06760127,0.060451176,0.0028009661,0.022674453,0.30715168,-0.01251944,-0.1452465,-0.0038066197,-0.04768306,-0.07392277,-0.05641182,0.37193555,0.07521369,0.18977356,0.16261014,-0.08552632,-0.1208557,-0.024724213,0.05640052,0.11299148,0.039315984,0.090189844,0.067035794,-0.07005994,0.05799013,-0.044927068,-0.024419129,-0.36970386,-0.0074950038,-0.40228608,-0.03958556,0.043599203,0.0015216575,0.10595664,-0.04468568,-0.16946937,-0.29457724,0.17745674,-0.10643777,-0.036495782,-0.2098416
Choose Graphical a in A problem,-0.077607535,-0.0904694,0.014051724,-0.08929622,0.01573123,-0.0033201338,-0.016784454,-0.15346585,0.05265576,-0.054521758,-0.28922272,-0.026751542,-0.05098325,-0.076489024,0.029660119,0.23223159,-0.075385965,-0.064733595,-0.09034116,-0.13127853,-0.005036071,-0.009120046,-0.12353367,-0.2178147,0.13115084,0.29995263,0.0057787765,0.035086673,0.056341313,0.00021921367,-0.14008869,0.1730202,-0.09701479,-0.1706721,0.1441802,-0.1550527,-0.24513601,-0.012474329,-0.038480427,-0.35186464,0.031300947,-0.083014645,0.044746745,-0.21740761,-0.07199477,-0.2622043,0.2297459,0.23308334,0.18254879,0.022096802
Choose Graphical a in G problem,-0.073123805,-0.092440605,0.0034927053,-0.06233474,0.027339052,-0.013455816,-0.016417721,-0.11440123,0.022483973,-0.0188311,-0.29568854,-0.016242335,-0.02842221,-0.078963086,0.055572324,0.19143589,-0.0632605,-0.07011574,-0.1366001,-0.12100648,0.020348256,-0.012290879,-0.1059035,-0.22339742,0.14184055,0.3168086,-0.007771694,0.030320201,0.07151774,0.010025288,-0.11875423,0.17898247,-0.09403379,-0.15588857,0.15045965,-0.11314461,-0.25696456,-0.004144896,-0.058547787,-0.3613839,0.051746093,-0.06543029,0.03565461,-0.22412689,-0.060861435,-0.2777938,0.2338568,0.23650177,0.18907186,0.038719974
Choose Graphical a in N problem,-0.10599679,-0.052049093,0.004428133,-0.09587012,-0.08647226,-0.03429303,0.056015607,-0.21252598,0.036595426,-0.078202926,-0.25326103,-0.022112638,-0.067052834,-0.05248332,0.016136466,0.22089472,-0.1826692,-0.02576566,-0.06143967,-0.10529935,0.009534342,0.015621519,0.022675117,-0.14947246,0.097044975,0.28260827,-0.04280784,0.02999044,0.15370382,0.017683843,-0.16268493,0.14477521,-0.0760322,-0.17425992,0.07532541,-0.221001,-0.27275717,0.003425215,-0.014821066,-0.35572448,0.021033514,-0.104266025,0.039408933,-0.23550977,-0.11833015,-0.19423108,0.20430416,0.2690661,0.16902335,-0.03786194
Choose Graphical a in V problem,-0.07966081,-0.07520375,-0.016739374,-0.08107842,0.0054976568,-0.023165189,0.012071128,-0.13433053,0.034498822,-0.061226606,-0.29874873,-0.011716844,-0.03196922,-0.0652535,0.019168973,0.20588188,-0.07107954,-0.0451574,-0.102191865,-0.11539048,0.015428989,-0.0015590824,-0.11530867,-0.22477469,0.13926683,0.30341762,0.02319198,0.0360858,0.07290578,0.014083219,-0.14983886,0.16539897,-0.11108267,-0.18132226,0.14529893,-0.14935437,-0.24629472,-0.013415571,-0.05921462,-0.35124314,0.04650885,-0.064904206,0.052756216,-0.23051153,-0.064927846,-0.25675744,0.21498482,0.25955403,0.18267043,0.027413517
Choose Graphical h in A problem,-0.08367144,-0.057924706,-0.030236706,-0.05038444,-0.0041844915,-0.027144725,0.08958006,-0.1611317,0.06555107,-0.11113207,-0.24450389,-0.019217407,-0.016186964,-0.06800104,0.037739333,0.23018806,-0.15963066,-0.028355204,-0.0084901815,-0.102195576,0.04500572,-0.006760713,0.08990321,-0.14269017,0.053202435,0.29561758,-0.023499975,0.058570042,0.16893403,0.047452,-0.13210458,0.11981228,-0.1788644,-0.21929274,0.09811942,-0.2535819,-0.26689962,0.0035283528,-0.060609195,-0.3586783,0.028034197,-0.016320344,0.07028007,-0.12637073,-0.05385277,-0.1951842,0.2626904,0.27476832,0.16141005,0.011705146
Choose Graphical h in G problem,-0.07737284,-0.032301,-0.019687427,-0.06626758,-0.028908622,-0.02242753,0.09825032,-0.19541788,0.037264396,-0.12902458,-0.26739737,-0.039996948,-0.045813754,-0.08061403,0.060355224,0.20726682,-0.17382793,-0.0026387884,-0.032662183,-0.079710834,0.040737472,-0.017959194,0.09840312,-0.13752896,0.058746498,0.2611911,-0.038573034,0.050135475,0.19561565,0.021565929,-0.11855653,0.15436283,-0.14775722,-0.168165,0.10811711,-0.27519518,-0.28829074,0.0048176036,-0.014123473,-0.35976997,0.024170177,-0.04575226,0.04845845,-0.14158452,-0.08165781,-0.23151182,0.23998804,0.24729435,0.13035938,-0.027957214
Choose Graphical h in N problem,-0.12272253,-0.06564744,0.00043767988,-0.11311603,-0.09896736,0.002905547,0.07164287,-0.2024109,0.042767633,-0.09966862,-0.24555717,-0.03382903,-0.08335984,-0.0039498354,-0.009801407,0.24354635,-0.19815075,-0.023540799,-0.01158926,-0.10332052,-0.021846682,0.04077689,0.068337955,-0.10916099,0.08737437,0.2588392,-0.036169063,0.0286534,0.19892599,0.006809598,-0.16231114,0.11985987,-0.09757803,-0.16118643,0.053754795,-0.2418408,-0.28937873,-0.010620937,-0.0127264485,-0.34919423,0.018191107,-0.10041525,0.040510803,-0.19898865,-0.1146238,-0.17868376,0.20070343,0.28867882,0.1456972,-0.0388525
Choose Graphical h in V problem,-0.07397843,-0.05269674,-0.0066744736,-0.05329311,-0.029272703,-0.05422657,0.10164797,-0.2014968,0.021873891,-0.14321712,-0.26210213,-0.04774412,-0.028559988,-0.071821466,0.0097346315,0.23394474,-0.16915697,-0.03445735,-0.0041797236,-0.101146474,0.048430137,0.002156463,0.08041357,-0.1283593,0.07603803,0.2746308,-0.049189497,0.021915961,0.19283171,0.045901198,-0.123925805,0.15336592,-0.17961529,-0.17353596,0.07969279,-0.28441247,-0.23252851,-0.039728932,-0.07752797,-0.3489653,0.04196759,-0.025590822,0.05023004,-0.18522047,-0.06156682,-0.21035102,0.2066552,0.26929066,0.13473949,-0.006180954
Choose Graphical k in A problem,-0.0635322,-0.12663342,0.048938558,0.026917595,-0.036589056,-0.13542046,-0.12699924,-0.14352432,-0.054054886,-0.082639135,-0.035156727,-0.25515518,-0.14226544,-0.11920681,-0.066709876,-0.00494356,-0.15513483,-0.05217535,-0.16521937,-0.15182252,0.0942332,-0.03773916,-0.17775165,-0.1593059,0.11416844,0.2063855,-0.17727493,0.09535016,0.21113719,0.1923412,-0.04958193,0.18458176,-0.16064368,0.030061146,0.11777652,-0.25283626,-0.14937992,0.047079004,0.09050034,-0.19787654,0.027805442,0.11574348,-0.05225926,-0.22166362,-0.21566659,-0.1656425,0.14174853,0.055974286,0.32684937,-0.01723068
Choose Graphical k in G problem,-0.10112159,-0.1762548,0.0380968,0.03666353,-0.033328675,-0.11610809,-0.12635669,-0.12437469,-0.0006940103,-0.029675294,-0.035268728,-0.24531119,-0.10404135,-0.17811084,-0.05991237,0.020502692,-0.09383039,-0.10876614,-0.17071415,-0.15053216,0.095966145,-0.026411658,-0.1864258,-0.1899039,0.0852437,0.23829433,-0.1424057,0.10966165,0.14326084,0.14061171,-0.07153106,0.20676927,-0.1775646,-0.0036773907,0.07662901,-0.23556393,-0.15267602,0.06147531,0.11811605,-0.20479435,0.008616265,0.0937121,-0.045647804,-0.2313634,-0.21541645,-0.18300149,0.1424176,0.044461217,0.34734398,-0.0136086205
Choose Graphical k in N problem,-0.10089708,-0.056176707,0.016081695,-0.049623273,-0.13208248,-0.048864555,0.061229058,-0.19482441,0.022368643,-0.10973158,-0.2671369,-0.0054593906,-0.051637296,-0.025267852,0.040804096,0.22706044,-0.16327295,-0.039710056,-0.03169935,-0.07324646,0.021818744,0.005575306,0.024808785,-0.16566786,0.043008603,0.2673448,-0.020764926,0.07114924,0.1734614,0.020357538,-0.18281874,0.14311095,-0.090363614,-0.14820169,0.06288541,-0.22725551,-0.28268144,-0.0048948727,-0.025233867,-0.34406134,0.021302404,-0.09497598,0.0454664,-0.21688712,-0.10886523,-0.18814778,0.21457478,0.3119169,0.1460521,-0.019305335
Choose Graphical k in V problem,-0.09018079,-0.15096918,0.03138555,0.014929862,-0.0545468,-0.11002994,-0.057041302,-0.15943164,-0.020987485,-0.049300056,-0.09557464,-0.18628332,-0.095562026,-0.13732885,-0.060763605,0.07753877,-0.102801435,-0.077449836,-0.12570325,-0.15740776,0.0776097,-0.02316228,-0.19828719,-0.23994501,0.1321428,0.2805307,-0.122828394,0.08370357,0.1309609,0.1163774,-0.08109293,0.20794143,-0.18156819,-0.030839931,0.08444714,-0.2755138,-0.1432952,0.032163344,0.042216413,-0.25140944,0.011742803,0.07676029,-0.04648363,-0.2118089,-0.15423976,-0.19508223,0.14863579,0.11644886,0.35498136,0.016505888
Choose Graphical refl-v in A problem,-0.07877744,-0.070964634,0.013733774,-0.079438396,0.006118006,0.00034951992,-0.02566498,-0.14357027,0.033519905,-0.07101003,-0.29004163,-0.05380941,-0.049779776,-0.08694228,0.02665764,0.20812936,-0.08287195,-0.05422782,-0.10488121,-0.12329865,0.02006481,-0.0042069834,-0.07538329,-0.19087638,0.13329463,0.3117312,-0.0046159136,0.04418383,0.08296605,0.0007935586,-0.13547158,0.17041115,-0.09145537,-0.1703499,0.15381092,-0.1522832,-0.2592006,-0.013460934,-0.03053091,-0.35907784,0.0019496531,-0.061684787,0.061076924,-0.22445136,-0.08040996,-0.27296424,0.24090582,0.22698583,0.18383968,0.015601852
Choose Graphical refl-v in G problem,-0.07043991,-0.09168441,0.014426387,-0.06543206,0.02179694,-0.0078089153,-0.02194113,-0.14592472,0.021393582,-0.02837684,-0.28542235,-0.004651595,-0.04652412,-0.072670974,0.044975214,0.20886128,-0.05617246,-0.07202073,-0.12695323,-0.1195633,0.01954581,-0.025176138,-0.117074445,-0.23230137,0.14210185,0.29947358,-0.003603967,0.035096463,0.07511206,-0.000497431,-0.1194315,0.1849539,-0.08566718,-0.15982533,0.15335384,-0.12613651,-0.25387523,0.002357146,-0.043949585,-0.3677993,0.035202302,-0.094611555,0.045821413,-0.21599339,-0.0655781,-0.26853043,0.225326,0.23912562,0.18198882,0.030170785
Choose Graphical refl-v in N problem,-0.09202847,-0.018110815,0.019746402,-0.16545139,-0.11153224,-0.010905772,0.033163775,-0.17284846,0.06444173,-0.12614322,-0.26564068,-0.030558983,-0.08828115,-0.030007116,0.0369676,0.16901305,-0.20132764,-0.001983808,-0.044951815,-0.10549611,0.013258743,0.06495434,0.083551355,-0.098225094,0.06897607,0.24560192,-0.034447633,0.026367793,0.23622252,0.004124998,-0.17522408,0.111657985,-0.10029776,-0.14643686,0.06334907,-0.25660095,-0.2970982,0.0034416965,0.008193623,-0.38422418,0.06525173,-0.08594256,0.043333046,-0.19140936,-0.1383681,-0.18892156,0.17189562,0.2382333,0.13812378,-0.03662989
Choose Graphical refl-v in V problem,-0.07639908,-0.067936726,0.0031225625,-0.08908283,-0.010913669,-0.012967609,0.02805524,-0.15490751,0.03526335,-0.078047305,-0.30390376,-0.005230339,-0.047951207,-0.050233994,0.018906021,0.22217722,-0.0729201,-0.03700817,-0.088288225,-0.13720548,0.018498007,0.007898628,-0.10185008,-0.22487624,0.13531837,0.29389536,0.011583212,0.039688125,0.0802684,0.0017361777,-0.13464423,0.14751737,-0.1260344,-0.1780077,0.12243141,-0.16583638,-0.2586891,-0.003710854,-0.058812495,-0.35444844,0.050119434,-0.077295735,0.04954334,-0.19997008,-0.0717237,-0.25181082,0.22306353,0.26048404,0.17634177,0.024622288
Choose form of compound inequality,0.12435721,-0.15601812,-0.06942754,0.2002953,-0.14910601,-0.045208745,-0.28467825,0.124908075,-0.14811713,0.038583808,0.023541154,0.0556025,-0.0059480383,-0.09682194,0.105855726,0.2042951,0.20402957,-0.066816956,-0.101217076,0.21693684,-0.04978921,-0.043829653,0.013685929,0.026301524,-0.051026072,0.004975599,0.18152903,-0.190469,-0.2320242,0.07927505,-0.17926458,0.26992488,-0.18825887,-0.14965789,0.02289857,-0.13946849,-0.032808956,-0.15413226,-0.014222905,-0.04179369,0.039873645,-0.18072444,0.14189315,-0.24456039,-0.016092133,-0.04575619,-0.054644655,0.11271721,0.3494893,0.016706612
Choose mean,-0.22952352,0.042985775,-0.19983721,-0.037607633,0.106653936,-0.1400396,0.08716741,-0.18556294,0.13134171,0.28345993,-0.053533565,0.06740126,0.07429219,-0.12433834,0.17794481,0.10122778,0.24045005,0.1404829,0.04343086,0.00034713975,0.21021764,-0.28364307,-0.12674019,-0.123163335,0.22532728,-0.009905016,0.18790649,0.10886028,-0.04460183,0.025779884,0.019948767,0.12944233,0.050572496,-0.17035158,0.14846806,-0.011566682,-0.14736205,-0.24444808,0.060460806,0.014968191,-0.21591713,0.08791806,0.07856972,0.16076376,-0.05612953,0.07560287,-0.0935308,0.16895746,-0.022548119,0.19470727
Choose median,-0.22891991,0.053783964,-0.19248739,-0.027959658,0.12442087,-0.15752324,0.1028508,-0.20276055,0.102261186,0.2898455,-0.032481175,0.07946046,0.083095305,-0.10496519,0.17218147,0.10657017,0.22722192,0.15531577,0.041457884,0.028574089,0.22125906,-0.25687295,-0.122669585,-0.11631011,0.23457202,-0.0022084732,0.1996366,0.09897452,-0.022692222,0.039958622,0.039856352,0.11849864,0.06404321,-0.1565067,0.13424948,-0.01624679,-0.14807892,-0.24653918,0.07150622,0.014090726,-0.22112618,0.08248896,0.060417518,0.18181318,-0.061284807,0.07501921,-0.11177517,0.16211578,-0.0077672116,0.18538518
Choose mode,-0.23978372,0.032860886,-0.1968458,-0.022457898,0.115918286,-0.15472934,0.09690379,-0.20242189,0.12917337,0.286158,-0.030288726,0.078193136,0.06973897,-0.09957476,0.1584482,0.102716945,0.23324999,0.15551874,0.043348894,0.015283325,0.22430065,-0.27060342,-0.12226214,-0.12558629,0.23803239,-0.010194243,0.2035311,0.11100736,-0.015322082,0.034296416,0.03867915,0.12449531,0.067393936,-0.15574926,0.14999741,-0.018371252,-0.1384157,-0.2425588,0.066359684,0.022214293,-0.19571026,0.11148543,0.056075912,0.16740456,-0.06931316,0.08951473,-0.10552244,0.14641756,-0.0057000713,0.18072203
Choose non-perfect square,-0.008451249,-0.06960172,-0.013718637,0.10364176,-0.04838007,-0.12835874,0.13636836,-0.20670411,0.025311071,0.102246314,-0.054309864,-0.091604434,-0.024823068,-0.24633242,0.001372191,-0.022465143,-0.016488522,0.021740938,-0.027786471,0.03602131,0.125325,0.032615103,-0.10861008,-0.0858542,0.1077136,0.14681514,0.12690257,0.14484951,-0.107491344,0.21251602,-0.15434474,0.02606371,-0.0036798026,0.11467517,0.03496026,0.3379777,-0.24188323,0.13153422,-0.019679429,-0.4121349,0.021378249,-0.03146415,0.018902708,0.2712758,0.13040835,-0.10283907,-0.1665925,0.21546616,0.027517237,0.2774604
Choose operator in fractional identity,-0.013129357,-0.13797612,0.058417276,-0.06970987,0.008212538,-0.14955121,0.12684788,0.05917326,-0.17598937,-0.10331303,0.068809494,-0.06443394,-0.2502676,0.041419197,-0.09336463,-0.12993504,0.10651055,0.14306712,0.14649591,-0.08990075,0.069163986,0.06991925,-0.15841787,-0.052780394,0.19026497,-0.1718626,-0.16179712,-0.27184308,-0.22538829,-0.1044726,-0.13495655,0.031153,0.028339092,-0.23802258,-0.27112958,-0.05990415,-0.06441971,-0.08106306,0.19879,-0.33899224,0.020347316,-0.017832512,-0.15577126,0.18054868,-0.21158546,0.10838108,-0.033776466,-0.08626551,0.1344946,-0.06241768
Choose table size,-0.14333367,-0.124519795,-0.07063073,-0.11243735,-0.0020902616,0.06555289,0.07404761,0.103224635,0.1777088,-0.03542296,-0.13240927,-0.08207152,0.12588477,-0.125518,-0.056321744,0.06677836,0.33924472,-0.14984207,-0.045224093,0.04219959,0.24496351,-0.08905549,-0.031443547,-0.435656,0.20021018,0.25086734,0.060223877,0.06449794,-0.10906599,-0.0627588,-0.15634702,-0.046137962,-0.16279097,-0.20590277,0.04522237,-0.13710235,-0.024954766,-0.09847066,0.04173939,0.05326381,-0.1908167,-0.040622894,-0.17410442,-0.13427149,0.08109931,-0.13117842,0.13188884,-0.11766686,0.15532885,0.07778349
Classify equation as having no solution,-0.05035241,-0.13791662,-0.04465017,-0.12604663,-0.18447286,0.056965664,-0.10895142,0.07993206,0.23417416,-0.05941174,-0.26488465,-0.3356247,0.032672063,0.02919876,0.22055233,0.29066217,0.006601861,0.057903796,0.10812348,0.038123064,-0.08202833,0.029591938,-0.15935104,-0.021704033,0.06028878,0.13500217,0.24333294,-0.1704244,-0.032691803,0.05891762,-0.2167009,-0.06859441,0.099682055,-0.09726022,-0.0860705,-0.388238,-0.013948342,-0.20959136,-0.039511994,-0.10935131,-0.011800137,-0.13741633,0.10119052,-0.007729481,0.0044696247,0.061078332,-0.17299786,0.11500449,0.031165134,-0.01013597
Classify equation as having one solution,-0.06724272,-0.15692772,-0.0003670191,0.04802874,0.059892215,0.049180858,-0.1786986,-0.09950863,0.23457672,0.01362249,-0.0965304,-0.23380183,0.044488803,0.20868939,0.09734873,0.28560492,-0.014827241,-0.0241654,-0.033896275,-0.054588534,0.012096275,0.0808469,-0.18681927,-0.10080642,0.058906708,0.0011330917,0.10530129,-0.184693,0.10546335,-0.09806931,-0.28785414,-0.021953482,0.2220334,0.011466065,0.056345493,-0.46392018,-0.02802573,-0.1812537,-0.10744388,-0.2257486,0.014837802,-0.093525514,0.12557559,-0.046318676,-0.021352448,0.048920203,-0.046528682,0.1625899,-0.18183467,-0.011599674
Classify equation as having two solutions,-0.02019304,-0.20277211,-0.0019016139,0.08451231,0.13031794,0.040488202,-0.32804587,-0.24732885,0.20988446,0.075658396,-0.06853958,0.056400374,0.048391826,0.25364426,-0.027757455,0.20012829,0.0803809,-0.047629822,-0.121648334,-0.05506835,0.005146478,0.03806913,-0.15583965,-0.02130344,0.05232137,0.050741173,-0.08068712,-0.29061285,0.11754836,-0.09476235,-0.18983196,-0.03443428,0.14469936,0.17471273,0.26265773,-0.2710236,-0.06687898,-0.1316217,-0.15210709,-0.099649645,0.09420828,-0.14853685,0.15907675,-0.15055776,-0.04264514,0.036823727,-0.10424391,0.0566563,-0.2106739,0.019481245
Classify inequality as having a line segment,-0.10737191,0.189699,0.1972271,-0.06633845,0.11141915,0.11658432,0.1273623,-0.057546068,0.019356966,0.0898502,-0.16886398,0.09884473,0.14769028,0.23958486,-0.048287887,-0.15257634,-0.019416843,-0.007348502,0.1759326,-0.056487672,0.10159397,-0.05406617,-0.05943861,-0.036249712,0.014944989,0.045944624,-0.11848407,0.19297022,0.24850145,-0.03533578,0.28440526,-0.024102794,0.078084,-0.12991223,0.009793323,-0.09299197,0.21204007,-0.032861717,0.04357818,-0.018841473,-0.02926338,0.060957097,-0.11559923,-0.24657646,0.06654647,-0.14857064,0.4488592,-0.16475528,-0.14923882,-0.15875858
Classify inequality as having a single point,-0.043861326,0.07027148,0.21191995,-0.08575254,0.067377314,0.11041501,0.027892355,0.044169318,0.008995285,0.12928662,-0.24778563,0.04010908,0.18233012,0.27322075,-0.0072550443,-0.058410272,-0.020478472,0.04526398,0.14036325,-0.055068094,-0.012292647,-0.017898181,-0.15986769,-0.046046734,0.012986232,0.025675219,-0.07787393,0.20424822,0.110978305,-0.047587976,0.19316584,-0.18952963,0.078971185,-0.20302165,-0.047857642,-0.2044291,0.2735174,-0.108426206,-0.047722198,-0.067672685,-0.0222459,-0.029194605,0.031968694,-0.26671454,0.09524188,-0.11142404,0.43929493,-0.083662815,-0.09329143,-0.22768643
Classify inequality as having all real numbers,-0.09060997,0.08931084,0.30123097,0.06676658,0.094185516,0.10156044,0.024473589,0.041704625,-0.123107664,0.04267654,-0.116219245,0.07520139,0.24298047,0.24980879,-0.0112071,-0.15385832,0.03283249,0.03638091,0.08755161,-0.04313583,-0.022250742,-0.018787524,-0.12623346,-0.05630143,0.077024534,0.02954678,-0.03855838,0.20170109,0.18082675,0.009487996,0.2084762,0.0004928361,0.056901503,-0.14232937,-0.07191664,-0.1218118,0.24227287,-0.059010953,-0.012825465,-0.06784655,-0.092114404,-0.0036496744,0.09035174,-0.32073483,0.081384994,-0.0842099,0.49869135,-0.017757522,0.07089436,-0.17570002
Classify inequality as having all real numbers except a single point,-0.072885185,0.12711842,0.20139414,-0.027107408,0.11751228,0.104428224,0.019322652,0.02196083,-0.055580776,0.20783155,-0.183788,0.11742696,0.2107232,0.2529059,-0.026054505,-0.12002959,0.092678055,-0.00061458873,0.064393856,-0.00066495885,0.053710178,-0.03833739,-0.21717747,-0.08376358,0.0038802694,0.039495304,-0.06744605,0.24347451,0.123733774,-0.0064199804,0.19032523,-0.027583877,0.029804118,-0.14756979,-0.023762215,-0.14995179,0.25723246,-0.10207248,0.03588589,-0.073964514,-0.05687389,0.031037413,-0.06328487,-0.36677665,0.07465551,-0.14478451,0.43915597,-0.0013227654,0.0055825445,-0.118882425
Classify inequality as having no solution,-0.07433908,0.11998466,0.20658311,-0.07272756,0.15905003,0.094328,0.05169281,0.020639198,-0.0030084802,0.121691,-0.1735574,0.11772598,0.26573592,0.25403664,-0.008750006,-0.06305401,-0.008257993,-0.045965686,0.13634247,-0.06677284,0.041747663,-0.0006461916,-0.17440313,-0.08938898,-0.026284078,0.056492522,-0.045450103,0.2128241,0.123789296,-0.054385446,0.22521879,-0.105631076,0.07584517,-0.15598989,0.016896933,-0.19740246,0.24902883,-0.07475466,0.03348179,-0.082338974,-0.04965099,0.08159657,-0.04744621,-0.25739312,0.06486225,-0.13807538,0.4810631,-0.056197315,-0.069021314,-0.12226378
Classify inequality as having two rays,-0.101470575,0.20300843,0.23740694,-0.05719856,0.13716929,0.12935609,0.12257451,-0.039681714,-0.0049590934,0.101629175,-0.10385298,0.04293831,0.18892518,0.26687932,-0.05444882,-0.15667896,-0.020268882,-0.035418455,0.16228957,-0.058413193,0.073606156,-0.03268108,-0.06130916,-0.035972442,0.04838887,0.019417105,-0.13121085,0.21810086,0.23353486,-0.036118586,0.26963863,-0.019222774,0.13039792,-0.08208841,-0.016480114,-0.07293068,0.2155864,-0.0633908,0.022627214,-0.003413979,-0.059305735,0.050088592,-0.11144235,-0.21206252,0.101642296,-0.115225,0.45551524,-0.15545996,-0.15344404,-0.13168158
Combine like terms,-0.0007962697,0.17242324,-0.058860872,0.060366184,-0.28508437,0.2175689,0.09051417,-0.16107763,0.16447265,-0.09882426,0.028571852,0.0028701653,-0.23948488,-0.0668971,0.023694139,-0.24558714,-0.14243448,0.20349324,0.12192298,0.0168615,0.041883145,0.16680521,0.28370076,0.12892444,-0.044497233,-0.16361909,-0.02162602,-0.18037838,0.037013326,0.009230309,-0.051517636,-0.09109285,0.14448135,0.018156525,-0.20012107,0.17330213,0.07999468,0.057817582,-0.009271607,0.123503536,0.04391856,-0.24395174,0.11488365,0.19997309,-0.02344594,0.036082197,-0.057723094,-0.21683082,0.05054552,-0.27680787
"Combine like terms, no var",-0.17982918,-0.021454643,-0.07761732,0.09420207,0.08247387,0.04192214,0.22260238,0.18111145,-0.11053241,0.20526817,0.2536902,0.2808213,0.15509504,-0.14743732,-0.17439558,-0.105459794,0.013725354,0.09263013,-0.0715091,0.20150548,0.060718898,0.10038055,-0.19085567,-0.3038406,0.07116543,-0.051086023,0.06389082,0.20954807,-0.035415765,0.0043385783,0.027261915,-0.12767304,-0.16605724,0.003357091,0.03756927,0.14267845,0.0030234375,-0.03160873,-0.17295238,0.1859455,-0.029804079,-0.058774773,-0.17082188,0.053372804,-0.30353406,0.089615144,0.10321761,-0.07757323,0.1352737,-0.1384018
Compare differences - added internal,0.046654932,-0.13862139,-0.058777966,-0.12432868,-0.030527601,-0.25012863,-0.07250962,0.024632348,0.08764476,0.1539404,0.023368761,-0.17046352,0.022406224,-0.29118747,-0.01996002,0.08273369,0.21374898,0.070453204,-0.090476826,-0.13368636,0.083300516,-0.4195344,-0.16252123,-0.26947197,0.15607326,0.010578703,-0.053417098,0.021934548,-0.05505061,-0.13242508,-0.0013459398,0.12325815,-0.20053893,0.017677022,0.1832789,-0.00989023,-0.12765197,-0.08950659,-0.03331102,0.080488876,-0.11889142,-0.009977864,0.033886295,0.12944071,-0.14403637,0.073658764,-0.16888386,0.2501697,-0.10626342,0.21849917
Compare differences - added outlier,0.059884213,-0.06525917,0.0049209595,-0.101855606,-0.106911294,-0.2505762,-0.036454476,0.004278908,0.06934989,0.18898205,-0.049061436,-0.036026172,0.07819767,-0.34821513,-0.03948756,0.09867543,0.20636553,0.12341363,-0.0839247,-0.17081328,0.052703306,-0.41890556,-0.17690355,-0.23864667,0.20826732,-0.0033485356,-0.00057414215,0.015464215,-0.11449221,-0.13314772,-0.045570634,0.09810339,-0.19514726,-0.010524856,0.22004737,0.019894676,-0.1442374,-0.054529205,-0.08452797,0.089433305,-0.065552846,-0.016266603,0.0011583758,0.1460359,-0.16359363,0.063538365,-0.04670352,0.23013914,-0.09158957,0.17445481
Compare differences - removed outlier,-0.006773564,-0.15244675,0.0289993,0.009024922,-0.048408546,-0.22669391,-0.12102033,0.031032933,0.029983219,0.16239472,0.023106026,-0.15306555,0.02814447,-0.35414684,0.031621207,0.055254165,0.2574882,0.045442406,-0.1545878,-0.12654111,0.031585507,-0.31821957,-0.19283608,-0.2969162,0.112908475,0.017510137,-0.026467605,0.048727166,-0.15987192,-0.101206474,-0.030612301,0.09073463,-0.32975808,0.0057428232,0.25057933,0.036996704,-0.06250811,-0.07310452,-0.10420586,0.07121076,-0.11111271,-0.06638608,0.074334465,0.0916208,-0.14061075,0.012212056,-0.035056,0.23476833,-0.08596203,0.12460159
Compare large quantities in context,-0.13090679,-0.105163045,0.025983758,-0.024342347,-0.09271097,-0.14232269,0.3375664,-0.087299265,0.048384007,0.1887321,-0.11213268,0.05100788,-0.05968061,-0.15424263,-0.094736345,-0.08027179,-0.052664448,-0.20383288,0.0115024755,-0.10894325,0.16964093,-0.16305527,-0.1552184,-0.34719026,-0.019000577,0.20573935,0.12086004,-0.12275381,0.3215402,0.027471095,-0.03536829,0.13352194,0.053167596,0.048357278,0.116356194,-0.052512992,0.22312124,0.109487236,0.00782588,-0.08701677,-0.2278004,0.063547574,-0.008949988,0.078539945,0.119796835,-0.15765609,-0.053177357,0.06345285,-0.024807366,0.26939893
Compare means - added internal,0.042626813,-0.13964805,-0.08646397,-0.11931762,-0.034874998,-0.26294944,-0.06470958,0.014322053,0.09950237,0.16970378,0.060861897,-0.15241805,0.060019296,-0.2781474,0.007909384,0.089926146,0.19750114,0.08105566,-0.039538268,-0.1592126,0.07904009,-0.42684385,-0.13465168,-0.28136426,0.12003566,0.028260015,-0.037679207,0.039226137,-0.077270746,-0.12772548,-0.030620016,0.10750344,-0.13924181,0.014395665,0.21478146,-0.0324881,-0.122919604,-0.096597984,-0.043748133,0.09300346,-0.12995231,-0.040032998,0.008230405,0.10629192,-0.15879643,0.06824087,-0.16952817,0.2746638,-0.06752234,0.21456207
Compare means - added outlier,0.031465244,-0.106370114,-0.025447262,-0.111806534,-0.08474651,-0.25006425,-0.034902886,-0.026710268,0.047395535,0.19778828,-0.0766403,-0.063927226,0.090372734,-0.2873156,-0.033108026,0.11488795,0.19096527,0.08829148,-0.071711875,-0.16207296,0.016457824,-0.4121932,-0.23547955,-0.22902948,0.24254356,0.016991451,-0.02461708,0.03127695,-0.104864694,-0.14381616,-0.01649047,0.09594203,-0.20545878,-0.037105568,0.233842,0.0016899233,-0.12989077,-0.0752622,-0.10560546,0.08654989,-0.04754587,-0.019899927,-5.331006e-05,0.14586924,-0.12296735,0.054048005,-0.023663778,0.27101648,-0.03691559,0.18479268
Compare means - removed outlier,-0.06143131,-0.110830314,0.03305747,0.071395285,-0.032930974,-0.14939596,-0.077792905,0.06356129,0.007268471,0.18295315,0.056309707,-0.15221436,0.06904169,-0.33247146,0.09424189,0.06107882,0.27185377,0.032830983,-0.20136857,-0.09254496,0.061320063,-0.29483414,-0.2641958,-0.3063474,0.07970198,-0.004541152,-0.01459115,0.041849576,-0.19646063,-0.07755991,-0.048154306,0.114461325,-0.32698822,-0.006299102,0.2253609,0.07240063,-0.0025299187,-0.08809393,-0.076597676,0.07683662,-0.09930653,-0.104733825,0.04826044,0.11521736,-0.108561456,0.014367202,-0.068279706,0.23374426,-0.112175725,0.08268957
Compare medians - added internal,0.0013619694,-0.1101493,-0.0822952,-0.13668722,-0.057906162,-0.25180233,-0.053168,0.0024180266,0.1381974,0.14902245,0.054269366,-0.16206345,0.060722474,-0.31372955,-0.02647184,0.066484526,0.21079147,0.11624128,-0.033621844,-0.12702142,0.0603129,-0.4133108,-0.11508652,-0.24283366,0.17273426,0.0007689538,-0.035728842,0.018188251,-0.064354405,-0.12353955,-0.015658977,0.13028935,-0.16487758,0.027170433,0.21135129,0.01573726,-0.13326101,-0.07461948,-0.059913993,0.07937675,-0.13650307,0.033308614,0.035912395,0.12893742,-0.17787847,0.036617346,-0.14968058,0.26307032,-0.124706626,0.20311524
Compare medians - added outlier,-0.00022676382,-0.07702873,-0.04973586,-0.11193013,-0.08161326,-0.22014514,-0.042172655,0.010485178,0.00079508126,0.18244812,0.037822947,-0.09420176,0.12272306,-0.3207051,-0.035380356,0.10017245,0.20206441,0.13890627,-0.08118781,-0.14843693,0.07624683,-0.4302577,-0.19486067,-0.23716684,0.21488965,0.028160857,-0.018636227,-0.0057573155,-0.11492933,-0.1213805,-0.035987727,0.06808934,-0.21087581,-0.0072512757,0.23560394,-0.028673999,-0.11642424,-0.064650506,-0.1305007,0.06815911,-0.070656426,-0.0069789547,0.012351358,0.12501185,-0.1866033,0.012020575,-0.04840386,0.22958952,-0.061682727,0.19804713
Compare medians - removed outlier,-0.06292143,-0.098626316,0.0037151687,0.027664464,-0.057221692,-0.16525467,-0.08155703,0.056505397,-0.00043502465,0.17029515,0.06287891,-0.14276047,0.0317288,-0.3659968,0.054751176,0.05711157,0.24847479,0.084502496,-0.18711098,-0.1300748,0.046846986,-0.3345291,-0.2041991,-0.31024194,0.13068376,-0.033832613,-0.029225575,0.03290711,-0.17633688,-0.10078957,-0.04659755,0.12738805,-0.27735865,0.0033587012,0.2357498,0.08010273,-0.022667827,-0.06484992,-0.064811096,0.06840271,-0.11019373,-0.07690838,0.0635583,0.08932425,-0.13890311,0.030129215,-0.07321326,0.24354914,-0.11650079,0.12968771
Compare one large number in scientific notation and one large number not in scientific notation,-0.12480692,-0.09217244,0.014068655,-0.018473787,-0.10705352,-0.12838125,0.33841157,-0.086956225,0.06790138,0.17718443,-0.090877384,0.05434928,-0.064014114,-0.1468948,-0.076528,-0.09832015,-0.053930238,-0.19093111,0.010860918,-0.14287053,0.17608155,-0.143765,-0.1552091,-0.32408407,-0.025372026,0.21544753,0.12481636,-0.125005,0.3431639,0.03455065,-0.025463114,0.122837394,0.031478465,0.038208146,0.12235606,-0.06808586,0.22483267,0.11552458,-0.023240298,-0.12152323,-0.20721167,0.06050246,0.028833563,0.08931044,0.11844368,-0.16526821,-0.051831447,0.0476877,-0.054073647,0.27822027
Compare one small number in scientific notation and one small number not in scientific notation,-0.098791204,-0.07126554,0.029604293,0.005912317,-0.14912401,-0.12053562,0.31411842,-0.07161922,0.059168845,0.25524655,-0.09591374,0.10445592,-0.021489045,-0.19514325,-0.070361696,-0.10510702,-0.09068932,-0.21708952,-0.032913517,-0.09530259,0.19885248,-0.19799672,-0.1432227,-0.32818687,-0.032416016,0.18163654,0.1196229,-0.11482751,0.3563496,0.029468564,-0.02890122,0.13886166,0.039837897,0.03566517,0.112281844,-0.050730262,0.21055713,0.11370718,0.029138366,-0.099254906,-0.18854117,0.082313225,-0.044398345,0.0012517548,0.04622675,-0.13891041,-0.0129831135,0.063153386,0.007224908,0.24989347
Compare point and original mean - added internal,0.007732132,-0.14320521,-0.07603292,-0.10455765,-0.052701294,-0.26588142,-0.06715851,0.0008795021,0.118610665,0.16514018,0.025884746,-0.14882681,0.019573461,-0.2604603,-0.056554414,0.064508,0.2113872,0.08654003,-0.033893924,-0.14113651,0.0940619,-0.43717834,-0.15557829,-0.23703712,0.18490258,-0.03458496,-0.050079275,0.039529953,-0.04025694,-0.16497426,-0.0069153346,0.09949619,-0.1755207,0.0048196698,0.17057194,0.003469275,-0.11893992,-0.09296897,-0.019434258,0.09854744,-0.13857283,0.006365841,0.028148199,0.14374126,-0.16798113,0.06631186,-0.1700729,0.24436107,-0.09750037,0.22108464
Compare point and original mean - added outlier,0.035682615,-0.071021736,-0.03065113,-0.13775513,-0.10041722,-0.23220168,-0.017097257,-0.01614928,0.04621548,0.17680538,-0.03170121,-0.04075071,0.10921802,-0.2950976,-0.052792322,0.12719695,0.23813349,0.10889737,-0.08578764,-0.16945459,0.027224775,-0.43628535,-0.16867672,-0.1954778,0.23214266,-0.021236058,-0.020915743,0.0076146084,-0.10008604,-0.10699675,-0.042584345,0.07916885,-0.18028371,-0.006966997,0.2169455,-0.014138122,-0.1419415,-0.070138864,-0.10847895,0.098660275,-0.09141902,-0.0075150016,0.013640109,0.17322184,-0.17207903,0.056921292,-0.036622606,0.25966188,-0.08485622,0.18599094
Compare point and original mean - removed outlier,-0.0776792,-0.14193815,-0.024675474,-0.005085151,-0.064609155,-0.17259444,-0.09713222,0.0340438,0.0445583,0.177347,0.04688219,-0.15592326,0.04754097,-0.33175096,0.048681434,0.06059754,0.2851568,0.075926416,-0.16626,-0.11787585,0.07405728,-0.32267717,-0.23360813,-0.2720002,0.082769975,-0.00087227416,0.016649583,0.019678745,-0.15585424,-0.106226444,-0.05174376,0.10034669,-0.3051733,0.032988142,0.22953099,0.0864965,-0.062030703,-0.0939014,-0.11251392,0.058101002,-0.090628386,-0.01692669,0.07280019,0.07494577,-0.16450766,0.02544595,-0.07912898,0.20814581,-0.1529834,0.15652956
Compare probabilities -- different trials,0.050179712,-0.0029832614,0.16820629,0.040128395,0.04199832,0.114655115,0.22346276,0.06229584,0.030644495,0.107241526,-0.09851591,0.038663298,-0.085371844,-0.029924033,0.24790084,-0.04690494,0.3247291,-0.03450412,-0.0073470734,-0.13630077,0.058508758,-0.20859258,-0.06633999,-0.19253896,0.06942297,0.23208049,0.070298105,0.14177671,-0.15080212,-0.20904437,0.012858255,0.045262486,-0.114046365,-0.024058806,0.17542927,-0.21802945,-0.06263273,-0.031825393,-0.09823855,-0.17799947,0.25967947,0.07054552,-0.2634917,-0.037087265,0.07297674,-0.044742078,0.20188566,0.21781613,-0.19246466,0.152825
Compare probabilities -- same trials,0.03665062,-0.12564583,0.110868,0.024783963,0.12042957,0.051899765,0.14502749,0.024421662,-0.04710912,0.14451696,-0.14595093,0.13055405,0.2616557,-0.13711023,0.09977453,0.11504562,-0.19697192,-0.054496087,-0.0032419418,-0.004006929,0.14525259,-0.028049337,-0.31583688,-0.061799362,-0.2063546,0.1689715,-0.06929141,0.091548905,-0.22624114,-0.19627637,-0.033291265,0.012203284,-0.07143934,-0.122508444,0.12334105,-0.02523048,-0.17974147,-0.01571284,-0.07585965,-0.22798504,0.054652132,-0.27125278,-0.09874117,0.009157501,-0.027198302,-0.2349597,0.2694302,-0.0050139637,-0.100373514,0.25576398
Compare small quantities in context,-0.1272953,-0.08145179,0.041985705,0.00876969,-0.10455564,-0.14407068,0.30669662,-0.06658425,0.040481467,0.22988343,-0.1023396,0.068550706,-0.025629546,-0.17283203,-0.09449853,-0.08844002,-0.08709325,-0.23186167,-0.020109234,-0.10963815,0.18472135,-0.19513722,-0.17363884,-0.33494928,-0.033174545,0.1925933,0.10446785,-0.13100328,0.32774583,0.042745765,-0.028600931,0.15400824,0.028357038,0.0584601,0.11642269,-0.06456135,0.20905669,0.11552747,0.03958014,-0.09056085,-0.19084488,0.09643909,-0.033329632,0.030523214,0.070847556,-0.14639792,-0.046570454,0.078675285,-0.011272683,0.26148334
Compare two large numbers in scientific notation,-0.12422125,-0.0834423,0.032973684,-0.027965795,-0.12017526,-0.13031548,0.3249846,-0.12395902,0.06540549,0.19381325,-0.10770466,0.05154462,-0.05236312,-0.15734904,-0.11567777,-0.06926241,-0.04443822,-0.20816858,-0.006187706,-0.09443051,0.18201357,-0.17829265,-0.15594295,-0.38389984,-0.022543075,0.19069402,0.11370018,-0.14093927,0.30119255,-0.027739964,-0.03776864,0.11143966,0.09116201,0.0384982,0.101891845,-0.07264516,0.22254777,0.10331388,0.019231778,-0.12245411,-0.20664334,0.04806125,-0.00397038,0.081409074,0.13933414,-0.14613836,-0.040778372,0.031258136,-0.0114516765,0.2438555
Compare two small numbers in scientific notation,-0.12978563,-0.07630779,0.018580144,0.009498013,-0.082979865,-0.146111,0.31661874,-0.080930166,0.04797476,0.2143518,-0.13628905,0.06307162,-0.0052626254,-0.16823949,-0.10968558,-0.060817588,-0.065630026,-0.22591652,-0.040257208,-0.11454717,0.15876871,-0.15795489,-0.20694157,-0.37570664,-0.027735692,0.18877831,0.09751125,-0.13124788,0.2807484,0.009894911,-0.06170824,0.13494371,0.024213364,0.052233886,0.1073719,-0.07262796,0.19999407,0.13510963,0.030564113,-0.11342593,-0.19186604,0.09477509,-0.044048958,0.04616311,0.1111468,-0.16747154,-0.051970497,0.09604972,2.2970316e-05,0.25365174
Compare unit rates,0.27386913,0.009511477,0.15680403,0.033076324,-0.014263981,-0.11415129,-0.027379831,-0.026426053,-0.14406714,0.08984396,-0.23718497,-0.12105866,-0.030798903,-0.04218173,-0.05399243,-0.09999711,0.106281854,-0.23643509,-0.22922444,-0.06924174,-0.21232508,-0.0077092745,-0.112180315,-0.121153116,0.15571769,-0.068395756,-0.13802259,-0.021975987,0.094123796,0.082163855,0.14472918,0.30690703,0.10241923,0.03874561,-0.19067028,-0.1733507,-0.032479096,-0.32538742,0.07950684,0.0879584,0.17054442,0.10725835,0.09972745,-0.013073317,-0.19388962,0.038730305,-0.16965015,-0.12485319,0.107416324,0.21890423
Compare units,0.24359125,0.3167433,-0.05434914,-0.12516598,0.22190706,0.2154043,-0.260647,0.002063275,-0.25870693,0.033144996,-0.06461313,0.10774217,-0.28959358,-0.038407587,-0.028103728,0.099887066,0.28778878,-0.021775419,-0.026621677,-0.061889865,0.13944054,0.015379823,-0.019614074,0.05845489,-0.10690284,-0.112075515,-0.16426617,0.12608448,0.009675863,0.013824458,-0.047671635,-0.05159189,-0.061797366,-0.0073819794,-0.008717409,-0.1938277,0.03448355,0.20305413,-0.058241874,-0.10269835,-0.15936275,-0.030802224,0.048834916,-0.03552095,-0.0031713154,-0.15519948,0.016081294,-0.19233546,-0.04301135,0.32208902
Consolidate vars with coeff,-0.23137279,0.097874366,-0.0083311,0.1333172,-0.07768868,0.13950701,0.10042083,-0.2362788,-0.039071936,-0.091768414,0.16839935,0.06021539,0.00874449,-0.028773364,0.05299381,0.2758871,0.02725699,-0.117846675,0.08255822,0.046403028,-0.023007115,0.12965755,-0.46653444,-0.15925926,0.013080115,0.020952672,-0.03768479,0.21073289,0.006106214,0.11398147,-0.0972787,0.1203546,-0.20552142,0.11904023,-0.012203811,-0.10634438,0.012747048,-0.24588484,-0.20809019,0.0716485,-0.25184244,-0.09855195,-0.056172293,-0.10210562,0.120013215,-0.11870909,-0.06326246,0.14101885,0.029739147,-0.14693977
"Consolidate vars, any",-0.12790811,0.14242338,-0.05423386,-0.021224804,0.15180072,0.26225805,0.12717514,0.09488535,0.020911226,0.0074071568,0.09502656,-0.029249156,0.13356797,0.12232261,-0.06957685,0.30904147,-0.25637692,0.03562335,0.0254594,0.063181594,0.054178506,0.021307113,-0.0449364,0.22408758,0.12760788,-0.03300353,-0.03743126,0.05664212,-0.05533625,-0.048565447,-0.4151294,0.14803065,0.23815855,0.18871062,-0.07852695,-0.15893514,-0.082533464,0.008504377,-0.026505798,0.20450233,-0.00895178,-0.32924068,-0.09906131,0.05315377,0.1442425,-0.04602736,-0.11960847,0.12833916,0.0011858628,-0.0503755
"Consolidate vars, no coeff",-0.13504197,-0.14816543,0.05034743,0.18238522,-9.4542265e-05,0.27527115,0.3415155,-0.0078095184,-0.04150284,-0.012601413,-0.060332853,-0.12030642,-0.031698704,-0.026753753,-0.23828891,0.2576236,-0.15243408,-0.11929404,-0.10953037,0.053686496,-0.22282636,0.08666322,-0.12682427,-0.011994042,-0.0321761,0.017132746,0.018287625,0.28528926,-0.19490692,0.03261971,-0.045675494,0.119262904,-0.23668836,-0.099861495,0.09791367,-0.2709209,-0.08979177,-0.23636024,-0.08334531,-0.013239307,0.053441074,0.0061366064,-0.09226487,0.055650134,0.08170667,0.17186153,-0.09500877,-0.023595683,-0.19135477,-0.07468985
Construct square from area,0.32882518,-0.073155046,-0.19589867,0.1049126,0.13188663,0.053599928,0.22958589,-0.021190936,0.007728696,-0.012232897,0.054426655,0.029027387,0.027151905,-0.0068226694,0.0721632,-0.101826675,0.20651759,0.0644685,-0.11611015,0.021194817,0.294295,0.041229602,0.017939622,-0.22976093,0.14489174,-0.006952852,0.07890346,0.32344437,-0.0036238143,0.13073993,0.009268354,0.096681386,0.025734063,-0.2362381,-0.0029092457,0.16536565,-0.17838311,-0.015409667,0.011028056,-0.32038257,-0.102200836,-0.021937352,-0.11356068,-0.049822044,-0.010432537,-0.16363485,0.06971249,0.18879014,0.06435193,0.25744215
Construct square from side length,0.37140498,-0.08515297,-0.17405134,0.096515745,0.10490342,0.042363588,0.27313986,0.01916043,-0.01790329,-0.052111715,0.11495832,0.021851141,0.050590187,0.01770217,0.077226736,-0.070665434,0.16846831,0.05630983,-0.091721125,0.023384044,0.2564236,0.013272233,-0.0072616157,-0.23865752,0.15717827,0.035994224,0.036540173,0.3174449,-0.011586822,0.13656229,-0.031985607,0.08984874,0.045517605,-0.23765062,0.0009511916,0.17914149,-0.14000727,-0.027451715,-0.0017022149,-0.30738008,-0.11721142,-0.04234904,-0.12055254,-0.07355889,-0.043065574,-0.14035244,0.0822893,0.19800527,0.035488073,0.26015297
Convert across system,0.16618659,0.2562464,0.0076117357,-0.040692728,-0.031079644,-0.12774336,-0.20395759,-0.07958468,0.008957581,0.14570585,0.31480473,-0.06746894,0.0014213731,0.24109551,0.15942469,-0.27318114,-0.02942893,-0.18693355,0.08029192,-0.049928125,0.023949545,-0.13363168,-0.009938161,0.16419907,0.14690809,-0.14841793,0.12885292,0.106301166,-0.11575983,-0.14485738,0.06499636,-0.018095283,-0.15888041,-0.026998857,-0.035706423,-0.042217758,-0.17106889,-0.0020860436,-0.021279603,-0.045296304,-0.37450066,0.037025128,0.06560722,-0.091482624,0.08287999,0.05774664,0.053509757,-0.2588559,-0.075945824,0.23456936
Convert area units,-0.08493005,-0.20297189,0.13135679,-0.16653688,0.1496916,0.15976979,-0.25744393,0.17822888,0.18743947,-0.021105403,0.030317135,0.18985464,-0.13923112,-0.082244016,0.22092874,0.13531558,-0.141527,0.050008796,-0.13725738,-0.091098584,-0.039420392,-0.24135542,0.021915289,0.038816266,-0.08775022,0.06332997,-0.17336746,0.11150422,-0.010088308,-0.22086404,-0.006117842,0.14830405,0.14030749,0.0895057,-0.09386304,-0.039495073,0.12849642,-0.12955004,-0.14977573,-0.16359387,-0.21433859,0.27066317,-0.04100695,0.06687883,-0.01701368,0.08009595,-0.013861054,-0.037257325,0.08020799,-0.31241617
Convert decimal units greater than one,-0.12898394,0.061968226,-0.23679607,-0.14818652,-0.11059012,-0.06314597,0.021130122,-0.08387837,-0.31909296,0.25611055,-0.16393541,-0.06975242,0.03207854,-0.108108945,-0.103069685,0.020818722,0.018185034,-0.19706947,-0.10519001,-0.26881364,-0.003789878,0.30856338,0.0068773204,-0.30726305,-0.07326931,-0.13861641,-0.083243996,0.029920554,0.08183367,0.1590035,-0.11178473,-0.097229585,0.13036485,0.13051748,0.15531966,-0.077393256,-0.013254596,0.032522712,0.13166855,0.037615027,-0.017598085,-0.14848447,-0.02738143,-0.21792644,-0.121100776,-0.12654763,0.13224557,0.13619988,-0.08877261,0.16439493
Convert decimal units less than one,-0.10314926,-0.12423217,-0.06614193,-0.13098784,-0.06690986,-0.009325608,0.03747487,-0.13233848,-0.23964743,0.224466,0.02252337,-0.1301763,-0.09250888,-0.13527468,-0.15865661,0.028376222,0.24852738,-0.21629618,0.030906338,-0.16498792,0.009912521,0.36801326,0.023804305,-0.23111936,-0.12523507,-0.16869715,0.0032260434,-0.01570119,0.05776999,0.20567705,-0.027223216,-0.19238183,0.15441605,-0.014504988,0.25300798,-0.1451479,-0.08578109,0.021555265,0.10081271,0.13831213,-0.007818921,-0.14435203,-0.037110608,-0.15921918,-0.09225729,-0.13368438,0.12664199,0.08693042,-0.07701519,0.21676776
Convert integer units,0.018600872,0.049629476,-0.046745036,-0.31478465,-0.22216012,0.013032051,0.003185409,-0.109028585,-0.33853263,0.17717151,0.05180771,0.09559006,-0.108793646,-0.072377846,-0.08439578,0.013075635,0.15144983,-0.09836047,0.09817499,-0.24753155,-0.07375123,0.32053542,0.08679384,-0.13238966,-0.008177534,-0.08786082,0.06421417,-0.06378916,0.13831475,0.053729907,-0.14925307,-0.1378378,-0.025076484,0.15122423,0.28788593,0.025085354,0.08349044,-0.04920854,0.16786264,0.1705075,0.01097773,-0.15765803,-0.078878365,-0.15705463,-0.13139822,-0.21767533,0.08162336,0.047425356,-0.14436308,0.11117833
Convert large number units,0.043322206,0.13402261,-0.14916608,-0.014825788,-0.11519847,-0.050910175,0.02697687,-0.01243294,-0.13516143,0.015588211,-0.24101476,-0.06373747,0.17586665,0.047448944,-0.07896842,-0.021964144,0.103210546,-0.3425149,-0.11649818,0.1843378,0.24222031,0.14595515,-0.06584435,0.099852994,-0.017470706,0.11822931,-0.2285886,-0.09132159,-0.0019447093,0.1270759,0.123466134,-0.20241772,-0.034172807,-0.09291766,-0.14217222,-0.119158685,-0.14733097,0.11783051,0.14035016,-0.09082142,-0.110065944,-0.14299285,-0.060635053,-0.09052665,0.027684728,0.08431079,0.0785181,0.057689346,-0.07268245,0.47802225
Convert length units,-0.008102456,-0.17617756,0.11370693,-0.19610654,0.22753106,0.14022736,-0.23768431,0.14418454,0.120440185,0.039498717,0.047440033,0.16029356,-0.05889488,-0.17288418,0.2883303,0.1675663,-0.17458792,0.03927135,-0.14238824,-0.107396014,0.027771715,-0.1253081,-0.035148878,0.0081192115,0.002249678,0.051140003,-0.22997805,0.15202671,0.08068679,-0.12752725,0.03481392,0.12627858,0.13602416,-7.668442e-06,-0.13853131,-0.023567649,0.015858188,-0.22129045,-0.12953418,-0.17223336,-0.23868996,0.25085947,0.023230152,0.1536343,0.08051513,0.114958175,0.0151014,0.032937106,0.16787422,-0.22999467
Convert medium number units,-0.045267787,0.015084114,-0.070005916,0.07861274,-0.23340015,-0.20356815,-0.055360284,-0.071787916,-0.054196145,-0.011594507,-0.24505562,-0.07727308,0.17551172,0.040049456,-0.14043555,-0.012887006,0.12004764,-0.2681213,-0.007512745,0.15000722,0.21347001,0.12316429,-0.30140775,0.112561464,-0.11233401,0.07367702,-0.19538459,-0.119879,-0.08449161,0.04981449,0.054665204,-0.26650232,-0.01606947,0.032363877,-0.12078648,-0.27131552,0.0062954617,0.07278157,0.041449714,-0.120077044,-0.0895866,0.012604528,0.21148686,0.004208114,0.05944809,-0.104381464,-0.17538634,0.1427379,-0.11059812,0.30343267
Convert small number units,0.089101344,0.14189494,0.08887963,-0.011088213,-0.31447327,0.1030083,-0.03530256,-0.110993244,-0.06411177,-0.18918757,-0.10531617,-0.039719317,0.012504556,-0.048984475,-0.11795026,-0.024117548,0.28601125,-0.06723095,-0.17894095,0.12718964,0.20443815,0.0014306434,-0.015776157,0.19507281,-0.17968237,0.13205467,-0.13486454,0.010140746,-0.06851613,0.0070380904,0.22501233,-0.34924012,-0.08359878,0.13847034,0.00907833,-0.053036004,0.008851787,0.05454025,0.0028201255,-0.22860618,-0.13828158,-0.11275692,0.14993313,0.10446504,0.011447988,-0.08771915,-0.09653315,0.047322303,-0.13852654,0.35079017
Convert time units,0.17944695,-0.16034304,0.2624555,-0.18131383,0.20021637,0.14538334,-0.24406375,0.22654784,0.11349308,-0.067335576,0.13465163,0.18578286,-0.098362714,-0.10533179,0.14304177,-0.07021985,-0.06417165,0.0583999,0.093145,0.13908958,0.06838408,-0.23121946,0.13562615,0.090185195,0.13757609,0.25771025,-0.1704439,0.06293718,0.035433102,-0.24019182,0.082007475,0.093871705,0.0642711,0.06610252,-0.1696495,-0.08799675,-0.05251255,-0.11123193,0.049968876,0.005761042,-0.17421499,0.15864743,-0.009708733,0.08028906,0.06192609,0.25120416,0.14373632,-0.14907672,0.014899926,-0.06441332
"Convert unit, mixed",-0.060603756,-0.040452223,-0.060678236,0.0650708,0.017012099,0.063518964,0.22418894,-0.16736838,0.041993897,-0.06858837,0.028091358,-0.018215884,-0.09694561,0.09407798,-0.04590646,-0.2781725,0.02099036,0.10056911,-0.16669714,0.12796174,0.37310827,0.02601702,0.22274859,0.18031938,0.16041099,-0.010454074,-0.036203288,-0.010518597,-0.16259265,0.12017348,0.1597099,0.055234157,-0.05875333,0.14140002,0.12938185,-0.10250751,-0.16671391,0.12076192,-0.10313471,-0.22540122,-0.16178066,0.24006368,-0.07825534,0.049811844,-0.33565176,-0.02660793,0.045536816,-0.13017955,-0.17933396,-0.11809323
"Convert unit, multiplier",0.056649093,-0.04214762,0.38269523,0.14947876,0.12825897,-0.09791327,-0.0096984375,0.05121385,0.00791926,0.055953693,0.05934687,0.012670165,0.227283,0.051710963,-0.34647027,0.047014706,0.18732075,0.086406514,-0.011744495,-0.20115127,-0.09614285,-0.21550384,-0.29771906,-0.117489316,0.1813268,0.010102281,-0.09607976,0.08023812,-0.22128142,0.0005735217,-0.06012394,0.16486955,0.11675488,-0.08382219,0.12814681,-0.09652375,-0.13322186,0.03617626,0.041796535,-0.0037119882,-0.09576693,-0.026282178,0.009220768,-0.13003194,0.09386187,0.093761645,0.040788617,-0.22541103,0.12457807,0.2542491
"Convert unit, offset",-0.006038981,-0.07925283,0.0786486,-0.10662678,-0.018873636,-0.089413166,0.17371145,-0.07556238,-0.17014931,-0.2419165,-0.042619973,0.18619655,0.012571832,0.030744301,-0.031692777,-0.2160884,0.06856208,-0.13951254,0.2984047,-0.20155817,0.17622082,-0.09886659,0.16632387,-0.23114578,-0.09032436,0.002643869,-0.040276617,-0.10633483,-0.10977764,-0.013014459,0.1377281,0.07235093,-0.21485816,-0.04232522,-0.14914317,0.3093031,-0.2769731,0.017706087,-0.0318303,-0.022116972,0.16305345,-0.050892647,-0.060438488,0.044648875,0.09289143,0.23760407,0.16649103,-0.20119055,0.10584102,0.04637442
"Convert unit, standard",0.12262302,-0.33220696,0.002365564,-0.1531558,0.0007989615,-0.08410281,0.07570027,0.1008367,0.07287615,-0.072812565,0.15457295,0.07501098,0.02642202,0.22618052,0.18241075,-0.26781392,-0.08301395,0.022191627,-0.16617346,-0.09135637,0.385251,0.07525721,0.16785121,0.14119178,0.11312608,0.09938147,-0.12431277,0.028431825,0.19804183,0.15075655,0.008159111,-0.10817145,0.106532454,0.10294163,0.13587177,-0.13143857,-0.06278674,0.23037775,0.111311525,-0.13778873,0.04801036,0.016583212,0.18312044,-0.13825388,-0.1595283,0.021936005,0.16317251,-0.082257,-0.085198306,0.07149623
Convert volume units,-0.08421083,-0.24594428,0.14257757,-0.15074867,0.19067582,0.15946293,-0.30753618,0.1731892,0.17943092,0.025688166,0.03436301,0.16078597,-0.17604235,-0.0892216,0.20521358,0.12398413,-0.089365706,0.009602806,-0.14729941,-0.030561011,0.021092506,-0.19132522,0.055164337,0.03088827,-0.073739655,0.06116967,-0.19233124,0.12187869,-0.036392197,-0.15246913,0.051407136,0.13433716,0.21066442,-0.0023667854,-0.110360354,-0.06485136,0.099273175,-0.12528586,-0.12330322,-0.124267966,-0.25535795,0.30047053,-0.049577475,0.059420273,-0.0063103447,0.13306308,0.013562269,-0.031592265,0.09016652,-0.25126955
Convert weight units,-0.020601967,-0.19245955,0.10753545,-0.20268922,0.26652166,0.14457461,-0.27009174,0.1804885,0.17472216,-0.015812915,0.033310045,0.12261686,-0.07615255,-0.12647352,0.2170256,0.09357551,-0.17186637,0.036166087,-0.13472313,-0.06100507,0.052397437,-0.2016121,0.0755748,-0.003835848,-0.0060791275,0.1269396,-0.22226207,0.13125372,-0.021975,-0.20153207,0.056024805,0.07897418,0.1492921,0.030658249,-0.15404265,-0.08679142,-0.008888158,-0.1823929,-0.13555342,-0.13411179,-0.23624581,0.2458677,0.021284375,0.10532612,0.0077199605,0.16779909,0.043738857,-0.037533212,0.14737529,-0.21794479
Convert within system,-0.0527145,0.20000936,-0.09159185,0.041917946,-0.07862411,0.06624776,-0.1471678,-0.10816442,-0.08990132,-0.026145583,0.20214573,0.065547496,-0.14448623,0.09031551,0.27123967,-0.03633125,0.006548644,0.027681114,0.13234264,-0.099372454,-0.059387434,-0.18528448,-0.17930378,0.05530593,-0.013192889,0.09406983,0.16469647,-0.040082328,0.035660066,-0.13741651,0.16227697,-0.27513123,-0.2695997,-0.0056744665,0.048619986,-0.1642105,-0.14375463,0.20759755,0.05360417,0.008434764,-0.20927157,-0.18796946,0.08351217,-0.2705658,0.20351474,-0.0908265,0.046151616,-0.22852391,-0.075560965,0.21517216
Correctly placing points,-0.120477125,-0.08413909,-0.048170242,-0.11812511,-0.17000063,-0.22338928,0.1286106,-0.08245103,-0.026000362,0.072771996,0.099778466,-0.0033231885,0.013591483,0.2997969,0.12608348,-0.30049136,-0.030893488,0.07251926,-0.03993587,0.04019435,0.3532712,0.015754173,0.3029217,0.07447622,-0.0009091954,-0.14602253,-0.14386196,0.03639131,0.02178978,0.04202197,0.031977307,0.1196748,-0.06622758,0.17501535,-0.006825366,0.15956494,-0.2392846,-0.11653837,-0.26442322,-0.057910696,0.006749042,0.053333733,0.022296704,0.029828783,-0.0932985,-0.21462885,0.20577765,-0.21438488,0.013965455,-0.053883184
Cterm-Expression-Gla:Student-Modeling-Analysis,0.37143856,-0.11829878,0.069924854,-0.07417907,-0.025147358,-0.11718428,-0.214587,-0.06968502,-0.06361171,-0.015060476,0.06707041,0.073709086,-0.2785113,-0.11665503,0.093380965,0.085067235,-0.14808945,-0.10204572,-0.062120836,0.14289151,-0.16883117,0.14863664,0.14405066,0.055765804,-0.041289285,0.13663436,0.19758835,0.030643458,-0.34748748,0.049819127,-0.09632863,0.09337805,-0.16730534,-0.061403558,-0.03634048,0.14575064,-0.1233631,-0.048372477,-0.070975296,-0.23442619,0.24108806,-0.10766063,0.10337265,0.0031132698,-0.063253716,-0.18128426,-0.016170345,0.05565196,0.25640357,-0.011289598
Define Variable,0.078530364,-0.123889014,-0.009220558,-0.010905624,0.012513081,-0.13746765,0.14132784,-0.073430076,0.26195687,0.024499018,0.08587917,0.1287769,0.20563403,-0.03327754,-0.10704137,0.008256096,0.013372175,0.0783886,0.045647535,0.09640357,0.048178524,-0.1790599,0.2141991,0.22998925,-0.05524996,-0.07697552,0.2261483,0.003187631,-0.029982558,0.2774941,0.17404506,0.0703182,0.16661924,-0.069290146,0.19479182,0.0020802282,-0.17647533,-0.0325365,0.053735152,0.20859484,0.17917767,0.014433325,0.20732963,0.14048845,-0.08631766,-0.045551494,0.38007462,-0.024951717,-0.092293,0.23315388
Describe-Cterm-Gla:Student-Modeling-Analysis,0.35374928,-0.122810744,0.09115569,-0.040082462,0.00397359,-0.17692178,-0.27766624,-0.046080276,-0.08182669,-0.047585204,0.06504139,0.07116756,-0.26607132,-0.099787265,0.09667054,0.107360184,-0.110147186,-0.1629466,-0.038389895,0.15248886,-0.16886663,0.10883604,0.0871604,0.026047157,0.0165551,0.1833165,0.16067864,0.10549543,-0.3271833,0.029709717,-0.060672395,0.14952849,-0.2537844,-0.08769477,0.024838844,0.117150046,-0.103366725,-0.05449139,-0.07923027,-0.17130482,0.21400571,-0.09330281,0.035823476,-0.047117416,-0.09566876,-0.12727505,0.029761491,0.08400335,0.2726377,0.03541653
Describe-Product-Gla:Student-Modeling-Analysis,0.32643503,-0.12603743,0.16275021,-0.055725925,-0.068634376,-0.11776278,-0.253498,-0.012183697,-0.14630741,-0.04970287,0.22809483,-0.08191711,-0.32046333,-0.066003054,0.12622984,0.06813435,-0.13514106,-0.09587006,-0.046366207,0.1512709,-0.19467787,0.19808309,0.18732473,0.11964321,0.0135637075,0.17130013,0.17518154,0.07389386,-0.16754818,0.08300437,-0.14732634,0.09668228,-0.1526263,0.00036742617,-0.055642042,0.08815481,-0.0718102,-0.03283039,-0.03823202,-0.095986925,0.25390375,-0.06905504,0.16384983,0.0006875105,-0.19819555,-0.07621171,-0.0060517816,-0.081286706,0.19894174,-0.07445712
Describe-Proportional-Constant-Gla:Student-Modeling-Analysis,0.41080618,-0.0857982,0.04759788,-0.021972878,-0.0265573,-0.043450136,-0.21425842,-0.07823968,-0.08191055,-0.029242394,0.037321333,0.06424047,-0.2065849,-0.05559716,0.10922139,0.0022332845,-0.1605383,-0.093155384,0.010876763,0.08671609,-0.0640237,0.19320486,0.09264388,0.11134902,-0.07072561,0.1498079,0.16439056,0.01555668,-0.33573696,0.07628504,-0.09299825,0.030773293,-0.16996504,-0.14267902,-0.091542475,0.120565325,-0.09480447,-0.11993579,-0.138579,-0.28026202,0.28773,-0.15094827,0.027825583,0.08482593,-0.0022741624,-0.17222638,-0.08681758,0.090073474,0.23708633,-0.0047262115
Describe-Sum-Gla:Student-Modeling-Analysis,0.37148243,-0.09957659,0.10990966,-0.08028254,-0.07687508,-0.11664691,-0.25392756,-0.027042005,-0.1465973,-0.05621237,0.13748644,0.007620998,-0.3084801,-0.04877193,0.08897678,0.04969038,-0.16601337,-0.08586972,-0.019482518,0.17797282,-0.15185331,0.16515647,0.18568008,0.11277329,0.0066013588,0.15427653,0.18749632,0.098899454,-0.20704171,0.10732844,-0.080953546,0.13406491,-0.16196452,-0.008767685,-0.07327156,0.15932274,-0.11376955,-0.066088684,-0.08768232,-0.15836224,0.21058753,-0.056280978,0.13452683,-0.022368077,-0.20359682,-0.12968872,0.05965967,-0.06089772,0.20927155,-0.04999413
Describe-Variable-Gla:Student-Modeling-Analysis,0.33888724,-0.08320926,0.10556273,-0.030411791,-0.02082064,-0.13935912,-0.23590097,-0.08294913,-0.14803009,-0.00773599,0.06576734,0.047159474,-0.27921635,-0.10340199,0.08686173,0.042066015,-0.08746328,-0.10167474,-0.04229107,0.097358435,-0.08797204,0.16834186,0.09055638,0.09976372,-0.009051136,0.19591229,0.10050595,0.08286301,-0.34503207,0.10565343,-0.07853888,0.04812253,-0.20879939,-0.07000788,-0.0625054,0.14505377,-0.12218214,-0.09924473,-0.08996381,-0.2629675,0.26958427,-0.11095238,0.09891396,0.03640043,-0.12984805,-0.16003284,-0.032681603,0.076161645,0.24227525,-0.008724592
Determine that data value does make sense,-0.050009336,-0.033514634,-0.07758001,-0.0746723,-0.16540737,-0.19335938,-0.036281575,0.058020193,0.24454585,0.06898722,-0.21072279,-0.05017831,-0.025166221,-0.3001739,0.07542701,0.15154648,-0.030476406,-0.0699454,0.18561919,-0.2384667,-0.25621155,-0.24521482,-0.17316079,0.06348274,0.17108399,-0.059011526,-0.052650236,-0.03894923,-0.29800215,-0.12839578,-0.072973974,-0.05141166,0.13185862,-0.009995743,-0.096631765,-0.19699642,0.15170825,-0.06471843,0.007942617,0.13318206,0.13096267,-0.0886555,0.32441214,0.14738303,0.03159395,-0.025504097,0.0011516967,0.051165905,-0.0853592,-0.055459134
Determine that data value does not make sense - above range,-0.06650606,-0.061545055,-0.089917004,-0.07166766,-0.16863066,-0.1541935,-0.060268898,0.06635063,0.2438765,0.03246561,-0.20800261,-0.06165577,0.025728712,-0.31131762,0.049075715,0.19889706,0.012022178,-0.06567006,0.16460814,-0.2429683,-0.21514226,-0.26127458,-0.22545546,0.082252026,0.11061025,-0.05873601,-0.04732054,-0.023719184,-0.27859244,-0.10034064,-0.08932519,-3.0713134e-05,0.09895304,0.0245299,-0.11956368,-0.20851417,0.13636968,-0.09956074,-0.049103208,0.1557495,0.09065675,-0.05566597,0.30960205,0.1951483,-0.0075779157,-0.028732676,0.013747611,0.09386076,-0.077393875,-0.09912309
Determine that data value does not make sense - below range,-0.078866445,-0.04720678,-0.097730875,-0.05574631,-0.14644401,-0.17884953,0.004157782,0.07299995,0.20757993,0.082969844,-0.15203534,-0.053565554,0.06205083,-0.37056315,0.044857986,0.17612422,-0.03319533,-0.091809295,0.20783077,-0.23661429,-0.17191802,-0.27757353,-0.19099867,0.098755285,0.11773762,-0.036001585,-0.058649536,-0.059368163,-0.31135836,-0.08400456,-0.061003413,0.010129394,0.12641403,0.026674999,-0.101657785,-0.16444384,0.14703412,-0.08261022,0.013118658,0.17460443,0.07607762,-0.017921284,0.32727408,0.16177276,0.04062786,-0.06743123,0.042306837,0.09841794,-0.059231676,-0.06871902
Determine that mean does make sense,-0.05076908,-0.019045165,-0.08495021,-0.050088294,-0.19386262,-0.17511907,-0.026757764,0.048823465,0.2554708,0.052705854,-0.21804442,-0.050802145,-0.039467104,-0.31923598,0.07595662,0.14173326,-0.058855906,-0.060719676,0.21155342,-0.22445974,-0.23748116,-0.22051996,-0.15301834,0.068541564,0.15489969,-0.07685106,-0.07295731,-0.036987435,-0.28596264,-0.13749036,-0.07384657,-0.044832494,0.15055229,0.010666217,-0.11235287,-0.2027043,0.15847264,-0.059634436,0.01203497,0.14571162,0.105549574,-0.08234149,0.33567715,0.12680665,0.026113663,-0.029478963,0.0361026,0.048720106,-0.086400375,-0.04919549
Determine that mean does not make sense - above range,-0.074692465,-0.06636483,-0.10899439,-0.069454566,-0.15486588,-0.16524485,-0.074286506,0.09065348,0.2559608,0.03570281,-0.23124988,-0.052680578,0.024410805,-0.31717277,0.06571077,0.19571789,0.0066073867,-0.06147154,0.15169063,-0.23996136,-0.21237664,-0.22453961,-0.2328298,0.10347207,0.11401952,-0.049958747,-0.056974836,-0.010272109,-0.27592427,-0.08366874,-0.108424254,0.011832165,0.07151523,0.0010831594,-0.12967291,-0.21949147,0.1365287,-0.11313802,-0.051063787,0.14662392,0.08826227,-0.0564982,0.3054508,0.16862626,-0.00077821745,-0.0481293,0.035337046,0.109703615,-0.059007388,-0.07241149
Determine that mean does not make sense - below range,-0.0865039,-0.06539144,-0.09806624,-0.033643093,-0.14048664,-0.18206508,-0.013427009,0.079365864,0.22329396,0.07362978,-0.21059418,-0.046825916,0.045010764,-0.36272302,0.039912086,0.17733325,-0.024084438,-0.08279172,0.16511485,-0.23573156,-0.19108596,-0.2590511,-0.22001168,0.08240572,0.11704114,-0.05648864,-0.044086404,-0.0675837,-0.30556026,-0.10305437,-0.07574537,0.0044171647,0.12592503,-0.010941582,-0.12536818,-0.17491527,0.15392967,-0.06600901,-0.001304263,0.15645382,0.105301455,-0.0104255285,0.30598012,0.15540159,0.044552494,-0.051303487,0.04196969,0.09421681,-0.054555196,-0.07361532
Distribute,0.084881775,-0.012455102,-0.05975932,-0.029331623,0.32847577,-0.3260429,-0.027193349,0.20476595,0.091409884,-0.057846993,0.11953303,-0.21150492,0.17203765,0.04121967,-0.1580609,0.07190324,-0.03180583,0.2593986,0.042482954,0.08939182,-0.36384788,0.11226633,-0.27094784,-0.11340092,0.07573923,0.2914078,0.15768424,0.0985548,-0.061618906,-0.13048601,-0.070134446,-0.080528185,0.05045155,0.048222203,0.0011732515,-0.13090897,0.03760451,0.17993197,-0.13140242,-0.017396078,0.00047908095,0.070251495,0.07571861,-0.14894584,-0.07708286,0.034930654,-0.021429596,0.050547376,-0.017657464,0.12506048
Do Combine Terms - Whole,-0.19735184,0.059695963,0.095129766,-0.094806336,0.091975875,0.057118595,0.11551209,0.07098827,-0.24638882,-0.18382736,-0.09536567,0.09276075,0.15125461,0.08418195,-0.18523914,0.18108724,0.03394104,0.079066135,0.03736703,0.11352061,0.038371764,0.04011497,-0.07421071,-0.3141032,0.04355279,-0.13931258,-0.24802779,0.1321464,0.067081474,0.027131753,0.061361585,0.15385284,-0.48925194,-0.16008641,0.10471215,-0.042792577,-0.04441542,-0.045568604,-0.039426133,-0.033979435,-0.09886054,0.053508032,0.23687956,0.10909974,0.050096393,-0.04905558,0.0035694002,-0.07558766,0.05108918,-0.24439731
Do Eliminate Parens - whole,-0.031170752,0.16713592,0.1612455,-0.035586413,-0.19748355,-0.01764149,0.18510704,-0.070790894,-0.14578438,-0.11817309,0.124184154,0.01141476,-0.08344441,-0.07713684,-0.12986127,-0.23539834,-0.11594909,0.08891385,0.048532337,0.1294386,0.08712823,-0.0033622338,0.26204553,0.3914357,0.0006349349,-0.21360286,-0.051975213,-0.14580789,0.21550287,0.103160806,0.1047535,-0.10880726,0.06449476,0.23485348,0.07624222,0.16434826,0.08451978,0.102071494,0.079117805,0.11019635,-0.05967381,0.13359375,0.06512293,0.20208962,-0.08199746,0.020396078,0.11111692,-0.021591114,-0.21965012,-0.21691683
Do Multiply - Whole (typein-expression-2),0.034367282,0.18365493,0.044806626,-0.044075508,-0.07654272,-0.09932236,0.15438582,0.08350384,-0.045114968,-0.13671346,-0.092112996,0.114742346,-0.20545512,-0.18505539,-0.099026315,-0.31106892,-0.2587108,0.07751051,-0.007409635,0.10407457,0.024632424,-0.07355845,0.13069603,0.34315148,-0.08697467,-0.19600883,-0.06337003,-0.21989469,0.2175287,0.044404548,0.009635888,-0.0990039,0.06303198,-0.019953039,0.29974824,0.26612607,-0.054986745,0.12229183,-0.014009581,0.14182107,0.04909229,0.13475473,-0.0202897,0.10925231,0.0022567248,0.06640634,0.07776315,-0.093028076,-0.120707214,-0.19249153
Do Multiply - Whole nested,0.14539939,0.22772548,-0.003236827,0.018353283,-0.14901154,0.007686122,-0.039297123,-0.21063095,-0.19732708,-0.1185477,0.0105433855,-0.017882848,-0.06664837,-0.01308356,-0.09343622,-0.27414018,0.020434765,0.027407939,-0.011382464,0.09736652,0.17478098,-0.07021905,0.37206775,0.19090329,0.08110038,0.033972826,0.11065312,-0.030947238,0.11198649,0.054482166,0.017640317,0.11620809,0.3550923,0.1142471,0.11177322,0.23279779,0.1599141,0.1502447,0.11504856,-0.030471014,-0.1445303,-0.031118883,0.15158632,0.10831191,-0.19402295,-0.08337027,0.023166062,-0.050365973,-0.26803997,0.030712692
Done?,-0.012857002,-0.14961372,-0.26117033,0.1756105,-0.14776224,0.15513448,0.16628247,0.13929106,0.00540876,0.177856,0.010719475,-0.17004402,0.20058556,-0.043223068,-0.031859305,0.0075061214,-0.1689245,0.035858806,0.001133153,0.25741053,0.13283773,0.08271051,-0.1197093,0.1777593,-0.17658783,0.046785325,-0.03794022,-0.14040774,-0.008180838,0.071708485,-0.11298317,-0.065342784,-0.069858015,-0.109771155,-0.10629624,-0.11178581,0.048878454,-0.1373526,-0.101216175,-0.12619957,0.15542652,-0.118158,-0.019449791,0.28856423,-0.070213124,-0.100416146,-0.08735805,0.36076924,0.21664834,-0.16929932
Edit Algebraic a in A problem,-0.080239736,-0.08932803,0.009043124,-0.07321496,0.008703316,-0.016894465,-0.015897881,-0.13266899,0.05227724,-0.04631739,-0.2930054,-0.014684279,-0.046216883,-0.07565481,0.0271715,0.2164768,-0.070846625,-0.059096113,-0.09792082,-0.13630794,0.0044733603,-0.016132027,-0.12430585,-0.23378819,0.12692417,0.30337563,0.005159732,0.042878594,0.06536002,-0.0034695116,-0.14331096,0.1815635,-0.08291874,-0.18496789,0.13625553,-0.14362538,-0.24555476,-0.013700833,-0.0386129,-0.3500061,0.038388006,-0.077468686,0.044384122,-0.21484007,-0.072436266,-0.2693236,0.22107448,0.23405406,0.19570076,0.02346519
Edit Algebraic a in G problem,-0.074715346,-0.07813355,0.012981313,-0.068098806,0.009769177,-0.020936364,0.004036567,-0.14471757,0.024511896,-0.02437099,-0.28635347,-0.009502977,-0.040321887,-0.06974603,0.040640716,0.20683181,-0.055288285,-0.06950129,-0.11491885,-0.12969893,0.01927724,-0.0148146385,-0.103563644,-0.22645773,0.13570207,0.31668162,-0.008336093,0.041028127,0.068894684,-0.0076160342,-0.119746566,0.18242618,-0.09128039,-0.15932056,0.14305091,-0.1395085,-0.24840781,0.0025796716,-0.045323275,-0.3678678,0.03764905,-0.07554586,0.038075425,-0.21818683,-0.07554186,-0.27117926,0.23972842,0.23427527,0.18077663,0.03493946
Edit Algebraic a in N problem,-0.115043506,-0.03604894,-0.008481023,-0.08289745,-0.083598934,-0.043038048,0.057507712,-0.19271374,0.033810604,-0.08760101,-0.25872794,-0.023054048,-0.073990315,-0.06460268,0.0029874018,0.19623798,-0.18380602,-0.01976956,-0.06286359,-0.10724112,0.013041568,0.019592997,0.03637463,-0.13496347,0.08229082,0.27399394,-0.03409332,0.03215203,0.18937871,0.017703837,-0.19018517,0.13666809,-0.09073389,-0.17998074,0.07806104,-0.22147217,-0.28309134,0.010786968,-0.032627106,-0.3541201,0.030445907,-0.072613135,0.032204892,-0.23920834,-0.12014619,-0.1845346,0.20553778,0.26287353,0.17556323,-0.048832793
Edit Algebraic a in V problem,-0.09230908,-0.07849722,-0.011721641,-0.072833724,-0.0011235286,-0.0078599155,-0.013813678,-0.14003998,0.040637027,-0.041230284,-0.30266815,-0.010991498,-0.020071736,-0.08616818,0.019545566,0.21135543,-0.06067484,-0.03631889,-0.10458285,-0.12645477,0.0116222445,-0.0115317805,-0.08737028,-0.21751839,0.13744558,0.2883005,0.010255847,0.044477236,0.060071405,0.006285735,-0.14123014,0.17055967,-0.116497084,-0.16912003,0.13405533,-0.15835041,-0.25990754,-0.004266815,-0.05626185,-0.355074,0.041253347,-0.061393235,0.046590462,-0.21690932,-0.0827484,-0.27487713,0.22254872,0.2539583,0.18181273,0.043830484
Edit Algebraic h in A problem,-0.08118697,-0.06707123,-0.031599432,-0.079196945,-0.017909942,-0.013464359,0.10488074,-0.19605792,0.039945025,-0.075357914,-0.25943726,-0.018748576,-0.037341624,-0.060312912,0.062466238,0.233431,-0.1460985,-0.037803397,-0.018156907,-0.10670778,-0.004432223,0.00054582185,0.08320574,-0.17299503,0.03606647,0.25824288,-0.037100993,0.0868356,0.13872318,0.021181649,-0.11203737,0.15113907,-0.17140538,-0.18581459,0.079707,-0.26597008,-0.26476118,-0.0009271462,-0.03053382,-0.3638522,0.0048300335,-0.03254518,0.032230105,-0.1614284,-0.042495172,-0.20426269,0.2729546,0.27326733,0.15600984,0.01836302
Edit Algebraic h in G problem,-0.08569759,-0.04465879,-0.03234802,-0.08524617,-0.03102413,-0.017748041,0.10218432,-0.20815226,0.04838667,-0.08135228,-0.25444263,-0.0123437205,-0.016433695,-0.076067634,0.05819303,0.22925113,-0.15253791,-0.018001964,-0.028125936,-0.05995731,0.048751026,-0.0020089915,0.090773344,-0.14698228,0.045854077,0.25932744,-0.040665355,0.067015536,0.18290319,0.022846121,-0.107253626,0.17465761,-0.1393434,-0.17247121,0.10839563,-0.24791999,-0.2916126,0.008843337,-0.007909153,-0.37267005,0.022569276,-0.03499593,0.046647996,-0.16138811,-0.095566034,-0.22735326,0.2427579,0.25339893,0.13925262,-0.0038629188
Edit Algebraic h in N problem,-0.108380795,-0.044697907,-0.005565466,-0.09196037,-0.10344364,-0.025632694,0.074800774,-0.19808951,0.036091387,-0.13108121,-0.26973817,-0.021380814,-0.10613735,-0.008419463,-0.009247297,0.20325589,-0.21938816,0.0020239723,-0.010159431,-0.0751419,-0.0014903292,0.03816781,0.09925289,-0.081632055,0.067238845,0.25618833,-0.03199884,0.0421253,0.24147809,0.01646185,-0.17538029,0.10464212,-0.07405956,-0.16686739,0.0725476,-0.225915,-0.30500022,-0.027552152,-0.024206305,-0.32913333,0.040084913,-0.086066306,0.039220523,-0.18437518,-0.112769306,-0.18942638,0.21919946,0.273575,0.13828182,-0.067455806
Edit Algebraic h in V problem,-0.06592955,-0.050916985,-0.019395165,-0.028851911,-0.026848376,-0.036798794,0.091806106,-0.18954748,0.017564623,-0.15642676,-0.25149193,-0.07601586,-0.03279056,-0.07127528,0.021136042,0.21907708,-0.16916186,-0.011783675,-0.010549219,-0.0860599,0.030176131,0.0048397854,0.0939578,-0.11651466,0.057497527,0.27754945,-0.06952659,0.049496662,0.19326317,0.039727528,-0.113184184,0.15173818,-0.17646702,-0.16591577,0.11521583,-0.2786368,-0.2651151,-0.048240963,-0.063959025,-0.33456558,-0.0113073485,-0.021659838,0.07386871,-0.17633694,-0.056624327,-0.22527121,0.22402716,0.27115506,0.14694726,0.019831387
Edit Algebraic k in A problem,-0.04649691,-0.124086134,0.043784373,0.009316563,-0.056285515,-0.12978517,-0.13927682,-0.18556838,-0.046203367,-0.080562286,-0.012754036,-0.26213044,-0.14144525,-0.13034095,-0.06572397,-0.009884377,-0.14820716,-0.04841429,-0.13866587,-0.15635316,0.09049269,-0.014864056,-0.14849651,-0.13027707,0.122655556,0.19618185,-0.16273907,0.110561274,0.22116812,0.18932237,-0.044554424,0.1917693,-0.17351064,0.056465205,0.100622974,-0.24927896,-0.1562677,0.036324568,0.09381265,-0.18928757,0.011470695,0.12700438,-0.058750097,-0.21571276,-0.24144462,-0.17652974,0.13422365,0.04038028,0.32401872,-0.015342716
Edit Algebraic k in G problem,-0.089895666,-0.17056586,0.04725033,0.03260322,-0.011810671,-0.1094723,-0.13897857,-0.12495634,-0.008110644,-0.036460258,-0.06415152,-0.22936824,-0.09528469,-0.1715506,-0.0528777,0.03839308,-0.102938555,-0.083051406,-0.16938525,-0.13114446,0.10874306,-0.014844848,-0.20793234,-0.22037655,0.07943291,0.21503256,-0.15051098,0.0834357,0.13225423,0.14980744,-0.077762306,0.21705867,-0.17174809,-0.0068917354,0.06859017,-0.2436416,-0.13290523,0.06537041,0.10328107,-0.21825396,0.016643556,0.07070204,-0.064129,-0.24112533,-0.21643601,-0.1901497,0.13960734,0.08305741,0.34390905,0.0067628725
Edit Algebraic k in N problem,-0.09830713,-0.036556993,0.015164029,-0.03584338,-0.14509413,-0.051191866,0.054347616,-0.19398658,0.012132869,-0.089179985,-0.2787059,0.0035718807,-0.05679417,-0.032459047,0.032462478,0.21535794,-0.17018731,-0.04256929,-0.059379056,-0.07260662,0.029679233,-0.00042569183,0.03468262,-0.16611607,0.043930896,0.2719416,-0.0064113964,0.0702237,0.18906516,0.03238249,-0.1614918,0.15563978,-0.078030445,-0.16975941,0.06575752,-0.21755749,-0.28922117,0.018888611,-0.01014942,-0.3382013,0.025023637,-0.109338604,0.030803729,-0.20668629,-0.11571333,-0.17510174,0.2110554,0.3082336,0.15091506,-0.029031493
Edit Algebraic k in V problem,-0.07930837,-0.14644091,0.02026381,-0.015178568,-0.024992853,-0.09767805,-0.058017176,-0.15525849,-0.017665038,-0.03525643,-0.12479416,-0.18471634,-0.07782784,-0.120653905,-0.03929535,0.08725777,-0.09345365,-0.084101394,-0.14655443,-0.16845581,0.08843183,-0.029822292,-0.2089489,-0.23099177,0.11965554,0.2719982,-0.11444353,0.06818966,0.12718362,0.11071139,-0.09269369,0.19858804,-0.1639149,-0.06901537,0.09095534,-0.2522654,-0.18154585,0.0325471,0.04826452,-0.28106108,0.01874711,0.08066548,-0.045811355,-0.22393762,-0.15010773,-0.20514494,0.1579493,0.12553811,0.34012488,0.008260524
Edit Algebraic refl-v in A problem,-0.087788306,-0.0935757,0.008222865,-0.0758238,0.017894583,0.0054983306,-0.03688078,-0.13180794,0.050650496,-0.034742508,-0.28625435,-0.03252022,-0.044080082,-0.08615221,0.033257116,0.22417396,-0.06746642,-0.06717439,-0.10918643,-0.14502643,0.004288836,-0.0032584195,-0.102467366,-0.21152715,0.12755884,0.29668987,0.005817613,0.053058226,0.057501707,-0.0010077319,-0.13782181,0.18493284,-0.11145409,-0.17963195,0.13814196,-0.15571879,-0.24979919,-0.003775233,-0.03055293,-0.35401362,0.024418639,-0.07351519,0.046393923,-0.22270527,-0.07850959,-0.26286903,0.22591673,0.22477347,0.19561446,0.025794774
Edit Algebraic refl-v in G problem,-0.069329664,-0.09233318,0.009958123,-0.07491151,0.011395515,-0.02108681,-0.007166977,-0.15319574,0.03236225,-0.03915356,-0.2865932,-0.0041262535,-0.040844455,-0.07011526,0.03460733,0.20196794,-0.058085527,-0.06765915,-0.11919635,-0.112332106,0.02597248,-0.015032552,-0.09954715,-0.21651064,0.15209126,0.30444065,-0.007722156,0.036806468,0.085904665,0.0081466455,-0.11775139,0.18982835,-0.079317704,-0.16407174,0.15194164,-0.12574996,-0.26486805,-0.0063358145,-0.049565688,-0.36411566,0.045628473,-0.079938464,0.055575904,-0.21952435,-0.0774349,-0.27251002,0.23109168,0.23784032,0.17053027,0.010529283
Edit Algebraic refl-v in N problem,-0.07742578,0.00036942703,-0.0038520196,-0.1315759,-0.10433746,-0.032581225,0.036534116,-0.16081913,0.06360642,-0.11411052,-0.26406676,-0.02288785,-0.08593867,-0.057064347,0.032612264,0.15847184,-0.20274334,-0.0005038387,-0.058640536,-0.096409746,-0.0006406697,0.06995916,0.086611256,-0.09240233,0.05977969,0.26033524,-0.03878474,0.02851201,0.2535905,0.030499745,-0.18669207,0.11778074,-0.09187694,-0.1491562,0.08555603,-0.2175531,-0.29881763,-0.013427911,-0.019083662,-0.36032867,0.06641488,-0.077359766,0.041376766,-0.2121966,-0.12433218,-0.21188809,0.20280562,0.25389087,0.14186515,-0.052642014
Edit Algebraic refl-v in V problem,-0.076770805,-0.05917054,-0.020245926,-0.0994443,-0.005214306,-0.0006387143,0.01975425,-0.15028845,0.021311129,-0.06790082,-0.29402092,-0.015522915,-0.03975887,-0.06902112,0.032402538,0.21288414,-0.08147455,-0.044328697,-0.0870379,-0.11777473,0.015868789,5.578674e-05,-0.066229366,-0.20329885,0.12426141,0.30311036,0.010292016,0.03215687,0.089626774,0.012016031,-0.13966711,0.16316006,-0.12077426,-0.16964877,0.13664709,-0.14408976,-0.2635528,0.0026079905,-0.062664844,-0.36510882,0.03896647,-0.06605237,0.045737993,-0.21775776,-0.08495094,-0.2775317,0.23661122,0.25334245,0.15340556,0.03493717
Eliminate Parens,-0.088135324,-0.20656955,0.11158833,-0.06798622,-0.047114443,-0.20298626,0.054979768,0.24983416,0.0011605452,0.13985665,0.060033713,0.02482782,0.23508763,-0.14159647,-0.16895235,0.16884293,-0.035728574,-0.022212071,0.0195799,0.16354975,-0.27817097,0.00663379,-0.27265587,0.13968164,0.08983368,0.3275141,-0.06728566,-0.2151165,0.14060298,-0.054028794,-0.10395724,-0.12453565,0.019529006,-0.041166782,0.0080067795,0.019646846,0.3486783,0.12734735,0.06302291,0.03992543,0.1272756,0.084846385,-0.0072986726,-0.009651037,0.10464717,0.092771485,0.0071128127,0.20526017,-0.11472353,0.08844317
Enter Calculated value of rate,-0.06659367,0.123228855,-0.093419,-0.22239955,-0.13438283,-0.0036920747,0.0020840631,0.09066348,-0.03470542,0.099392,-0.021545572,-0.21753764,-0.06971231,-0.093102984,0.14258961,-0.03990214,-0.03734055,0.1555875,0.046421356,-0.28523874,-0.044426527,-0.13545269,0.037754133,0.022221064,-0.06246986,0.040781796,0.06752973,-0.2093396,-0.27420467,0.1760728,0.045337357,-0.011133055,0.034587022,0.042771988,0.020709159,-0.063114315,0.21957147,-0.16378799,0.052301753,0.112989664,0.077295415,-0.15964448,-0.25943878,0.43741873,0.12349336,0.0830252,0.25812975,-0.11780388,-0.09195962,0.09329668
Enter Calculated value of ratio,-0.11023042,0.19462878,-0.1356738,-0.03519331,0.08855937,-0.0021143176,0.028959878,0.05084786,-0.05090914,0.082343936,-0.05839287,-0.21856357,-0.068303965,-0.19535299,0.34728792,-0.016268315,0.034678634,-0.07178383,0.057046767,-0.34537184,0.0030865532,0.01785366,-0.1006312,0.038835123,0.051388018,0.0670647,-0.06655768,-0.07247613,-0.09357453,0.08722859,0.036045805,-0.10488613,-0.18705484,0.095283814,0.036570486,-0.02011467,0.28497797,0.051914062,0.13952377,0.04593585,0.061128244,-0.0051034507,-0.27915546,0.40342715,0.22090067,0.10979512,0.13675074,-0.0812372,-0.15834299,-0.03863577
Enter compound probability,0.15099418,0.08643843,0.13544501,-0.19593462,-0.06686953,0.003211526,0.18386228,0.27970386,-0.1563127,0.090757556,-0.1101536,0.058459222,0.17105918,-0.35004434,-0.2185859,-0.010763437,-0.2180226,-0.004403147,0.1749089,0.08399657,-0.07576856,-0.039065983,0.05611202,0.0014917225,-0.19849092,0.14829732,-0.017374804,-0.13789801,-0.15558256,-0.11255856,0.016648313,0.11334691,-0.02788557,-0.14585896,-0.17801991,0.016575381,-0.1028159,-0.013217287,-0.08880738,-0.09524611,-0.24223039,-0.26759553,0.073165424,0.00030972122,-0.053340074,-0.15707466,0.2532685,-0.10250382,-0.047578674,0.021021774
Enter decimal probability of complementary event,0.14309306,0.06482161,-0.020348728,0.039859787,-0.22410497,-0.21421972,0.18052962,0.22421625,-0.006042381,-0.016193721,-0.26916602,-0.11348809,-0.0175446,0.044836212,0.13534304,-0.15253028,0.19546811,0.015550712,-0.07286058,-0.39167425,-0.22911642,-0.11115215,-0.00016094279,-0.12726988,0.133582,-0.044750974,0.06273574,-0.009228702,0.028426265,0.091930375,0.2674397,0.061272576,0.21522318,-0.03581115,-0.15762651,-0.01662051,-0.12570408,-0.08682865,0.018122207,-0.108162895,-0.20327081,0.1563692,-0.03638205,0.057455722,-0.14425987,-0.119136065,0.057010923,0.23060688,-0.08502774,0.03225547
Enter decimal probability of disjoint events,-0.17933191,-0.010746926,0.031238768,0.16357636,0.24430798,0.08942123,-0.031369917,0.13667503,0.024051035,0.0422022,-0.0016419627,0.053833935,-0.09312826,0.018342067,0.23974192,-0.07623142,0.34429413,-0.03992966,-0.06835866,0.020577464,0.01116782,-0.10973014,-0.2373154,-0.2726309,0.00367759,0.10204591,-0.014162922,0.10122743,0.0018869699,-0.11974672,0.13754734,0.12638937,-0.10552944,0.003893669,-0.07275187,-0.09683661,-0.012108421,0.14158644,-0.069754615,-0.003270367,0.17714527,0.15862,-0.33436006,-0.33589825,0.059656136,-0.019544298,0.20019048,0.18210438,0.14154814,0.087547906
Enter decimal probability of event,-0.19279775,0.02705398,0.16490166,-0.030281417,0.008026558,0.073131636,0.1981096,-0.14737552,0.19950797,0.12178373,0.04147132,-0.023599384,-0.32287744,0.09790512,-0.15483297,-0.014067646,0.21035296,0.07922329,0.01277482,-0.032550313,-0.012610109,-0.13165978,0.21404302,0.055043954,0.01915212,0.10433061,-0.046344407,-0.032573175,-0.15898761,-0.079144806,-0.26770443,0.08074903,-0.07036194,0.14632936,0.2097688,-0.09920047,0.12813261,-0.18974271,-0.07887103,-0.081627786,0.16569728,-0.17326175,-0.001450198,-0.044068247,0.25755218,0.002508313,-0.36371654,0.026663672,-0.16146414,-0.008762873
Enter decimal probability of one,0.121606514,-0.03732602,-0.22054169,0.07440441,-0.035485923,0.039429963,0.06578702,0.2136434,-0.028073257,-0.0020464156,-0.059905175,-0.082539484,-0.0009139748,0.050072048,0.07772656,-0.05039881,0.4930122,-0.02379582,-0.20241687,-0.09577847,-0.10091524,0.019280767,0.046304047,-0.33615232,0.18659174,0.006487243,0.07178619,0.24508055,-0.07844777,-0.03223596,0.15813863,0.21844204,0.05138407,-0.17114268,0.0060446355,-0.095843926,-0.16332301,0.03890295,-0.012482827,-0.1865142,-0.037704337,0.30979833,-0.046805654,-0.080830306,-0.058768217,0.09056635,0.022883618,0.075445995,0.07690678,-0.14463235
Enter decimal probability of zero,0.004979408,0.03992966,-0.08857985,-0.0799612,-0.11924647,-0.055928502,0.024900587,0.25531012,0.009105779,-0.12221836,-0.17880058,-0.17211057,0.057169102,-0.100818515,0.18970907,-0.19606245,0.29034418,-0.049419135,-0.015275182,-0.15268834,-0.021490349,-0.19738105,-0.15506437,-0.032845818,-0.043423384,0.098541714,0.03304711,0.015209548,0.045420565,-0.012655004,0.33319783,0.10440607,0.026101073,-0.06470561,-0.20743778,-0.09959733,-0.12587872,0.19068034,-0.016185824,-0.009022479,-0.07578353,0.13255386,-0.33080426,-0.06695342,-0.198416,-0.071680635,0.19006737,0.25170785,0.09676707,0.1538494
Enter denominator of converted unit,0.05664137,0.2006943,0.08830781,-0.20430242,-0.1627781,0.13556021,-0.20789768,-0.085571274,0.0527873,0.18430711,0.23310322,0.14753282,-0.2532864,0.20621423,-0.06544568,-0.16214009,0.10660288,0.077692315,-0.28920835,0.09827513,0.0476092,-0.013075023,-0.14926521,-0.029108876,-0.06418985,-0.041353106,-0.23562907,0.020239804,-0.0010753631,0.066205285,0.13193238,-0.20160058,-0.1082342,-0.1066609,0.04305914,-0.23363383,0.05455093,-0.011593331,0.15295134,-0.10255354,-0.041371655,-0.25808647,0.01631474,-0.04162131,0.08408689,0.049113285,0.16235268,0.16678455,0.17342976,0.14277107
Enter denominator of form of 1,0.15879546,0.065977894,-0.052637927,-0.03548978,0.16840889,0.2648882,0.03445631,0.06044486,-0.0012122034,-0.010456772,0.015448954,0.0056092483,0.17673391,-0.18516058,0.037582945,-0.028536696,-0.14926425,0.011201656,0.022339322,0.10103143,-0.085090615,-0.06691674,0.14301684,0.049252532,-0.1069949,-0.51112604,0.0016957994,-0.2588837,0.025983151,0.20699123,0.012864629,0.13617699,-0.014474355,0.05206992,0.024866825,0.0014463149,0.2766242,0.050246723,0.10630103,-0.05624286,-0.06844386,-0.15995438,-0.15190816,-0.26193509,0.040174443,0.25244856,-0.047952082,0.15716052,0.06374158,0.09915667
Enter denominator of given fraction in proportion,-0.13426562,0.029269101,-0.11738896,0.037007693,0.06993947,0.041504372,0.06811989,-0.049024127,-0.1617203,0.009382746,0.06079334,-0.011801595,0.00640676,0.07276573,0.04129836,0.22681357,-0.04723113,0.46417868,-0.123035796,-0.21514115,-0.117094986,-0.034274682,-0.0053214035,0.22573802,0.03386064,-0.24618277,-0.1117333,0.04803939,-0.13470778,0.23374164,0.15395264,-0.10691574,0.27859166,-0.14601049,-0.14855129,0.11355827,-0.09990496,-0.027880458,0.050854523,-0.11721166,0.08982262,0.098900795,0.18757817,-0.10078501,0.060404923,0.15981542,0.26741353,-0.049003344,-0.07822325,0.030142805
Enter denominator of given rate in proportion,0.2256607,-0.098019004,0.15571044,0.043542687,-0.06813722,-0.2635537,0.048567295,0.020173537,-0.1371201,-0.056421928,-0.06969141,-0.0048008957,-0.21513164,0.06872407,0.01387859,0.20197913,-0.010568031,-0.04870095,-0.1781117,-0.19312747,-0.26120326,0.10491367,0.26736444,0.09439386,0.00028349902,-0.033035718,-0.019831592,0.12683783,0.056269504,0.051995505,-0.29624417,0.027145686,-0.022679409,0.030413426,0.027926238,-0.09782864,0.20531209,0.04482745,0.045725122,-0.21684924,0.21320103,-0.03859277,-0.032045737,0.00070917705,0.31835863,0.3127213,0.017375018,-0.04520179,0.07366594,0.12070934
Enter denominator of given unit rate in proportion,0.038382303,-0.084490344,-0.22524281,-0.011948306,-0.19225645,-0.14789031,0.04822057,0.051672887,-0.07178575,0.21259981,-0.0872725,-0.12216659,-0.1370141,-0.06712551,-0.006545444,0.21246822,-0.30229083,-0.0092618745,-0.0052169287,0.061559163,0.058171045,-0.19242094,-0.10098608,-0.1538727,0.066978976,-0.23647867,-0.38626382,0.16797172,0.08374495,-0.15825155,-0.10097978,0.07120291,-0.17554052,-0.050225165,0.044657018,-0.24179478,0.11293504,0.07590804,0.06682095,-0.16743834,0.068113655,0.039631728,0.023342738,-0.04313508,-0.03692742,0.22172071,0.06362403,-0.14807957,-0.22338262,0.027992662
Enter experimental probability for large number,0.08048164,-0.038826425,0.18517074,0.029726809,0.07161739,0.10500445,0.24638577,0.044714987,0.004957296,0.1241674,-0.14684358,0.082902215,0.052081704,-0.08032404,0.21981813,0.005138621,0.113653526,-0.020330213,0.004599533,-0.08916227,0.1331356,-0.18433674,-0.18829946,-0.12797114,-0.051684685,0.23537734,0.024791982,0.10469873,-0.19712983,-0.24236123,0.0070986743,0.042499255,-0.10241932,-0.06409351,0.20186831,-0.1544041,-0.14519095,-0.03479569,-0.11661271,-0.22181663,0.21879773,-0.1104246,-0.23083635,0.02206581,0.016371513,-0.14798003,0.28856105,0.12042535,-0.2107075,0.2004871
Enter experimental probability for medium number,0.08079266,-0.041090503,0.19352634,0.043549836,0.06194062,0.12798916,0.2549098,0.04247771,-0.0026513552,0.105342604,-0.12403224,0.10127277,0.05499175,-0.07793346,0.24365176,0.006157294,0.11100486,-0.040760525,0.010719546,-0.07468418,0.13575867,-0.168281,-0.1779964,-0.10968063,-0.062827066,0.24902196,0.027825188,0.10206776,-0.18524468,-0.23374777,0.0049928455,0.031947784,-0.10837766,-0.050409395,0.18873127,-0.15430608,-0.12606229,-0.039016478,-0.11379235,-0.21079181,0.23657785,-0.10846815,-0.23531869,0.021936635,0.023842989,-0.13675688,0.2872348,0.11463311,-0.23657759,0.19978012
Enter experimental probability for small number,0.08841044,-0.04312785,0.17941678,0.043359075,0.061559252,0.105281614,0.23844941,0.015970595,0.015231761,0.12283865,-0.13232516,0.088817075,0.020091008,-0.060658693,0.25155166,-0.012291327,0.18222536,-0.014571775,-0.0024291119,-0.114766784,0.122104615,-0.1769632,-0.16156408,-0.124361046,-0.026448319,0.21755196,0.016830992,0.13340004,-0.16252697,-0.22734329,0.02069013,0.022439973,-0.10343856,-0.038348492,0.21283054,-0.18216857,-0.14399554,-0.030379849,-0.102613404,-0.23309115,0.24420539,-0.044662055,-0.24513353,0.030972136,0.024447441,-0.122077785,0.2765709,0.14311594,-0.20797817,0.20229793
Enter first extreme in equation,-0.15050973,-0.2069722,-0.15966262,0.14856718,0.13457511,-0.3013458,-0.06521831,0.16756563,-0.06373268,-0.14849897,0.13421586,-0.053870834,-0.25270084,-0.06607702,-0.11879158,0.21956941,0.07362958,0.12058362,-0.07200573,0.08094284,-0.044514988,0.017740335,0.16971289,-0.05848609,-0.0036029324,-0.2186777,-0.29758054,-0.11642723,-0.21311468,0.049500685,-0.08396456,0.061244823,0.009009107,-0.04363333,-0.0059367786,0.06925545,-0.10158655,0.12958132,0.011473977,-0.26395392,-0.06742254,-0.24419083,-0.17082673,-0.21613504,0.0070824404,0.022858357,-0.042863376,-0.06770821,0.20466705,-0.024565017
Enter first mean in equation,-0.2423055,-0.08769534,-0.21485044,0.089725904,0.15018438,-0.28320837,-0.06822158,0.16777132,0.0017510948,-0.17348741,0.13886668,-0.092440195,-0.22820158,-0.13068154,-0.2060329,0.26362535,0.113102,0.15421548,-0.06581625,0.09302958,-0.02440271,0.024934268,0.16162403,-0.034737136,-0.08597072,-0.18126352,-0.24710387,-0.15370078,-0.2365186,0.045993537,-0.04430923,0.099795006,-0.004760025,0.015188786,-0.014524293,0.046535656,-0.10135152,0.13395768,-0.023767382,-0.24929163,-0.09074131,-0.21717103,-0.119631685,-0.16604313,-0.010613866,0.04804449,-0.07576037,-0.13196503,0.12393607,0.0008160812
Enter fractional probability of complementary event,-0.11623018,0.0464821,-0.09137683,0.009474484,-0.23944525,-0.13221645,0.23300438,-0.0025265946,0.028887894,0.11764296,-0.1828877,-0.12306572,-0.11529165,0.01806677,0.00031991588,-0.20816931,0.1054502,0.05118169,-0.16570763,-0.34418264,-0.27230832,-0.05005713,0.07690188,-0.057590056,0.23602672,0.11383676,-0.0597888,0.05793297,-0.10247849,-0.0859264,-0.14166361,0.208662,0.22824165,0.22666873,-0.022696402,-0.053536963,-0.08520756,-0.14005488,-0.075909846,-0.21545161,0.007245112,-0.09092582,0.06898916,0.008352572,-0.057107877,0.08210721,-0.23134016,0.17179392,-0.1779713,-0.012169495
Enter fractional probability of disjoint events,-0.17928761,0.031397905,0.07691675,0.17086007,0.16713072,0.17232513,-0.023279214,-0.029354872,0.004304493,0.044340555,0.106999554,-0.02197697,-0.0901236,0.07191478,0.038358506,-0.078016445,0.31192544,0.04808088,-0.12190316,0.10154083,0.11340651,-0.056099825,-0.13413997,-0.1898336,0.07716428,0.14030221,-0.11051675,0.15575442,-0.108489804,-0.20198733,-0.028530236,0.1465529,-0.18080673,0.042157788,0.013967125,-0.24095082,-0.09794971,0.07834147,-0.15745604,-0.05460912,0.32962787,0.067570455,-0.27378586,-0.38448086,0.1303483,0.01912132,0.03923944,0.11683447,0.0016951824,0.037251737
Enter fractional probability of event,0.17853373,-0.08124735,0.025113333,-0.048591442,-0.09102465,-0.03184732,0.06941579,0.035718843,-0.00653975,-0.06742003,-0.096496716,-0.13654251,-0.0680606,0.031108724,0.01414606,0.20054482,0.33932644,0.17973411,0.21581072,-0.20878375,0.028942468,-0.1294037,0.14659968,0.09952082,0.09445346,-0.089816034,0.0762708,-0.07692141,0.0137974825,-0.08700843,0.24185151,-0.32313526,-0.012007372,-0.162513,0.10242376,-0.09021984,0.085986495,-0.01250212,-0.102964945,0.10660192,-0.0226197,0.35036233,-0.12489487,0.3090932,0.09667284,-0.0013208668,0.1939116,0.10837461,0.09236756,0.047589302
Enter fractional probability of one,-0.06097983,0.15159458,-0.076513365,0.16633776,0.08874541,-0.07721963,0.24447097,0.21283466,0.0056136944,0.23100875,-0.18969925,0.19068603,-0.20132482,0.11391364,0.08992237,-0.013499859,0.19992027,-0.07317154,-0.24114528,-0.15408304,-0.21161556,-0.08118721,0.10544747,-0.30150175,0.09605253,0.096377864,0.14820363,0.2112981,-0.18516487,-0.023192298,0.039438758,0.27319315,-0.015328425,-0.045105014,-0.013132201,-0.031581987,-0.045539603,-0.11231417,-0.021914048,-0.09896835,-0.014475852,0.10713488,0.0075192014,-0.17294244,0.094146326,0.06012012,-0.12064955,0.14765853,-0.14703412,-0.12685901
Enter fractional probability of zero,-0.27124327,0.3281748,0.060515366,-0.10808932,-0.04548756,0.086226895,0.0845653,-0.025903152,0.13633238,0.027899692,-0.04253742,-0.08312832,-0.112963855,0.12149143,0.0024514582,-0.18305174,0.2011298,-0.06967123,-0.19598559,-0.12762488,-0.07710326,-0.18435942,-0.058123883,-0.20898987,-0.042532783,0.12887105,-0.08349034,-0.082693264,-0.050724223,-0.08364182,-0.017348835,0.27707323,0.023158643,0.21632044,-0.022182727,-0.2032644,0.0110594295,-0.037516113,-0.05411545,-0.09158868,0.15491389,-0.21551551,-0.061216556,-0.2709916,0.017147895,0.042989463,-0.20535219,0.057692293,-0.29430962,0.08487661
Enter given hypotenuse in context,0.01286702,-0.32707375,-0.2211158,-0.08346482,-0.115230195,0.066654034,-0.112557985,-0.13643208,0.16486354,-0.21274383,-0.2649133,-0.21365756,-0.054125916,0.055000104,-0.06304616,-0.012138274,-0.15270057,-0.07488566,-0.091444016,-0.030978404,-0.08464097,-0.11681201,-0.12949507,-0.14304487,0.11855539,-0.12482241,-0.077822186,0.36881998,-0.05043316,-0.04669958,0.017882658,0.019338934,-0.015761029,-0.039010044,-0.055180565,0.118738644,-0.094563104,0.19916151,-0.1218191,-0.06162486,-0.08718144,-0.109330885,-0.14873017,-0.22750409,0.10833717,-0.13369606,0.27629867,-0.15090927,-0.088570826,0.007838587
Enter given hypotenuse out of context,0.0021957865,-0.31831175,-0.16737038,-0.053221907,-0.11003403,0.07760527,-0.12939574,-0.14976618,0.11868703,-0.24069117,-0.29268056,-0.15624124,0.008848453,0.09382077,-0.03409978,-0.04061853,-0.14652024,0.074201174,-0.07014335,-0.027285941,-0.16924803,-0.12157526,-0.16783345,-0.16737182,0.04548134,-0.09417197,-0.09850778,0.40463996,-0.11177194,-0.10068153,-0.0024179856,-0.008088843,-0.030022077,-0.04912314,-0.012742864,0.12561488,-0.06857632,0.16973525,-0.13888429,-0.13542877,-0.00040426222,-0.14123546,-0.032311928,-0.22441952,0.15855357,-0.13502961,0.19814958,-0.107750356,-0.14374377,0.02749668
Enter given intercept from context,0.0043027736,-0.039253224,-0.16401748,-0.1298639,-0.20778964,-0.093855,0.042764172,0.11636779,-0.07546213,0.080889106,0.11034069,-0.36451018,-0.030530797,0.06897065,-0.07911687,0.15968443,0.23199336,-0.049716186,0.0355828,0.06986837,-0.062581286,-0.09980626,0.16521314,0.2232724,0.02093351,-0.10478492,0.21541283,0.100239,0.22383957,0.10631012,0.11484856,0.041045092,0.20134453,0.16363361,-0.22714548,0.07941523,0.17556192,-0.14064851,0.11669149,0.051328294,0.05542527,0.30925125,0.094371386,0.048538703,-0.09093616,0.18389243,-0.104327254,-0.152873,0.12822492,0.012338183
Enter given leg in context,0.078420155,-0.0043070437,-0.16349788,-0.17061456,-0.19014658,-0.042146333,-0.19874619,0.1778292,0.007963823,0.13670109,-0.0611436,-0.19798642,-0.12805253,-0.39674735,0.18338169,0.048474707,0.014372196,-0.1296769,0.009037639,-0.22422116,0.15845889,-0.14660625,-0.16757587,0.044916406,0.01724956,0.16676122,0.06393602,0.22612071,-0.1843827,0.06032743,0.09598427,0.15330406,-0.027521905,-0.14122944,-0.17245299,0.056144893,0.064222805,-0.030868363,-0.046358738,0.11251985,0.02981666,-0.023752432,-0.252875,0.01189273,-0.01743442,-0.15338333,0.1308505,0.17983101,0.028077632,0.21587554
Enter given leg out of context,0.019242415,0.07021994,-0.08239625,-0.071484484,-0.18374015,-0.16876964,-0.20431256,0.02537795,0.022619365,0.16063988,-0.08632441,-0.10231569,-0.05656891,-0.3034172,0.14008987,-0.01615404,-0.0031774645,0.05640266,-0.06587835,-0.21092227,0.14177091,-0.20890367,-0.18176284,0.008852162,0.07424024,0.18471427,-0.011122742,0.3049662,-0.14393127,-0.0064723147,0.06916828,0.12347905,-0.033724457,-0.08152502,-0.11577245,0.15286538,0.094091706,0.010227864,-0.13680258,0.08735124,0.073641345,-0.062282,-0.26867464,-0.067505,0.027337134,-0.16377428,0.045529537,0.2567751,-0.10667132,0.3514282
Enter given part in proportion,-0.103350386,-0.01902752,0.06894414,-0.11173286,0.0301777,0.044568013,-0.26187396,0.0021343033,0.22444908,-0.07295773,0.119999215,0.12059298,-0.11043043,-0.0024418314,-0.09217089,-0.10539233,-0.003343233,-0.071927264,0.256785,-0.008150777,0.16351773,0.034211446,-0.14047533,-0.002677931,-0.39666954,0.010825812,0.04345736,-0.108229995,-0.042580448,0.0013882495,-0.017253498,0.004117948,0.13275482,0.005909781,-0.049484055,0.2859203,0.23755814,0.09241762,0.2550685,0.016453091,0.0023787457,-0.09669227,0.066734985,0.044187166,-0.010626817,-0.14954849,-0.29608852,-0.10858182,-0.2623636,0.23035452
Enter given point,-0.056066122,-0.017635347,0.16513655,-0.09509458,0.27415717,-0.13025306,-0.0033405365,-0.10798386,-0.055946603,0.14217123,0.086204134,-0.1353445,-0.074683025,0.034200147,0.1860406,-0.026055712,0.47605386,0.06583473,0.02753431,0.013780775,-0.08109428,-0.18101667,0.0016210303,-0.0386507,-0.07632798,0.21691354,0.14291231,-0.0339443,0.103700645,0.18199223,0.023936061,0.025333656,-0.056915443,0.16163151,0.13968168,-0.0017161838,-0.04109174,-0.13592847,-0.07119966,-0.23116949,0.3106764,-0.029885743,-0.1555683,0.16737646,0.022570072,0.10079678,-0.22356787,0.10742282,-0.07015516,0.13680755
